{"learner":{"attributes":{},"feature_names":["TransactionAmt","card1","card2","card3","card5","addr1","addr2","dist1","dist2","C1","C2","C3","C4","C5","C6","C7","C8","C9","C10","C11","C12","C13","C14","D1","D2","D3","D4","D5","D6","D7","D8","D9","D10","D11","D12","D13","D14","D15","M2","M3","M4","M5","M6","M7","M8","M9","V1","V2","V3","V4","V5","V6","V7","V8","V9","V10","V11","V12","V13","V14","V15","V16","V17","V18","V19","V20","V21","V22","V23","V24","V25","V26","V27","V28","V29","V30","V31","V32","V33","V34","V35","V36","V37","V38","V39","V40","V41","V42","V43","V44","V45","V46","V47","V48","V49","V50","V51","V52","V53","V54","V55","V56","V57","V58","V59","V60","V61","V62","V63","V64","V65","V66","V67","V68","V69","V70","V71","V72","V73","V74","V75","V76","V77","V78","V79","V80","V81","V82","V83","V84","V85","V86","V87","V88","V89","V90","V91","V92","V93","V94","V95","V96","V97","V98","V99","V100","V101","V102","V103","V104","V105","V106","V107","V108","V109","V110","V111","V112","V113","V114","V115","V116","V117","V118","V119","V120","V121","V122","V123","V124","V125","V126","V127","V128","V129","V130","V131","V132","V133","V134","V135","V136","V137","V138","V139","V140","V141","V142","V143","V144","V145","V146","V147","V148","V149","V150","V151","V152","V153","V154","V155","V156","V157","V158","V159","V160","V161","V162","V163","V164","V165","V166","V167","V168","V169","V170","V171","V172","V173","V174","V175","V176","V177","V178","V179","V180","V181","V182","V183","V184","V185","V186","V187","V188","V189","V190","V191","V192","V193","V194","V195","V196","V197","V198","V199","V200","V201","V202","V203","V204","V205","V206","V207","V208","V209","V210","V211","V212","V213","V214","V215","V216","V217","V218","V219","V220","V221","V222","V223","V224","V225","V226","V227","V228","V229","V230","V231","V232","V233","V234","V235","V236","V237","V238","V239","V240","V241","V242","V243","V244","V245","V246","V247","V248","V249","V250","V251","V252","V253","V254","V255","V256","V257","V258","V259","V260","V261","V262","V263","V264","V265","V266","V267","V268","V269","V270","V271","V272","V273","V274","V275","V276","V277","V278","V279","V280","V281","V282","V283","V284","V285","V286","V287","V288","V289","V290","V291","V292","V293","V294","V295","V296","V297","V298","V299","V300","V301","V302","V303","V304","V305","V306","V307","V308","V309","V310","V311","V312","V313","V314","V315","V316","V317","V318","V319","V320","V321","V322","V323","V324","V325","V326","V327","V328","V329","V330","V331","V332","V333","V334","V335","V336","V337","V338","V339","is_visa","is_american_express","is_discover","is_mastercard","is_debit","ProductCD_W","ProductCD_C","ProductCD_R","ProductCD_H","ProductCD_S","gmail_hotmail_or_yahoo_email","nan_email"],"feature_types":["float","int","float","float","float","float","float","float","float","float","float","float","float","float","float","float","float","float","float","float","float","float","float","float","float","float","float","float","float","float","float","float","float","float","float","float","float","float","int","int","int","int","int","int","int","int","float","float","float","float","float","float","float","float","float","float","float","float","float","float","float","float","float","float","float","float","float","float","float","float","float","float","float","float","float","float","float","float","float","float","float","float","float","float","float","float","float","float","float","float","float","float","float","float","float","float","float","float","float","float","float","float","float","float","float","float","float","float","float","float","float","float","float","float","float","float","float","float","float","float","float","float","float","float","float","float","float","float","float","float","float","float","float","float","float","float","float","float","float","float","float","float","float","float","float","float","float","float","float","float","float","float","float","float","float","float","float","float","float","float","float","float","float","float","float","float","float","float","float","float","float","float","float","float","float","float","float","float","float","float","float","float","float","float","float","float","float","float","float","float","float","float","float","float","float","float","float","float","float","float","float","float","float","float","float","float","float","float","float","float","float","float","float","float","float","float","float","float","float","float","float","float","float","float","float","float","float","float","float","float","float","float","float","float","float","float","float","float","float","float","float","float","float","float","float","float","float","float","float","float","float","float","float","float","float","float","float","float","float","float","float","float","float","float","float","float","float","float","float","float","float","float","float","float","float","float","float","float","float","float","float","float","float","float","float","float","float","float","float","float","float","float","float","float","float","float","float","float","float","float","float","float","float","float","float","float","float","float","float","float","float","float","float","float","float","float","float","float","float","float","float","float","float","float","float","float","float","float","float","float","float","float","float","float","float","float","float","float","float","float","float","float","float","float","float","float","float","float","float","float","float","float","float","float","float","float","float","float","float","float","float","float","float","float","float","float","float","float","float","float","float","float","float","float","float","float","float","float","float","float","float","float","float","float","float","int","int","int","int","int","int","int","int","int","int","int","int"],"gradient_booster":{"model":{"cats":{"enc":[],"feature_segments":[],"sorted_idx":[]},"gbtree_model_param":{"num_parallel_tree":"1","num_trees":"10"},"iteration_indptr":[0,1,2,3,4,5,6,7,8,9,10],"tree_info":[0,0,0,0,0,0,0,0,0,0],"trees":[{"base_weights":[-1.5224233E-9,-6.0909344E-3,5.83838E-1,-8.431957E-3,2.9396737E-1,3.3943415E-1,8.128741E-1,-9.50606E-3,4.8351103E-1,1.727797E-1,5.7589E-1,6.1704237E-2,1.4865617E-1,8.573642E-1,6.595217E-2,6.406011E-2,-1.4089073E-2,5.7220597E-2,3.8516156E-2,3.1728327E-1,3.5093948E-3,6.54054E-2,4.771736E-2,5.0068633E-3,2.6013E-2,7.505711E-2,9.156629E-2,5.055881E-2,5.169047E-2,-1.8731264E-2,5.7745736E-2,1.1493794E-2,5.702407E-2,1.6096145E-1,2.2851765E-2,2.1858145E-2,-2.1432959E-2,4.786841E-2,3.1028867E-2,1.3033842E-1,3.5827097E-2,5.237597E-2,8.723851E-3,8.886779E-3,7.01832E-2,-2.259176E-2,5.3517316E-2,3.985973E-2,2.4145028E-1,2.5231906E-3,1.616298E-1,2.839823E-3,9.209728E-2,-2.9029057E-4,3.7259307E-2,1.9484153E-4,4.723245E-2,9.598219E-2,1.9827557E-3,-2.3132868E-2,8.1074126E-2,1.6476896E-2,1.6551998E-1,6.5952286E-2,1.3185021E-2,1.5182822E-2,3.2633804E-2,2.81554E-2,1.261421E-1,2.2679528E-2,4.1318838E-2,2.0180892E-3,1.1533959E-2,2.7600606E-3,1.0182831E-2,7.018491E-3,1.525687E-1,-1.7302081E-2,-2.8805588E-3,4.017563E-3,1.9307006E-2,5.5928947E-5,1.3776371E-2,3.7662648E-2,4.617613E-3,5.1361986E-2,1.5217647E-1,1.150092E-1,3.5386144E-3,2.2386938E-2,1.0336628E-2,5.01227E-5,8.619889E-3,7.7134417E-3,2.3395998E-2,-1.8022476E-2,2.9118255E-2,5.896355E-2,-1.0134066E-3,8.403472E-3,2.2303665E-2,3.1565446E-3,1.9659083E-2,-8.132156E-4,7.7448147E-3,-3.1660912E-3,-2.0115437E-2,2.0874111E-2,-1.4484824E-3,1.0240538E-1,5.020244E-2,-9.3254255E-4,3.8511623E-3,-5.79102E-4,6.96375E-3,-2.1110196E-3,3.7651503E-4,5.6491015E-3,1.7877495E-2,1.337573E-3,6.5449454E-2,4.997832E-3,1.3014252E-1,2.0383228E-2,6.1061867E-3],"categories":[],"categories_nodes":[],"categories_segments":[],"categories_sizes":[],"default_left":[1,0,0,1,0,0,0,0,0,0,0,0,0,1,0,0,1,0,0,0,0,0,0,0,0,0,0,1,0,0,1,0,0,1,0,0,0,1,0,0,0,0,0,0,1,1,0,1,0,0,1,0,0,0,0,0,1,0,0,0,0,1,1,1,0,0,0,0,0,0,0,0,0,0,0,0,0,0,0,0,0,0,0,0,0,1,0,0,1,0,0,0,0,0,0,0,1,1,0,0,0,0,0,0,0,0,0,0,0,0,1,0,0,0,0,0,0,0,0,0,0,0,0,0,0],"id":0,"left_children":[1,3,5,7,9,11,13,15,17,19,21,-1,23,25,-1,27,29,-1,-1,31,-1,-1,-1,-1,-1,-1,-1,33,-1,35,37,-1,-1,39,41,43,45,47,-1,49,-1,51,53,55,57,59,61,63,65,-1,67,-1,69,-1,71,-1,73,75,-1,77,79,81,83,85,87,-1,-1,-1,89,-1,91,-1,-1,-1,-1,-1,93,95,-1,-1,-1,-1,-1,-1,-1,97,99,101,103,-1,-1,-1,-1,-1,-1,105,107,109,-1,-1,-1,-1,-1,111,-1,113,115,-1,-1,117,119,-1,-1,-1,-1,-1,-1,-1,-1,-1,121,-1,123,-1,-1],"loss_changes":[1.6800952E3,3.28469E2,2.7029797E2,2.4520338E2,1.22684296E2,1.2497229E2,1.1477417E1,1.5609918E2,6.615143E0,5.0544083E1,5.243225E0,0E0,1.5497437E1,5.0372314E0,0E0,1.6574567E2,1.4534445E2,0E0,0E0,6.2864845E1,0E0,0E0,0E0,0E0,0E0,0E0,0E0,8.0648636E1,0E0,4.489673E1,6.584711E1,0E0,0E0,3.1496368E1,8.795315E0,1.601146E1,3.3348755E1,3.939544E1,0E0,1.5071823E1,0E0,6.475115E0,4.7391577E0,5.3619742E0,7.004032E0,2.1222107E1,2.4229744E1,1.7024796E1,7.1884193E0,0E0,1.4706238E1,0E0,1.7450264E1,0E0,5.490694E0,0E0,3.2816677E0,5.1072464E0,0E0,1.2433044E1,8.923046E0,8.503505E0,3.6408157E1,1.5482494E1,1.1894754E1,0E0,0E0,0E0,5.887375E0,0E0,3.4343739E0,0E0,0E0,0E0,0E0,0E0,6.634596E0,6.207241E0,0E0,0E0,0E0,0E0,0E0,0E0,0E0,4.958311E0,8.431511E0,7.0721817E0,3.5631332E0,0E0,0E0,0E0,0E0,0E0,0E0,5.6781235E0,2.225776E1,3.537632E0,0E0,0E0,0E0,0E0,0E0,3.5083325E0,0E0,4.3161097E0,3.8035355E0,0E0,0E0,5.414669E0,4.4085464E0,0E0,0E0,0E0,0E0,0E0,0E0,0E0,0E0,0E0,5.500826E0,0E0,5.3071384E0,0E0,0E0],"parents":[2147483647,0,0,1,1,2,2,3,3,4,4,5,5,6,6,7,7,8,8,9,9,10,10,12,12,13,13,15,15,16,16,19,19,27,27,29,29,30,30,33,33,34,34,35,35,36,36,37,37,39,39,41,41,42,42,43,43,44,44,45,45,46,46,47,47,48,48,50,50,52,52,54,54,56,56,57,57,59,59,60,60,61,61,62,62,63,63,64,64,68,68,70,70,76,76,77,77,85,85,86,86,87,87,88,88,95,95,96,96,97,97,103,103,105,105,106,106,109,109,110,110,120,120,122,122],"right_children":[2,4,6,8,10,12,14,16,18,20,22,-1,24,26,-1,28,30,-1,-1,32,-1,-1,-1,-1,-1,-1,-1,34,-1,36,38,-1,-1,40,42,44,46,48,-1,50,-1,52,54,56,58,60,62,64,66,-1,68,-1,70,-1,72,-1,74,76,-1,78,80,82,84,86,88,-1,-1,-1,90,-1,92,-1,-1,-1,-1,-1,94,96,-1,-1,-1,-1,-1,-1,-1,98,100,102,104,-1,-1,-1,-1,-1,-1,106,108,110,-1,-1,-1,-1,-1,112,-1,114,116,-1,-1,118,120,-1,-1,-1,-1,-1,-1,-1,-1,-1,122,-1,124,-1,-1],"split_conditions":[3E0,4E0,5E0,2E0,2E0,1E0,1E0,1E0,2.3E1,2E0,5E0,6.1704237E-2,1.79E2,2E0,6.595217E-2,3E0,1.71E2,5.7220597E-2,3.8516156E-2,5.32E2,3.5093948E-3,6.54054E-2,4.771736E-2,5.0068633E-3,2.6013E-2,7.505711E-2,9.156629E-2,6.8E1,5.169047E-2,7E0,3E0,1.1493794E-2,5.702407E-2,2E0,8E1,2.0895E2,4E0,2E0,3.1028867E-2,3E0,3.5827097E-2,1.2995E2,1E0,2E0,4E0,2E0,6E0,5.3E1,5.8E1,2.5231906E-3,1.81E2,2.839823E-3,1E0,-2.9029057E-4,3.43E2,1.9484153E-4,1.85E2,2.6995E2,1.9827557E-3,1E0,3E0,1.295E1,1.1166666E1,2.279E2,2.3E1,1.5182822E-2,3.2633804E-2,2.81554E-2,9.9583336E1,2.2679528E-2,1E0,2.0180892E-3,1.1533959E-2,2.7600606E-3,1.0182831E-2,7.018491E-3,1E0,1.2E3,-2.8805588E-3,4.017563E-3,1.9307006E-2,5.5928947E-5,1.3776371E-2,3.7662648E-2,4.617613E-3,1E0,1.2E3,1.53E2,2E0,2.2386938E-2,1.0336628E-2,5.01227E-5,8.619889E-3,7.7134417E-3,2.3395998E-2,3E0,1.84E2,1.74E2,-1.0134066E-3,8.403472E-3,2.2303665E-2,3.1565446E-3,1.9659083E-2,2.585E2,7.7448147E-3,4E0,3.9E2,2.0874111E-2,-1.4484824E-3,3E0,1.94E2,-9.3254255E-4,3.8511623E-3,-5.79102E-4,6.96375E-3,-2.1110196E-3,3.7651503E-4,5.6491015E-3,1.7877495E-2,1.337573E-3,4E0,4.997832E-3,3E0,2.0383228E-2,6.1061867E-3],"split_indices":[303,15,9,201,90,22,270,22,30,32,37,0,3,90,0,9,362,0,0,24,0,0,0,0,0,0,0,6,0,24,107,0,0,89,211,352,16,98,0,27,0,0,41,112,26,232,9,37,33,0,2,0,392,0,5,0,3,0,0,114,9,317,30,358,33,0,0,0,30,0,395,0,0,0,0,0,32,2,0,0,0,0,0,0,0,136,353,357,112,0,0,0,0,0,0,27,5,2,0,0,0,0,0,0,0,341,0,0,0,330,5,0,0,0,0,0,0,0,0,0,10,0,17,0,0],"split_type":[0,0,0,0,0,0,0,0,0,0,0,0,0,0,0,0,0,0,0,0,0,0,0,0,0,0,0,0,0,0,0,0,0,0,0,0,0,0,0,0,0,0,0,0,0,0,0,0,0,0,0,0,0,0,0,0,0,0,0,0,0,0,0,0,0,0,0,0,0,0,0,0,0,0,0,0,0,0,0,0,0,0,0,0,0,0,0,0,0,0,0,0,0,0,0,0,0,0,0,0,0,0,0,0,0,0,0,0,0,0,0,0,0,0,0,0,0,0,0,0,0,0,0,0,0],"sum_hessian":[4.72432E5,4.67564E5,4.868E3,4.63954E5,3.61E3,2.367E3,2.501E3,4.62953E5,1.001E3,2.536E3,1.074E3,9.55E2,1.412E3,1.903E3,5.98E2,2.7142E4,4.35811E5,5.01E2,5E2,1.231E3,1.305E3,5.68E2,5.06E2,7.57E2,6.55E2,7.21E2,1.182E3,2.6367E4,7.75E2,4.09364E5,2.6447E4,6.92E2,5.39E2,5.28E3,2.1087E4,2.5543E4,3.83821E5,2.5463E4,9.84E2,4.585E3,6.95E2,6.816E3,1.4271E4,2.0147E4,5.396E3,3.77984E5,5.837E3,2.4463E4,1E3,1.056E3,3.529E3,4.261E3,2.555E3,1.0146E4,4.125E3,1.7069E4,3.078E3,3.562E3,1.834E3,3.76029E5,1.955E3,4.395E3,1.442E3,1.2359E4,1.2104E4,5E2,5E2,7.9E2,2.739E3,6.9E2,1.865E3,3.395E3,7.3E2,2.275E3,8.03E2,2.462E3,1.1E3,1.85451E5,1.90578E5,1.442E3,5.13E2,3.894E3,5.01E2,5.13E2,9.29E2,1.0584E4,1.775E3,1.038E3,1.1066E4,5.01E2,2.238E3,9.82E2,8.83E2,5.81E2,5.19E2,1.82623E5,2.828E3,9.42E3,1.164E3,9.16E2,8.59E2,5.2E2,5.18E2,1.046E4,6.06E2,2.2554E4,1.60069E5,5.45E2,2.283E3,1.563E3,7.857E3,8.605E3,1.855E3,2.1778E4,7.76E2,1.53669E5,6.4E3,9.87E2,5.76E2,2.306E3,5.551E3,4.494E3,1.057E3,5.02E2,5.55E2],"tree_param":{"num_deleted":"0","num_feature":"397","num_nodes":"125","size_leaf_vector":"1"}},{"base_weights":[2.4483606E-5,-5.4640584E-3,5.261211E-1,-7.5748307E-3,2.650821E-1,3.5120362E-1,7.158969E-1,-8.554007E-3,4.5940492E-2,3.9720142E-1,4.622327E-3,5.9227383E-1,1.5962593E-1,6.035973E-1,7.988778E-2,5.7877235E-2,-1.2690855E-2,1.945237E-1,6.959507E-2,4.170743E-2,7.254016E-2,3.3303467E-3,2.9437542E-2,5.1600244E-2,6.791256E-2,1.7651165E-1,2.6449814E-2,-1.854206E-2,3.4755275E-2,3.6171004E-2,-3.8306016E-4,1.2928602E-1,3.9610956E-2,1.9482428E-2,2.8113205E-2,2.3198936E-2,-2.023083E-2,2.8969608E-2,2.5166148E-1,2.007177E-1,6.476424E-2,4.4913303E-2,4.4719093E-3,8.480019E-3,7.949627E-2,-2.0842375E-2,7.5640745E-2,7.34016E-2,1.4541522E-2,3.5545707E-2,9.773591E-3,8.620083E-3,2.341556E-1,1.0111224E-1,1.3548195E-3,6.4392954E-2,-1.5523247E-4,1.8086935E-3,-2.3077766E-3,4.242035E-3,7.3425765E-3,5.108602E-3,1.4565562E-2,-2.1482721E-2,3.2339368E-2,1.3303785E-1,-4.9218355E-4,3.8966507E-2,1.3063297E-1,8.162025E-3,1.1747134E-1,3.130375E-2,1.9842777E-2,1.6051058E-2,6.374094E-3,1.7190063E-2,5.187397E-2,-6.3954643E-4,3.0219557E-3,-1.6474182E-2,-2.6218246E-3,1.174797E-1,-1.5285324E-3,5.1467125E-3,2.5699107E-2,2.5887577E-2,8.883782E-2,1.8810084E-1,6.319978E-2,3.7520614E-2,8.519108E-4,2.7826611E-2,3.4980908E-2,8.890221E-2,1.2968787E-3,-1.4143962E-3,-2.0403784E-2,2.6598114E-3,2.0736206E-2,3.1850014E-2,-3.1112193E-3,1.5312974E-2,1.1020821E-2,1.4280095E-2,4.174827E-3,9.51542E-3,2.3288308E-1,-5.317099E-5,1.5589239E-2,7.3132897E-4,7.311009E-2,-2.3127375E-3,8.12683E-3,1.0288357E-2,-1.2631111E-3,5.391912E-3,2.247068E-2,-4.365488E-3,7.614578E-2,-2.0775916E-3,8.142571E-3,-1.5149104E-3,1.0822138E-2,6.0766295E-4,8.6210985E-3,1.8491516E-2,3.1227846E-2,2.9776446E-3,9.951409E-2,-4.0724585E-4,7.7208686E-3,-7.553302E-4,4.50474E-2,-6.713621E-4,2.062335E-2,4.1650487E-3,1.295151E-2,9.857127E-3,6.1844575E-4],"categories":[],"categories_nodes":[],"categories_segments":[],"categories_sizes":[],"default_left":[1,0,0,1,0,0,0,0,0,0,0,0,0,0,0,1,1,1,0,0,0,0,0,0,0,1,0,0,1,0,0,0,0,0,0,0,1,0,0,0,0,1,0,0,0,0,0,0,0,0,0,0,1,0,0,0,0,0,0,0,0,0,0,0,1,0,0,0,1,0,0,0,0,0,0,0,0,0,0,0,0,0,0,0,0,0,0,1,0,0,1,0,0,0,0,0,1,0,0,0,0,1,0,0,0,0,0,0,0,0,0,0,0,0,0,0,0,0,0,0,0,0,0,0,0,0,0,0,0,0,0,0,0,0,0,0,0,0,0],"id":1,"left_children":[1,3,5,7,9,11,13,15,-1,17,-1,19,21,23,-1,25,27,29,-1,-1,-1,-1,-1,-1,-1,31,33,35,37,-1,-1,39,-1,41,-1,43,45,47,49,51,53,55,57,59,61,63,65,67,69,-1,-1,-1,71,73,-1,75,-1,-1,-1,77,-1,-1,-1,79,81,83,-1,85,87,89,91,-1,-1,-1,-1,-1,93,-1,-1,95,-1,97,99,-1,-1,101,103,105,107,109,111,113,-1,115,-1,117,119,-1,-1,121,-1,123,-1,-1,-1,-1,125,-1,-1,-1,127,129,-1,-1,-1,-1,-1,131,133,-1,-1,-1,-1,-1,-1,-1,-1,-1,135,-1,-1,-1,137,-1,-1,-1,-1,-1,-1],"loss_changes":[1.3642065E3,2.670335E2,1.594115E2,2.1218938E2,1.0449043E2,1.1719241E2,1.6890625E1,1.2724796E2,0E0,1.3524661E2,0E0,2.3307251E1,2.4396458E1,3.3166504E0,0E0,1.01156296E2,1.21011086E2,4.5048023E1,0E0,0E0,0E0,0E0,0E0,0E0,0E0,5.8424286E1,3.8044865E1,2.7356873E1,5.998256E1,0E0,0E0,2.1494965E1,0E0,7.979978E0,0E0,1.2499859E1,2.1881256E1,2.9877872E1,1.949578E1,8.306648E0,4.6030693E0,7.024843E0,4.9403524E0,3.2931476E0,5.803114E0,1.2627075E1,1.0947068E1,2.2467083E1,2.310875E1,0E0,0E0,0E0,4.209381E0,3.1141691E0,0E0,7.270138E0,0E0,0E0,0E0,3.1115403E0,0E0,0E0,0E0,8.680801E0,1.2726788E1,1.3841074E1,0E0,4.6393805E0,1.6498161E1,7.116946E0,4.2683075E1,0E0,0E0,0E0,0E0,0E0,7.0646534E0,0E0,0E0,1.0532856E1,0E0,1.020467E1,3.1371937E0,0E0,0E0,5.045062E0,3.7037497E0,9.393448E0,1.1744814E1,7.1018953E0,6.7616315E0,4.5466895E0,0E0,1.1827263E1,0E0,8.436215E0,5.3658447E0,0E0,0E0,5.375348E0,0E0,3.3056247E0,0E0,0E0,0E0,0E0,5.3332367E0,0E0,0E0,0E0,3.4418144E0,3.5807362E0,0E0,0E0,0E0,0E0,0E0,5.5956454E0,1.45762615E1,0E0,0E0,0E0,0E0,0E0,0E0,0E0,0E0,0E0,3.2114105E0,0E0,0E0,0E0,4.4723487E0,0E0,0E0,0E0,0E0,0E0,0E0],"parents":[2147483647,0,0,1,1,2,2,3,3,4,4,5,5,6,6,7,7,9,9,11,11,12,12,13,13,15,15,16,16,17,17,25,25,26,26,27,27,28,28,31,31,33,33,35,35,36,36,37,37,38,38,39,39,40,40,41,41,42,42,43,43,44,44,45,45,46,46,47,47,48,48,52,52,53,53,55,55,59,59,63,63,64,64,65,65,67,67,68,68,69,69,70,70,76,76,79,79,81,81,82,82,85,85,86,86,87,87,88,88,89,89,90,90,91,91,93,93,95,95,96,96,99,99,101,101,106,106,110,110,111,111,117,117,118,118,128,128,132,132],"right_children":[2,4,6,8,10,12,14,16,-1,18,-1,20,22,24,-1,26,28,30,-1,-1,-1,-1,-1,-1,-1,32,34,36,38,-1,-1,40,-1,42,-1,44,46,48,50,52,54,56,58,60,62,64,66,68,70,-1,-1,-1,72,74,-1,76,-1,-1,-1,78,-1,-1,-1,80,82,84,-1,86,88,90,92,-1,-1,-1,-1,-1,94,-1,-1,96,-1,98,100,-1,-1,102,104,106,108,110,112,114,-1,116,-1,118,120,-1,-1,122,-1,124,-1,-1,-1,-1,126,-1,-1,-1,128,130,-1,-1,-1,-1,-1,132,134,-1,-1,-1,-1,-1,-1,-1,-1,-1,136,-1,-1,-1,138,-1,-1,-1,-1,-1,-1],"split_conditions":[3E0,4E0,3E0,2E0,2.5E1,1E0,5E0,1E0,4.5940492E-2,1.4E1,4.622327E-3,1.52E2,1.79E2,2E0,7.988778E-2,6.8E1,1E0,7E0,6.959507E-2,4.170743E-2,7.254016E-2,3.3303467E-3,2.9437542E-2,5.1600244E-2,6.791256E-2,2E0,3E0,4E0,3E0,3.6171004E-2,-3.8306016E-4,1E0,3.9610956E-2,5E2,2.8113205E-2,1.5E2,2E0,1E0,3.4E1,8.01E2,1.1207E4,3.1791666E1,1E0,2E0,1E0,4E0,5.9541664E1,9.2E1,2E0,3.5545707E-2,9.773591E-3,8.620083E-3,2.04E2,1.39E2,1.3548195E-3,4.7E1,-1.5523247E-4,1.8086935E-3,-2.3077766E-3,7.595E1,7.3425765E-3,5.108602E-3,1.4565562E-2,1E0,2.3E1,3E0,-4.9218355E-4,1E0,4.2E1,7E0,1E0,3.130375E-2,1.9842777E-2,1.6051058E-2,6.374094E-3,1.7190063E-2,1E0,-6.3954643E-4,3.0219557E-3,1E0,-2.6218246E-3,2E0,2.37E2,5.1467125E-3,2.5699107E-2,4E0,2E0,1E0,1E0,2.63E2,5.17E2,2E0,3.4980908E-2,1.2995E2,1.2968787E-3,6E2,1.145E3,2.6598114E-3,2.0736206E-2,2E0,-3.1112193E-3,2E0,1.1020821E-2,1.4280095E-2,4.174827E-3,9.51542E-3,4.36E2,-5.317099E-5,1.5589239E-2,7.3132897E-4,2E0,3E0,8.12683E-3,1.0288357E-2,-1.2631111E-3,5.391912E-3,2.247068E-2,4.45E2,1E0,-2.0775916E-3,8.142571E-3,-1.5149104E-3,1.0822138E-2,6.0766295E-4,8.6210985E-3,1.8491516E-2,3.1227846E-2,2.9776446E-3,1E0,-4.0724585E-4,7.7208686E-3,-7.553302E-4,1E1,-6.713621E-4,2.062335E-2,4.1650487E-3,1.295151E-2,9.857127E-3,6.1844575E-4],"split_indices":[303,15,19,194,22,22,303,22,0,19,0,3,3,92,0,6,339,24,0,0,0,0,0,0,0,90,10,24,107,0,0,389,0,210,0,0,232,389,37,27,1,30,75,20,97,16,30,357,98,0,0,0,2,4,0,36,0,0,0,0,0,0,0,114,23,90,0,41,37,24,396,0,0,0,0,0,392,0,0,389,0,132,23,0,0,18,22,32,395,353,32,80,0,0,0,2,365,0,0,132,0,112,0,0,0,0,179,0,0,0,327,20,0,0,0,0,0,0,385,0,0,0,0,0,0,0,0,0,23,0,0,0,37,0,0,0,0,0,0],"split_type":[0,0,0,0,0,0,0,0,0,0,0,0,0,0,0,0,0,0,0,0,0,0,0,0,0,0,0,0,0,0,0,0,0,0,0,0,0,0,0,0,0,0,0,0,0,0,0,0,0,0,0,0,0,0,0,0,0,0,0,0,0,0,0,0,0,0,0,0,0,0,0,0,0,0,0,0,0,0,0,0,0,0,0,0,0,0,0,0,0,0,0,0,0,0,0,0,0,0,0,0,0,0,0,0,0,0,0,0,0,0,0,0,0,0,0,0,0,0,0,0,0,0,0,0,0,0,0,0,0,0,0,0,0,0,0,0,0,0,0],"sum_hessian":[4.72432E5,4.67564E5,4.868E3,4.63954E5,3.61E3,2.548E3,2.32E3,4.62993E5,9.61E2,2.246E3,1.364E3,1.119E3,1.429E3,1.021E3,1.299E3,2.7134E4,4.35859E5,1.348E3,8.98E2,5.01E2,6.18E2,7.44E2,6.85E2,5.09E2,5.12E2,5.673E3,2.1461E4,3.88014E5,4.7845E4,7.27E2,6.21E2,4.682E3,9.91E2,2.09E4,5.61E2,1.5083E4,3.72931E5,4.6613E4,1.232E3,2.212E3,2.47E3,7.75E3,1.315E4,1.1966E4,3.117E3,3.70575E5,2.356E3,1.1416E4,3.5197E4,7.28E2,5.04E2,5.08E2,1.704E3,1.439E3,1.031E3,5.458E3,2.292E3,8.803E3,4.347E3,1.1243E4,7.23E2,2.193E3,9.24E2,3.66172E5,4.403E3,1.372E3,9.84E2,7.138E3,4.278E3,3.3153E4,2.044E3,5.07E2,1.197E3,5.43E2,8.96E2,5.56E2,4.902E3,7.982E3,3.261E3,1.77978E5,1.88194E5,1.246E3,3.157E3,8.36E2,5.36E2,5.667E3,1.471E3,2.3E3,1.978E3,6.601E3,2.6552E4,1.483E3,5.61E2,2.505E3,2.397E3,3.6833E4,1.41145E5,6.26E2,6.2E2,1.483E3,1.674E3,5.046E3,6.21E2,6.76E2,7.95E2,7.58E2,1.542E3,1.178E3,8E2,3.577E3,3.024E3,2.5556E4,9.96E2,5.14E2,9.69E2,2.003E3,5.02E2,3.5492E4,1.341E3,1.40639E5,5.06E2,9.23E2,5.6E2,4.474E3,5.72E2,9.82E2,5.6E2,1.153E3,1.871E3,2.5012E4,5.44E2,3.3349E4,2.143E3,8.25E2,5.16E2,6.47E2,1.224E3,8.95E2,1.248E3],"tree_param":{"num_deleted":"0","num_feature":"397","num_nodes":"139","size_leaf_vector":"1"}},{"base_weights":[4.448918E-5,-4.280433E-3,5.2085906E-1,-6.468883E-3,2.7642402E-1,6.259952E-1,2.131277E-2,-7.257132E-3,4.9079448E-2,1.9317499E-1,5.124998E-2,4.6796107E-1,7.262778E-2,-1.2897429E-2,3.632744E-2,5.0227936E-2,8.309528E-2,3.4764983E-2,6.070012E-2,4.9123887E-2,-1.6397579E-2,3.0732796E-2,2.805599E-1,2.941673E-3,2.3028528E-2,3.8498398E-2,3.9799027E-2,-1.7616678E-2,6.59975E-2,2.5936114E-2,2.2500578E-1,4.2225156E-2,1.1195424E-2,1.3844015E-1,1.4445126E-2,-1.8734396E-2,1.6538626E-2,3.4627803E-2,3.445198E-2,2.1766845E-2,1.8986256E-1,8.2774395E-3,4.0859416E-2,1.1092273E-1,3.2554235E-2,4.5560606E-2,1.6127553E-4,-1.4135064E-2,-2.314266E-2,5.5354694E-3,6.800651E-3,-3.1260395E-4,1.0044813E-1,1.0383623E-1,1.6392313E-2,7.878232E-3,3.3467762E-2,1.7645112E-1,5.014178E-3,1.2167319E-2,3.6231242E-2,7.993821E-4,-1.8071063E-2,-2.3485722E-2,6.447355E-3,3.6312253E-3,-6.848341E-4,2.9659517E-2,2.195382E-2,1.845517E-1,5.7754174E-2,4.0991597E-2,9.590164E-3,1.2675233E-2,2.1758368E-2,6.3243695E-3,9.165884E-4,-9.2055654E-4,1.2213408E-2,-1.8391435E-3,7.0570796E-3,-2.3807448E-3,2.8950917E-3,9.312187E-3,-1.9901309E-3,9.141861E-3,2.87986E-2,2.3758707E-3,1.3929643E-2,3.060789E-2,1.3611101E-2,3.399088E-3,4.6300296E-2,-3.5212575E-3,6.8276405E-2,1.7851463E-2,7.768476E-2,1.6713978E-3,1.0427094E-2,-2.3896287E-3,6.0719296E-2,3.4855967E-4,-1.8369664E-3,1.8815981E-2,-1.5210999E-3,8.37031E-4,8.359066E-3,1.9779939E-3,1.3414398E-2,4.570143E-2,-2.0858413E-3,7.2743915E-2,-2.4876026E-3,2.2010307E-3,1.0106987E-2,-4.397392E-3,7.363544E-3,8.820173E-2,-1.5890249E-4,2.8377653E-3,-1.9890354E-3,6.086888E-2,1.4630727E-2,-4.380973E-5,6.29664E-3,1.0027519E-1,4.654154E-4,1.4901583E-2,2.9443677E-3],"categories":[],"categories_nodes":[],"categories_segments":[],"categories_sizes":[],"default_left":[1,1,0,1,0,0,0,0,0,0,0,1,0,0,0,0,0,0,0,0,0,1,0,0,0,1,0,1,0,1,0,0,0,1,0,0,0,0,0,1,0,0,0,0,0,0,0,0,1,0,0,0,0,0,0,0,0,0,0,0,0,1,0,0,0,0,0,1,0,0,1,1,1,0,0,0,0,0,0,0,0,0,0,0,0,0,0,0,0,0,0,0,0,1,1,0,0,0,0,0,0,0,0,0,0,0,0,0,0,0,1,1,0,0,0,0,0,0,0,1,0,1,0,0,0,0,0,0,0],"id":2,"left_children":[1,3,5,7,9,11,-1,13,-1,15,-1,17,-1,19,21,-1,23,-1,-1,25,27,29,31,-1,-1,33,-1,35,37,39,41,-1,-1,43,45,47,49,-1,51,53,55,-1,-1,57,-1,59,-1,61,63,65,-1,-1,67,69,71,-1,-1,73,-1,-1,75,77,79,81,-1,-1,-1,83,-1,85,87,89,91,-1,-1,-1,-1,93,-1,-1,-1,-1,-1,-1,-1,-1,-1,-1,-1,95,-1,97,99,101,103,105,107,109,-1,-1,111,-1,-1,-1,-1,-1,-1,-1,-1,113,115,117,-1,-1,-1,119,-1,121,-1,123,-1,125,-1,-1,-1,127,-1,-1,-1],"loss_changes":[1.0641897E3,2.878584E2,1.2455408E2,1.8227936E2,7.025241E1,4.2481445E1,0E0,1.14123856E2,0E0,9.131703E1,0E0,1.7160522E1,0E0,8.9237335E1,7.259774E1,0E0,1.5734148E1,0E0,0E0,8.124977E1,3.9094437E1,4.841169E1,2.795639E1,0E0,0E0,5.123652E1,0E0,1.4640564E1,5.0056763E1,3.465897E1,3.2354057E1,0E0,0E0,2.0928238E1,6.8657756E0,7.5243683E0,6.879723E0,0E0,1.26809225E1,2.1827251E1,1.9972637E1,0E0,0E0,1.4329544E1,0E0,3.5212374E0,0E0,1.0682354E1,5.712906E0,3.8233535E0,0E0,0E0,1.5572945E1,1.12082405E1,7.775482E0,0E0,0E0,3.277092E0,0E0,0E0,3.2746558E0,7.9133306E0,4.0972786E0,3.1924515E0,0E0,0E0,0E0,3.714197E0,0E0,1.0342838E1,5.3752074E0,9.902422E0,8.278972E0,0E0,0E0,0E0,0E0,6.731851E0,0E0,0E0,0E0,0E0,0E0,0E0,0E0,0E0,0E0,0E0,0E0,5.444975E0,0E0,5.4333816E0,5.335458E0,3.7512004E0,1.3590483E1,4.458828E0,6.299485E0,5.0750637E0,0E0,0E0,4.5097466E0,0E0,0E0,0E0,0E0,0E0,0E0,0E0,0E0,3.1416726E0,4.951437E0,4.401022E0,0E0,0E0,0E0,3.076648E0,0E0,4.945505E0,0E0,3.686628E0,0E0,4.8089952E0,0E0,0E0,0E0,4.364806E0,0E0,0E0,0E0],"parents":[2147483647,0,0,1,1,2,2,3,3,4,4,5,5,7,7,9,9,11,11,13,13,14,14,16,16,19,19,20,20,21,21,22,22,25,25,27,27,28,28,29,29,30,30,33,33,34,34,35,35,36,36,38,38,39,39,40,40,43,43,45,45,47,47,48,48,49,49,52,52,53,53,54,54,57,57,60,60,61,61,62,62,63,63,67,67,69,69,70,70,71,71,72,72,77,77,89,89,91,91,92,92,93,93,94,94,95,95,96,96,97,97,100,100,109,109,110,110,111,111,115,115,117,117,119,119,121,121,125,125],"right_children":[2,4,6,8,10,12,-1,14,-1,16,-1,18,-1,20,22,-1,24,-1,-1,26,28,30,32,-1,-1,34,-1,36,38,40,42,-1,-1,44,46,48,50,-1,52,54,56,-1,-1,58,-1,60,-1,62,64,66,-1,-1,68,70,72,-1,-1,74,-1,-1,76,78,80,82,-1,-1,-1,84,-1,86,88,90,92,-1,-1,-1,-1,94,-1,-1,-1,-1,-1,-1,-1,-1,-1,-1,-1,96,-1,98,100,102,104,106,108,110,-1,-1,112,-1,-1,-1,-1,-1,-1,-1,-1,114,116,118,-1,-1,-1,120,-1,122,-1,124,-1,126,-1,-1,-1,128,-1,-1,-1],"split_conditions":[3E0,2E0,1E0,4E0,3E0,4E0,2.131277E-2,1E0,4.9079448E-2,1E0,5.124998E-2,2E0,7.262778E-2,1E0,4E0,5.0227936E-2,2E0,3.4764983E-2,6.070012E-2,2E0,5E0,3E0,1.5E1,2.941673E-3,2.3028528E-2,8.6E1,3.9799027E-2,1E0,5E0,2E0,7E0,4.2225156E-2,1.1195424E-2,2E0,8E1,1E0,2.159E2,3.4627803E-2,2E0,1.11E2,8.37E2,8.2774395E-3,4.0859416E-2,1E0,3.2554235E-2,8.8E1,1.6127553E-4,1E0,6E1,2E0,6.800651E-3,-3.1260395E-4,2.6E2,6.59E3,1E0,7.878232E-3,3.3467762E-2,1E0,5.014178E-3,1.2167319E-2,1E0,3.35E2,1.145E3,3E0,6.447355E-3,3.6312253E-3,-6.848341E-4,3.1791666E1,2.195382E-2,3.3E2,9.2E1,2.01E2,5E0,1.2675233E-2,2.1758368E-2,6.3243695E-3,9.165884E-4,6E2,1.2213408E-2,-1.8391435E-3,7.0570796E-3,-2.3807448E-3,2.8950917E-3,9.312187E-3,-1.9901309E-3,9.141861E-3,2.87986E-2,2.3758707E-3,1.3929643E-2,1E0,1.3611101E-2,4E0,3.166E3,8.5E1,2.25E2,2E0,1E0,1E0,1.0427094E-2,-2.3896287E-3,1E0,3.4855967E-4,-1.8369664E-3,1.8815981E-2,-1.5210999E-3,8.37031E-4,8.359066E-3,1.9779939E-3,1.3414398E-2,2.19E2,5.29E2,1E0,-2.4876026E-3,2.2010307E-3,1.0106987E-2,1.9E1,7.363544E-3,2E0,-1.5890249E-4,3.78E2,-1.9890354E-3,3.25E2,1.4630727E-2,-4.380973E-5,6.29664E-3,1E0,4.654154E-4,1.4901583E-2,2.9443677E-3],"split_indices":[302,234,268,90,12,302,0,339,0,22,0,234,0,22,12,0,68,0,0,18,16,107,21,0,0,6,0,326,21,57,328,0,0,132,211,114,353,0,132,4,352,0,0,389,0,36,0,389,254,21,0,0,205,1,389,0,0,385,0,0,392,360,365,16,0,0,0,30,0,362,360,358,328,0,0,0,0,2,0,0,0,0,0,0,0,0,0,0,0,41,0,16,1,37,5,12,395,21,0,0,75,0,0,0,0,0,0,0,0,362,32,108,0,0,0,21,0,326,0,32,0,5,0,0,0,39,0,0,0],"split_type":[0,0,0,0,0,0,0,0,0,0,0,0,0,0,0,0,0,0,0,0,0,0,0,0,0,0,0,0,0,0,0,0,0,0,0,0,0,0,0,0,0,0,0,0,0,0,0,0,0,0,0,0,0,0,0,0,0,0,0,0,0,0,0,0,0,0,0,0,0,0,0,0,0,0,0,0,0,0,0,0,0,0,0,0,0,0,0,0,0,0,0,0,0,0,0,0,0,0,0,0,0,0,0,0,0,0,0,0,0,0,0,0,0,0,0,0,0,0,0,0,0,0,0,0,0,0,0,0,0],"sum_hessian":[4.72432E5,4.68551E5,3.881E3,4.64936E5,3.615E3,2.885E3,9.96E2,4.6421E5,7.26E2,2.686E3,9.29E2,1.142E3,1.743E3,4.11026E5,5.3184E4,6.96E2,1.99E3,6.31E2,5.11E2,2.195E4,3.89076E5,5.2004E4,1.18E3,1.467E3,5.23E2,2.1312E4,6.38E2,3.83411E5,5.665E3,5.0762E4,1.242E3,6.33E2,5.47E2,4.125E3,1.7187E4,3.71266E5,1.2145E4,5.63E2,5.102E3,4.9514E4,1.248E3,7.08E2,5.34E2,3.61E3,5.15E2,5.011E3,1.2176E4,1.81716E5,1.8955E5,1.0015E4,2.13E3,3.257E3,1.845E3,3.032E3,4.6482E4,7.15E2,5.33E2,1.728E3,1.882E3,5.34E2,4.477E3,3.7904E4,1.43812E5,1.88818E5,7.32E2,2.868E3,7.147E3,1.165E3,6.8E2,1.091E3,1.941E3,1.0058E4,3.6424E4,8.01E2,9.27E2,2.234E3,2.243E3,3.7384E4,5.2E2,1.43302E5,5.1E2,1.87672E5,1.146E3,5.07E2,6.58E2,5.84E2,5.07E2,1.379E3,5.62E2,9.08E3,9.78E2,3.1177E4,5.247E3,3.6039E4,1.345E3,7.155E3,1.925E3,3.0662E4,5.15E2,8.93E2,4.354E3,2.449E4,1.1549E4,5.47E2,7.98E2,6.263E3,8.92E2,9.57E2,9.68E2,2.402E3,2.826E4,3.819E3,5.35E2,1.692E3,7.1E2,2.7432E4,8.28E2,3.16E3,6.59E2,1.8705E4,8.727E3,2.163E3,9.97E2,1.7748E4,9.57E2,1.267E3,8.96E2,7.44E2,5.23E2],"tree_param":{"num_deleted":"0","num_feature":"397","num_nodes":"129","size_leaf_vector":"1"}},{"base_weights":[5.9290895E-5,-4.4206665E-3,4.2947933E-1,-6.167068E-3,2.289708E-1,2.3683763E-1,6.101303E-1,-7.0089637E-3,3.7954196E-1,3.5367915E-1,3.5885205E-3,4.5200653E-2,8.9153826E-2,6.4283097E-1,4.6922375E-2,-1.1792359E-2,3.0039964E-2,4.515885E-2,2.9991219E-2,1.284148E-1,5.8796704E-1,1.8215034E-3,1.7880965E-2,5.2734263E-2,6.778556E-2,4.561066E-2,-1.5058083E-2,2.5904307E-2,2.0789854E-1,2.7502168E-2,-1.8393326E-3,6.710106E-2,4.9514774E-2,3.555718E-2,4.2370997E-2,2.2088654E-2,-1.6380265E-2,6.1355885E-2,1.3186067E-2,5.48495E-3,3.72179E-2,1.2362515E-1,1.3057349E-2,8.427018E-4,7.401483E-2,-1.6774746E-2,8.9244336E-2,4.683722E-2,1.6578503E-1,6.0990257E-3,6.081701E-2,1.8924946E-1,6.060369E-2,4.2155202E-2,7.983599E-5,9.716788E-2,1.2929137E-4,-1.7457586E-2,1.63297E-2,1.7022152E-3,1.42367035E-2,2.9196471E-2,1.0919312E-1,1.0800737E-2,2.5117297E-2,-4.2580075E-5,2.9376553E-2,2.612779E-2,3.2098778E-2,2.8529702E-2,1.54642E-1,8.987417E-2,2.5721037E-4,1.7352675E-3,8.0662146E-2,1.22583E-1,2.0007172E-3,-1.3387339E-2,-2.126439E-2,2.0579003E-4,1.31969405E-2,1.9487984E-3,9.923503E-2,1.7644398E-1,5.9106953E-2,-3.1301707E-3,5.648492E-2,2.117693E-3,1.2315033E-2,1.7396245E-3,1.3943202E-2,2.1981915E-2,1.1891064E-2,4.662976E-3,1.4860249E-2,1.8189413E-3,1.3806996E-2,7.1119606E-3,1.9991605E-2,-1.0983959E-3,-1.6572606E-2,-2.1502895E-3,6.055591E-3,-7.1852806E-4,8.747057E-3,1.7915538E-2,5.3335994E-4,1.026958E-2,2.6259035E-2,1.2067643E-2,7.3970754E-5,4.426986E-3,-5.764411E-4,-1.7392893E-3,1.0543836E-2,-3.524915E-3,6.1750114E-2,-1.687785E-3,6.6519664E-3,-6.8219E-4,4.648546E-2,-1.4587337E-3,1.8796997E-2,1.005109E-2,6.44542E-4],"categories":[],"categories_nodes":[],"categories_segments":[],"categories_sizes":[],"default_left":[1,0,0,1,0,0,0,1,0,0,0,0,0,0,0,0,1,0,0,0,0,0,0,0,0,0,0,0,1,0,0,0,0,1,0,0,1,1,0,0,0,0,0,0,0,0,0,1,0,0,0,0,0,0,0,1,0,0,0,0,0,0,0,0,0,0,0,0,0,0,1,0,0,0,0,0,0,0,1,1,0,0,0,0,0,0,0,0,0,0,0,0,0,0,0,0,0,0,0,0,1,0,0,0,0,0,0,0,0,0,0,0,0,0,0,0,0,0,0,0,0,0,0,0,0],"id":3,"left_children":[1,3,5,7,9,11,13,15,17,19,-1,-1,21,23,-1,25,27,-1,-1,29,31,-1,-1,-1,-1,33,35,37,39,-1,-1,-1,-1,41,-1,43,45,47,49,-1,-1,51,53,-1,55,57,59,61,63,65,67,69,71,73,-1,75,-1,77,79,-1,-1,81,83,-1,-1,85,87,-1,89,-1,91,93,-1,-1,95,97,-1,99,101,103,-1,-1,105,107,109,111,113,-1,-1,-1,-1,-1,-1,-1,-1,-1,-1,-1,-1,115,117,-1,-1,-1,-1,-1,-1,-1,-1,-1,-1,-1,-1,-1,-1,119,121,-1,-1,-1,123,-1,-1,-1,-1],"loss_changes":[9.08895E2,1.9059511E2,1.683139E2,1.5073582E2,8.350081E1,7.5130844E1,8.553772E0,8.207575E1,4.4457855E0,1.10551025E2,0E0,0E0,9.0114565E0,4.5596924E0,0E0,7.689682E1,3.8900036E1,0E0,0E0,2.3467695E1,4.6245117E0,0E0,0E0,0E0,0E0,8.37839E1,1.9064606E1,2.3332253E1,3.0017708E1,0E0,0E0,0E0,0E0,4.2626045E1,0E0,9.459241E0,1.5629974E1,2.0640831E1,1.28611355E1,0E0,0E0,1.7991577E1,6.117958E0,0E0,4.676156E0,8.44294E0,5.331711E0,1.3180277E1,7.9380836E0,4.74433E0,2.8326347E1,6.6720886E0,3.8161697E0,4.8415766E0,0E0,4.1074047E0,0E0,5.6655655E0,1.4079052E1,0E0,0E0,6.356044E0,8.804966E0,0E0,0E0,4.586421E0,5.300928E0,0E0,6.805632E0,0E0,3.4531555E0,3.7249756E0,0E0,0E0,7.10828E0,6.157877E0,0E0,6.921379E0,3.7015991E0,4.2870183E0,0E0,0E0,8.538223E0,6.871258E0,5.5009704E0,3.1137645E0,4.9404945E0,0E0,0E0,0E0,0E0,0E0,0E0,0E0,0E0,0E0,0E0,0E0,0E0,5.5546627E0,3.5729218E0,0E0,0E0,0E0,0E0,0E0,0E0,0E0,0E0,0E0,0E0,0E0,0E0,0E0,0E0,5.7848086E0,1.3073619E1,0E0,0E0,0E0,4.6876245E0,0E0,0E0,0E0,0E0],"parents":[2147483647,0,0,1,1,2,2,3,3,4,4,5,5,6,6,7,7,8,8,9,9,12,12,13,13,15,15,16,16,19,19,20,20,25,25,26,26,27,27,28,28,33,33,35,35,36,36,37,37,38,38,41,41,42,42,44,44,45,45,46,46,47,47,48,48,49,49,50,50,51,51,52,52,53,53,55,55,57,57,58,58,61,61,62,62,65,65,66,66,68,68,70,70,71,71,74,74,75,75,77,77,78,78,79,79,82,82,83,83,84,84,85,85,86,86,99,99,100,100,115,115,116,116,120,120],"right_children":[2,4,6,8,10,12,14,16,18,20,-1,-1,22,24,-1,26,28,-1,-1,30,32,-1,-1,-1,-1,34,36,38,40,-1,-1,-1,-1,42,-1,44,46,48,50,-1,-1,52,54,-1,56,58,60,62,64,66,68,70,72,74,-1,76,-1,78,80,-1,-1,82,84,-1,-1,86,88,-1,90,-1,92,94,-1,-1,96,98,-1,100,102,104,-1,-1,106,108,110,112,114,-1,-1,-1,-1,-1,-1,-1,-1,-1,-1,-1,-1,116,118,-1,-1,-1,-1,-1,-1,-1,-1,-1,-1,-1,-1,-1,-1,120,122,-1,-1,-1,124,-1,-1,-1,-1],"split_conditions":[3E0,6E0,5E0,2E0,2.5E1,1E0,1E0,1E0,2.3E1,1.3E1,3.5885205E-3,4.5200653E-2,2E0,5.87282E1,4.6922375E-2,1E0,1.1E1,4.515885E-2,2.9991219E-2,2.9E1,5E0,1.8215034E-3,1.7880965E-2,5.2734263E-2,6.778556E-2,3E0,3E0,1E0,2.26E2,2.7502168E-2,-1.8393326E-3,6.710106E-2,4.9514774E-2,8.6E1,4.2370997E-2,1.5E2,2E0,2E0,2E0,5.48495E-3,3.72179E-2,1E0,8E1,8.427018E-4,1E0,3E0,2E0,8.8E1,2E0,4E0,1E0,3.4083332E1,1.4128E4,1.2995E2,7.983599E-5,4E0,1.2929137E-4,1E0,7E0,1.7022152E-3,1.42367035E-2,6E0,7.638E3,1.0800737E-2,2.5117297E-2,4.3395E2,7.795E1,2.612779E-2,2E0,2.8529702E-2,2.64E2,9.537E3,2.5721037E-4,1.7352675E-3,1E0,1E0,2.0007172E-3,1E0,6E1,3E0,1.31969405E-2,1.9487984E-3,1E1,1.023E3,2E0,1E0,3.07E2,2.117693E-3,1.2315033E-2,1.7396245E-3,1.3943202E-2,2.1981915E-2,1.1891064E-2,4.662976E-3,1.4860249E-2,1.8189413E-3,1.3806996E-2,7.1119606E-3,1.9991605E-2,6E2,1.145E3,-2.1502895E-3,6.055591E-3,-7.1852806E-4,8.747057E-3,1.7915538E-2,5.3335994E-4,1.026958E-2,2.6259035E-2,1.2067643E-2,7.3970754E-5,4.426986E-3,-5.764411E-4,-1.7392893E-3,1.0543836E-2,4.45E2,9.537E3,-1.687785E-3,6.6519664E-3,-6.8219E-4,1E1,-1.4587337E-3,1.8796997E-2,1.005109E-2,6.44542E-4],"split_indices":[303,20,9,201,22,22,220,339,30,9,0,0,19,318,0,22,328,0,0,37,22,0,0,0,0,9,24,389,4,0,0,0,0,6,0,0,234,107,99,0,0,389,211,0,13,16,19,360,17,328,128,30,1,0,0,37,0,115,9,0,0,9,1,0,0,0,366,0,16,0,2,1,0,0,395,24,0,389,255,216,0,0,22,352,9,22,2,0,0,0,0,0,0,0,0,0,0,0,0,2,365,0,0,0,0,0,0,0,0,0,0,0,0,0,0,0,1,0,0,0,37,0,0,0,0],"split_type":[0,0,0,0,0,0,0,0,0,0,0,0,0,0,0,0,0,0,0,0,0,0,0,0,0,0,0,0,0,0,0,0,0,0,0,0,0,0,0,0,0,0,0,0,0,0,0,0,0,0,0,0,0,0,0,0,0,0,0,0,0,0,0,0,0,0,0,0,0,0,0,0,0,0,0,0,0,0,0,0,0,0,0,0,0,0,0,0,0,0,0,0,0,0,0,0,0,0,0,0,0,0,0,0,0,0,0,0,0,0,0,0,0,0,0,0,0,0,0,0,0,0,0,0,0],"sum_hessian":[4.72432E5,4.67564E5,4.868E3,4.64101E5,3.463E3,2.367E3,2.501E3,4.631E5,1.001E3,2.099E3,1.364E3,9.55E2,1.412E3,2.001E3,5E2,4.10152E5,5.2948E4,5.01E2,5E2,1.078E3,1.021E3,7.95E2,6.17E2,5.03E2,1.498E3,2.2071E4,3.88081E5,5.1756E4,1.192E3,5.35E2,5.43E2,5.06E2,5.15E2,2.151E4,5.61E2,1.3333E4,3.74748E5,1.3655E4,3.8101E4,6.24E2,5.68E2,4.368E3,1.7142E4,1.0565E4,2.768E3,3.73362E5,1.386E3,1.2001E4,1.654E3,3.3176E4,4.925E3,2.13E3,2.238E3,5.074E3,1.2068E4,2.097E3,6.71E2,3.65821E5,7.541E3,5.93E2,7.93E2,9.366E3,2.635E3,1E3,6.54E2,2.6258E4,6.918E3,6.07E2,4.318E3,5.45E2,1.585E3,1.484E3,7.54E2,3.095E3,1.979E3,1.573E3,5.24E2,1.76815E5,1.89006E5,6.627E3,9.14E2,8.237E3,1.129E3,1.114E3,1.521E3,2.4907E4,1.351E3,6.373E3,5.45E2,3.808E3,5.1E2,5.43E2,1.042E3,8.65E2,6.19E2,9.54E2,1.025E3,9.56E2,6.17E2,3.6399E4,1.40416E5,1.88464E5,5.42E2,6.118E3,5.09E2,6.05E2,5.24E2,6.12E2,5.02E2,7.35E2,7.86E2,1.303E3,2.3604E4,5.41E2,8.1E2,3.5055E4,1.344E3,1.3991E5,5.06E2,3.2895E4,2.16E3,8.43E2,5.01E2,9.13E2,1.247E3],"tree_param":{"num_deleted":"0","num_feature":"397","num_nodes":"125","size_leaf_vector":"1"}},{"base_weights":[7.273795E-5,-3.963991E-3,3.870077E-1,-4.78345E-3,4.4393513E-2,1.7429589E-1,5.1969945E-1,-5.3192065E-3,4.70169E-2,3.694295E-2,4.455892E-2,5.638805E-1,2.9408017E-2,-6.8737688E-3,1.2656276E-1,1.0142664E-2,-1.307972E-3,4.637838E-2,6.1520576E-2,4.0814143E-2,-9.858895E-3,2.9299238E-1,1.8484028E-2,3.256203E-2,3.581728E-2,-1.2178968E-2,5.2831564E-2,-2.1722417E-3,4.932565E-1,-4.657166E-5,1.192563E-2,1.4382691E-2,1.02199994E-1,4.1977717E-3,-1.5226751E-2,3.927566E-2,2.4399266E-1,3.289486E-2,6.455069E-2,8.376046E-3,1.0343726E-2,8.086545E-2,2.418391E-2,3.477179E-2,-3.174365E-3,-1.566244E-2,6.0235284E-2,3.2011252E-2,2.2745822E-2,1.1178788E-2,3.747832E-2,1.6039446E-2,-2.479185E-3,1.3583228E-1,3.2866988E-3,5.7542503E-2,-6.1122107E-4,-4.9940017E-3,9.753826E-3,4.162942E-3,-1.6026113E-2,3.1064048E-3,1.449987E-2,1.4783385E-2,2.4376784E-2,1.5835247E-4,3.5431977E-2,1.5866201E-3,1.7691104E-1,3.923557E-2,1.5615617E-1,1.305924E-3,-1.6427276E-3,-1.6168844E-2,7.654921E-3,3.33463E-2,-2.2110816E-3,2.2398751E-2,1.2189409E-2,2.4816971E-2,1.4364709E-1,1.03510514E-1,2.1501684E-3,2.7710496E-2,4.5879493E-3,-1.8005306E-3,4.1720737E-2,-1.0329749E-2,-1.8039026E-3,-1.0313945E-3,5.0045956E-2,1.5325019E-3,1.0232966E-2,7.997258E-3,1.9530054E-2,5.9965337E-3,1.5616958E-2,-9.078863E-4,1.33367255E-2,8.281393E-4,1.596149E-2,-1.169663E-3,-1.675295E-3,4.212533E-2,1.6158316E-2,4.0260662E-4,4.5512184E-3,-3.3674336E-3,5.5581786E-2,6.0078472E-2,5.888859E-4,-6.448801E-3,3.9130063E-3,1.751691E-2,-2.4545945E-3,4.564715E-3,1.1890794E-2,-7.7825197E-4,6.548622E-3],"categories":[],"categories_nodes":[],"categories_segments":[],"categories_sizes":[],"default_left":[1,1,0,1,0,0,0,0,0,0,0,0,0,0,0,0,0,0,0,0,1,0,1,0,0,0,1,0,0,0,0,0,0,0,1,1,0,0,0,0,0,0,0,0,1,0,1,1,0,0,0,0,0,0,0,0,0,0,0,0,1,0,0,0,0,0,0,0,0,0,0,0,0,0,0,0,0,1,0,0,0,0,0,0,0,0,0,0,0,0,0,0,0,0,0,0,0,0,0,0,0,0,0,0,0,0,0,0,1,0,0,0,0,0,0,0,0,0,0],"id":4,"left_children":[1,3,5,7,-1,9,11,13,-1,-1,15,17,-1,19,21,-1,-1,-1,-1,23,25,27,29,31,-1,33,35,-1,37,-1,-1,39,41,43,45,47,49,-1,-1,-1,51,53,-1,55,57,59,61,63,-1,-1,-1,65,-1,67,-1,69,-1,71,-1,-1,73,-1,-1,-1,75,-1,77,-1,79,81,83,85,-1,87,-1,89,-1,91,-1,-1,93,95,-1,-1,-1,97,99,101,-1,-1,103,-1,-1,-1,-1,-1,-1,-1,105,-1,-1,107,-1,109,-1,-1,-1,111,113,115,-1,117,-1,-1,-1,-1,-1,-1,-1],"loss_changes":[7.379469E2,1.7163728E2,1.3677625E2,1.1878858E2,0E0,4.765739E1,2.8236023E1,9.559128E1,0E0,0E0,3.7696002E0,9.975037E0,0E0,6.5599815E1,9.765396E1,0E0,0E0,0E0,0E0,7.0978134E1,6.3080006E1,1.3485693E2,6.309903E0,3.349558E1,0E0,2.0873505E1,4.001326E1,0E0,3.057248E1,0E0,0E0,5.876398E0,1.6124153E1,1.4792254E1,1.1601318E1,1.970135E1,1.7269867E1,0E0,0E0,0E0,3.9780073E0,1.2532244E1,0E0,1.187323E1,9.696231E0,7.3107605E0,4.964554E0,1.2289439E1,0E0,0E0,0E0,4.7915177E0,0E0,1.0907291E1,0E0,1.47242565E1,0E0,3.7423975E0,0E0,0E0,4.61528E0,0E0,0E0,0E0,5.46511E0,0E0,8.198921E0,0E0,3.5593224E0,7.8666058E0,1.693195E1,4.2073216E0,0E0,3.7964554E0,0E0,8.007885E0,0E0,3.578063E0,0E0,0E0,3.626175E0,3.3321667E0,0E0,0E0,0E0,3.4302657E0,9.416773E0,4.965769E0,0E0,0E0,6.947365E0,0E0,0E0,0E0,0E0,0E0,0E0,0E0,3.0268679E0,0E0,0E0,4.3423595E0,0E0,4.8288107E0,0E0,0E0,0E0,4.3909335E0,1.248077E1,4.1617928E0,0E0,3.0037336E0,0E0,0E0,0E0,0E0,0E0,0E0,0E0],"parents":[2147483647,0,0,1,1,2,2,3,3,5,5,6,6,7,7,10,10,11,11,13,13,14,14,19,19,20,20,21,21,22,22,23,23,25,25,26,26,28,28,31,31,32,32,33,33,34,34,35,35,36,36,40,40,41,41,43,43,44,44,45,45,46,46,47,47,51,51,53,53,55,55,57,57,60,60,64,64,66,66,68,68,69,69,70,70,71,71,73,73,75,75,77,77,80,80,81,81,85,85,86,86,87,87,90,90,98,98,101,101,103,103,107,107,108,108,109,109,111,111],"right_children":[2,4,6,8,-1,10,12,14,-1,-1,16,18,-1,20,22,-1,-1,-1,-1,24,26,28,30,32,-1,34,36,-1,38,-1,-1,40,42,44,46,48,50,-1,-1,-1,52,54,-1,56,58,60,62,64,-1,-1,-1,66,-1,68,-1,70,-1,72,-1,-1,74,-1,-1,-1,76,-1,78,-1,80,82,84,86,-1,88,-1,90,-1,92,-1,-1,94,96,-1,-1,-1,98,100,102,-1,-1,104,-1,-1,-1,-1,-1,-1,-1,106,-1,-1,108,-1,110,-1,-1,-1,112,114,116,-1,118,-1,-1,-1,-1,-1,-1,-1],"split_conditions":[3E0,4E0,4E0,2E0,4.4393513E-2,1E0,1E0,4E0,4.70169E-2,3.694295E-2,1.0112E4,3E0,2.9408017E-2,1E0,1.4E1,1.0142664E-2,-1.307972E-3,4.637838E-2,6.1520576E-2,3E0,4E0,5E0,2E0,4.98E2,3.581728E-2,3E0,3E0,-2.1722417E-3,1.4E1,-4.657166E-5,1.192563E-2,3.55E2,2E0,1E0,2E0,2E0,3.32E2,3.289486E-2,6.455069E-2,8.376046E-3,1E0,1E0,2.418391E-2,1.95E2,2E0,3E0,4.52546E1,1.17E2,2.2745822E-2,1.1178788E-2,3.747832E-2,1.5E2,-2.479185E-3,7.31E2,3.2866988E-3,3.08E2,-6.1122107E-4,1E0,9.753826E-3,4.162942E-3,2E0,3.1064048E-3,1.449987E-2,1.4783385E-2,1E0,1.5835247E-4,1E0,1.5866201E-3,4.6279166E2,2.7E1,3.25E2,3.91E2,-1.6427276E-3,1E0,7.654921E-3,3E0,-2.2110816E-3,2.9E1,1.2189409E-2,2.4816971E-2,1E0,2.06E2,2.1501684E-3,2.7710496E-2,4.5879493E-3,4.4E1,1.107E3,1E0,-1.8039026E-3,-1.0313945E-3,5.67E2,1.5325019E-3,1.0232966E-2,7.997258E-3,1.9530054E-2,5.9965337E-3,1.5616958E-2,-9.078863E-4,1.71E2,8.281393E-4,1.596149E-2,6E2,-1.675295E-3,3E0,1.6158316E-2,4.0260662E-4,4.5512184E-3,3.9E2,2.25E2,4.52E2,5.888859E-4,1E1,3.9130063E-3,1.751691E-2,-2.4545945E-3,4.564715E-3,1.1890794E-2,-7.7825197E-4,6.548622E-3],"split_indices":[303,90,9,199,0,22,214,12,0,0,1,288,0,22,21,0,0,0,0,9,328,9,215,5,0,25,107,0,9,0,0,36,98,389,232,57,363,0,0,0,13,389,0,24,120,29,255,4,0,0,0,0,0,25,0,362,0,13,0,0,372,0,0,0,13,0,393,0,30,33,5,23,0,389,0,272,0,7,0,0,385,355,0,0,0,360,352,115,0,0,2,0,0,0,0,0,0,0,0,0,0,2,0,336,0,0,0,0,5,363,0,9,0,0,0,0,0,0,0],"split_type":[0,0,0,0,0,0,0,0,0,0,0,0,0,0,0,0,0,0,0,0,0,0,0,0,0,0,0,0,0,0,0,0,0,0,0,0,0,0,0,0,0,0,0,0,0,0,0,0,0,0,0,0,0,0,0,0,0,0,0,0,0,0,0,0,0,0,0,0,0,0,0,0,0,0,0,0,0,0,0,0,0,0,0,0,0,0,0,0,0,0,0,0,0,0,0,0,0,0,0,0,0,0,0,0,0,0,0,0,0,0,0,0,0,0,0,0,0,0,0],"sum_hessian":[4.72432E5,4.67564E5,4.868E3,4.6672E5,8.44E2,1.879E3,2.989E3,4.66204E5,5.16E2,7.43E2,1.136E3,2.487E3,5.02E2,4.60782E5,5.422E3,5.68E2,5.68E2,8.77E2,1.61E3,2.7137E4,4.33645E5,2.128E3,3.294E3,2.646E4,6.77E2,4.18177E5,1.5468E4,8.31E2,1.297E3,2.781E3,5.13E2,2.0992E4,5.468E3,6.5613E4,3.52564E5,1.4455E4,1.013E3,6.39E2,6.58E2,1.144E3,1.9848E4,4.757E3,7.11E2,1.274E4,5.2873E4,3.50548E5,2.016E3,1.3929E4,5.26E2,5.13E2,5E2,1.7084E4,2.764E3,2.209E3,2.548E3,8.18E3,4.56E3,5.1944E4,9.29E2,2.204E3,3.48344E5,1.51E3,5.06E2,8.5E2,1.3079E4,9.794E3,7.29E3,5.67E2,1.642E3,6.911E3,1.269E3,3.3496E4,1.8448E4,3.47816E5,5.28E2,1.0966E4,2.113E3,6.346E3,9.44E2,5.02E2,1.14E3,1.484E3,5.427E3,5.98E2,6.71E2,3.1114E4,2.382E3,8.4392E4,2.63424E5,3.035E3,7.931E3,5.841E3,5.05E2,5.22E2,6.18E2,8.24E2,6.6E2,2.1014E4,1.01E4,1.864E3,5.18E2,3.479E4,4.9602E4,7.418E3,5.13E2,7.842E3,2.258E3,3.3502E4,1.288E3,4.956E3,2.462E3,3.1245E4,2.257E3,5.12E2,7.76E2,3.994E3,9.62E2,3.0685E4,5.6E2],"tree_param":{"num_deleted":"0","num_feature":"397","num_nodes":"119","size_leaf_vector":"1"}},{"base_weights":[8.1976665E-5,-3.554823E-3,3.4868225E-1,-4.2932644E-3,4.0006142E-2,1.9018126E-1,4.973362E-1,-5.5112983E-3,1.735026E-1,3.607597E-2,7.6484144E-2,5.7989635E-2,4.3829674E-1,-9.670928E-3,2.6693845E-2,4.0548127E-2,1.1507787E-1,-9.939408E-5,1.6249713E-2,3.0132575E-2,5.6376513E-2,3.4065504E-2,-1.2102949E-2,2.2630831E-2,2.0994787E-1,4.786817E-2,3.4940835E-2,2.6002718E-2,3.1477552E-2,-1.3053824E-2,3.9803937E-2,1.8775828E-2,1.6713846E-1,3.184381E-2,8.472758E-3,-4.3579796E-3,8.76356E-2,1.0033254E-1,9.09126E-3,1.528974E-2,-1.4198187E-2,2.309142E-2,1.6291441E-2,1.6374681E-2,1.688514E-2,6.673369E-3,3.2653656E-2,1.5907144E-2,3.3791573E-3,-3.9438694E-3,1.2263701E-1,-5.037633E-4,2.5129508E-2,5.0669607E-2,5.566089E-5,-1.9552663E-3,-1.5123709E-2,-1.2088956E-3,6.688642E-2,8.067696E-2,1.2150526E-2,2.253626E-2,9.47986E-2,1.3539965E-2,1.4002079E-2,2.5168755E-3,1.098949E-1,-5.4110847E-3,1.6892996E-2,-1.674774E-3,-8.392662E-3,1.1057761E-1,-5.176693E-3,4.590571E-2,1.75991E-2,7.7920165E-3,5.6397803E-2,6.681785E-2,1.8011928E-2,2.4688009E-3,-2.3665116E-3,6.7736576E-3,1.7195817E-2,-8.702278E-4,5.2124634E-3,-9.1820996E-4,7.294944E-3,3.356297E-3,2.2843404E-2,7.232068E-2,-2.6892836E-3,3.4319712E-3,3.697319E-2,2.35355E-3,1.2855011E-1,1.0741622E-2,2.5238292E-3,3.1815947E-3,1.455005E-2,1.9712603E-2,-2.4588197E-4,2.0228475E-2,1.3137467E-2,2.2587622E-2,6.5329373E-3,1.4037604E-2,1.12410225E-2,3.0456355E-4,1.0551607E-2,2.3594205E-3,-2.0955487E-3],"categories":[],"categories_nodes":[],"categories_segments":[],"categories_sizes":[],"default_left":[1,1,0,1,0,0,0,0,0,0,0,0,0,0,0,0,0,0,0,0,0,0,0,1,0,1,0,1,0,0,0,1,0,0,0,0,0,0,0,0,0,0,0,1,0,0,0,0,0,0,0,0,0,0,0,0,0,0,1,1,0,0,0,0,0,0,0,1,0,0,0,0,0,1,0,0,0,0,0,0,0,0,0,0,0,0,0,0,0,1,0,0,0,0,0,0,0,0,0,1,0,1,0,0,0,1,0,0,0,0,0],"id":5,"left_children":[1,3,5,7,-1,9,11,13,15,-1,17,-1,19,21,23,-1,25,-1,-1,-1,-1,27,29,31,33,35,-1,37,-1,39,41,43,45,-1,-1,-1,47,49,51,53,55,-1,57,59,-1,-1,-1,-1,-1,-1,61,-1,63,65,-1,67,69,-1,71,73,75,-1,77,79,-1,-1,81,83,-1,-1,85,87,-1,89,-1,91,93,95,-1,-1,-1,-1,-1,-1,-1,-1,-1,-1,-1,97,-1,99,101,-1,103,-1,-1,-1,-1,105,-1,107,-1,-1,-1,109,-1,-1,-1,-1,-1],"loss_changes":[5.9896936E2,1.3937617E2,1.1398865E2,1.01085266E2,0E0,4.5824272E1,9.697693E0,6.2102303E1,4.257863E1,0E0,9.591285E0,0E0,2.4165436E1,4.367305E1,3.9435223E1,0E0,4.000916E1,0E0,0E0,0E0,0E0,4.8871174E1,1.920145E1,2.8874798E1,1.5339569E1,7.289671E0,0E0,2.6433674E1,0E0,1.239045E1,3.141224E1,1.8188932E1,2.1339916E1,0E0,0E0,0E0,5.3042755E0,1.220047E1,3.8870487E0,7.728384E0,4.159584E0,0E0,8.972444E0,1.3508051E1,0E0,0E0,0E0,0E0,0E0,0E0,9.406448E0,0E0,1.0677282E1,6.5557184E0,0E0,1.5253554E1,3.7296753E0,0E0,1.1695562E1,1.0080513E1,9.003923E0,0E0,6.2395134E0,3.0369363E0,0E0,0E0,3.3084984E0,4.7976456E0,0E0,0E0,4.2682295E0,1.4845375E1,0E0,4.3653636E0,0E0,5.410384E0,9.897503E0,3.3861513E0,0E0,0E0,0E0,0E0,0E0,0E0,0E0,0E0,0E0,0E0,0E0,4.8771257E0,0E0,3.5505333E0,8.711678E0,0E0,7.9005966E0,0E0,0E0,0E0,0E0,5.158534E0,0E0,6.894816E0,0E0,0E0,0E0,3.108315E0,0E0,0E0,0E0,0E0,0E0],"parents":[2147483647,0,0,1,1,2,2,3,3,5,5,6,6,7,7,8,8,10,10,12,12,13,13,14,14,16,16,21,21,22,22,23,23,24,24,25,25,27,27,29,29,30,30,31,31,32,32,36,36,37,37,38,38,39,39,40,40,42,42,43,43,50,50,52,52,53,53,55,55,56,56,58,58,59,59,60,60,62,62,63,63,66,66,67,67,70,70,71,71,73,73,75,75,76,76,77,77,89,89,91,91,92,92,94,94,99,99,101,101,105,105],"right_children":[2,4,6,8,-1,10,12,14,16,-1,18,-1,20,22,24,-1,26,-1,-1,-1,-1,28,30,32,34,36,-1,38,-1,40,42,44,46,-1,-1,-1,48,50,52,54,56,-1,58,60,-1,-1,-1,-1,-1,-1,62,-1,64,66,-1,68,70,-1,72,74,76,-1,78,80,-1,-1,82,84,-1,-1,86,88,-1,90,-1,92,94,96,-1,-1,-1,-1,-1,-1,-1,-1,-1,-1,-1,98,-1,100,102,-1,104,-1,-1,-1,-1,106,-1,108,-1,-1,-1,110,-1,-1,-1,-1,-1],"split_conditions":[3E0,4E0,5E0,2E0,4.0006142E-2,1E0,2E0,1E0,2E0,3.607597E-2,1.79E2,5.7989635E-2,9E0,1E0,4E0,4.0548127E-2,5E0,-9.939408E-5,1.6249713E-2,3.0132575E-2,5.6376513E-2,2E0,4E0,2E0,1.4E1,1.85E2,3.4940835E-2,8.6E1,3.1477552E-2,4E0,4E0,3E0,5.06E2,3.184381E-2,8.472758E-3,-4.3579796E-3,1E0,7.31E2,1.5E2,2E0,8.2E1,2.309142E-2,2E0,1.11E2,1.688514E-2,6.673369E-3,3.2653656E-2,1.5907144E-2,3.3791573E-3,-3.9438694E-3,1E0,-5.037633E-4,1E0,1E0,5.566089E-5,5.62E2,1.71E2,-1.2088956E-3,2.37E2,4E0,3.35E2,2.253626E-2,2E0,1E0,1.4002079E-2,2.5168755E-3,1.159E2,2E0,1.6892996E-2,-1.674774E-3,1E0,2.32E2,-5.176693E-3,5.1E1,1.75991E-2,2E0,4.45E2,1E0,1.8011928E-2,2.4688009E-3,-2.3665116E-3,6.7736576E-3,1.7195817E-2,-8.702278E-4,5.2124634E-3,-9.1820996E-4,7.294944E-3,3.356297E-3,2.2843404E-2,9.2E1,-2.6892836E-3,1.2E1,3E0,2.35355E-3,5.8E1,1.0741622E-2,2.5238292E-3,3.1815947E-3,1.455005E-2,2E0,-2.4588197E-4,1E0,1.3137467E-2,2.2587622E-2,6.5329373E-3,1E0,1.12410225E-2,3.0456355E-4,1.0551607E-2,2.3594205E-3,-2.0955487E-3],"split_indices":[303,90,9,234,0,21,21,339,368,0,3,0,15,21,12,0,9,0,0,0,0,18,16,57,21,3,0,6,0,24,21,128,353,0,0,0,389,25,0,21,34,0,132,4,0,0,0,0,0,0,266,0,393,24,0,2,0,0,24,339,0,0,132,13,0,0,355,90,0,0,393,205,0,37,0,111,357,389,0,0,0,0,0,0,0,0,0,0,0,355,0,24,19,0,33,0,0,0,0,127,0,24,0,0,0,215,0,0,0,0,0],"split_type":[0,0,0,0,0,0,0,0,0,0,0,0,0,0,0,0,0,0,0,0,0,0,0,0,0,0,0,0,0,0,0,0,0,0,0,0,0,0,0,0,0,0,0,0,0,0,0,0,0,0,0,0,0,0,0,0,0,0,0,0,0,0,0,0,0,0,0,0,0,0,0,0,0,0,0,0,0,0,0,0,0,0,0,0,0,0,0,0,0,0,0,0,0,0,0,0,0,0,0,0,0,0,0,0,0,0,0,0,0,0,0],"sum_hessian":[4.72432E5,4.67564E5,4.868E3,4.6672E5,8.44E2,2.367E3,2.501E3,4.63554E5,3.166E3,9.38E2,1.429E3,1.006E3,1.495E3,4.10536E5,5.3018E4,6.25E2,2.541E3,7.57E2,6.72E2,7.31E2,7.64E2,2.1619E4,3.88917E5,5.1879E4,1.139E3,1.984E3,5.57E2,2.1026E4,5.93E2,3.81928E5,6.989E3,5.0542E4,1.337E3,6.02E2,5.37E2,6.01E2,1.383E3,3.888E3,1.7138E4,1.4817E4,3.67111E5,7.56E2,6.233E3,4.9757E4,7.85E2,8.29E2,5.08E2,5.86E2,7.97E2,5.34E2,3.354E3,9.115E3,8.023E3,4.349E3,1.0468E4,2.5804E4,3.41307E5,3.998E3,2.235E3,3.056E3,4.6701E4,7E2,2.654E3,7.298E3,7.25E2,3.05E3,1.299E3,2.5302E4,5.02E2,2.74953E5,6.6354E4,1.634E3,6.01E2,2.25E3,8.06E2,4.2524E4,4.177E3,2.012E3,6.42E2,5.618E3,1.68E3,7.86E2,5.13E2,2.3941E4,1.361E3,6.5725E4,6.29E2,9.96E2,6.38E2,1.651E3,5.99E2,3.7006E4,5.518E3,2.879E3,1.298E3,1.01E3,1.002E3,1.072E3,5.79E2,9.826E3,2.718E4,4.697E3,8.21E2,5.01E2,7.97E2,9.27E3,5.56E2,3.918E3,7.79E2,7.284E3,1.986E3],"tree_param":{"num_deleted":"0","num_feature":"397","num_nodes":"111","size_leaf_vector":"1"}},{"base_weights":[8.887832E-5,-3.1882916E-3,3.1421733E-1,-4.456663E-3,1.8692833E-1,1.3885376E-1,4.2362702E-1,-5.1138154E-3,3.0929258E-2,4.2328995E-1,4.412497E-2,2.8900662E-2,4.2424154E-2,4.6146834E-1,2.3080265E-2,-7.749253E-3,3.1992644E-2,2.6496833E-2,5.667151E-2,8.06474E-2,-4.5930305E-3,-1.2818786E-3,1.1040053E-2,3.91731E-1,5.174451E-2,3.3612415E-2,-1.0069289E-2,2.7602073E-2,2.0839417E-2,1.6857322E-2,2.6723715E-3,3.0595854E-2,4.7528017E-2,2.5765039E-2,3.3161506E-2,-1.2236684E-2,5.6693284E-3,2.3404822E-2,1.5063609E-2,1.1817155E-2,8.353024E-2,-1.2482587E-2,6.022425E-2,1.4805715E-2,-1.7089507E-3,1.7239785E-2,9.403537E-2,8.664032E-3,9.084354E-3,2.5769282E-2,5.695375E-2,-1.2636402E-2,6.0572852E-3,1.1661444E-3,1.1839431E-2,1.0481382E-2,1.0337909E-1,1.1193272E-2,5.6666467E-2,3.4175895E-2,2.647084E-2,7.4595944E-3,5.354442E-4,1.08508974E-1,5.9886096E-4,-1.3871167E-2,-4.0356037E-3,-4.5274777E-5,4.2733118E-2,4.335257E-3,1.8457232E-2,8.535294E-3,9.010027E-3,7.91187E-2,-1.1200209E-3,-3.3762968E-5,9.50196E-3,2.0663122E-2,7.0015634E-3,-1.579406E-3,-7.8683E-3,1.2806212E-2,-5.828846E-3,9.456472E-2,2.5021052E-2,1.5075004E-2,-1.7190991E-3,-7.74497E-4,1.0259759E-1,-8.665997E-4,9.4094565E-3,-7.3109154E-4,9.626229E-3,3.8634015E-3,1.6595231E-2,1.7017076E-2,1.0025765E-2,2.7635993E-4,3.226965E-2,3.0240742E-3,1.5036689E-1,8.6801726E-4,1.0269159E-2,1.6791949E-2,2.0593379E-2,2.0379957E-2,1.01859E-2,2.8542573E-2,-3.676833E-3,8.858534E-3,1.8449633E-3],"categories":[],"categories_nodes":[],"categories_segments":[],"categories_sizes":[],"default_left":[1,0,0,1,0,0,0,0,0,0,1,0,0,0,0,0,1,0,0,0,0,0,0,0,0,0,1,1,0,0,0,0,0,0,0,1,0,1,0,0,1,1,0,0,0,1,0,0,0,0,0,0,0,0,0,0,0,1,0,0,0,0,0,1,0,0,1,0,0,0,0,0,0,0,0,0,0,0,0,0,0,0,1,0,0,0,0,0,0,0,0,0,0,0,0,0,0,0,1,0,0,0,0,0,0,0,0,0,0,0,0],"id":6,"left_children":[1,3,5,7,9,11,13,15,-1,17,19,-1,21,23,-1,25,27,-1,-1,29,-1,-1,-1,31,-1,33,35,37,-1,-1,-1,-1,-1,39,-1,41,43,45,-1,47,49,51,53,55,-1,57,59,61,-1,-1,63,65,-1,-1,-1,67,69,71,73,75,-1,-1,-1,77,-1,79,81,-1,83,-1,-1,85,-1,87,-1,-1,-1,-1,-1,-1,89,-1,91,93,95,97,-1,-1,99,-1,-1,-1,-1,-1,-1,101,-1,-1,103,-1,105,-1,-1,-1,107,-1,-1,109,-1,-1,-1],"loss_changes":[4.8636652E2,1.1275843E2,9.300342E1,9.578384E1,1.044145E2,2.7228561E1,2.081781E1,4.5331303E1,0E0,2.4975098E1,6.427641E0,0E0,4.3777113E0,7.720459E0,0E0,4.1534554E1,2.3750708E1,0E0,0E0,6.526371E0,0E0,0E0,0E0,6.8084717E0,0E0,5.367523E1,1.3980213E1,1.5459469E1,0E0,0E0,0E0,0E0,0E0,1.8045916E1,0E0,6.42593E0,1.0318528E1,1.2623305E1,0E0,4.4930663E0,2.0020174E1,4.0417633E0,3.4325733E0,1.35504E1,0E0,6.360921E0,2.369331E1,3.788672E0,0E0,0E0,9.959683E0,3.804119E0,0E0,0E0,0E0,1.1908651E1,7.9470425E0,4.8518248E0,5.4166784E0,3.6437006E0,0E0,0E0,0E0,6.975071E0,0E0,3.614872E0,1.066484E1,0E0,7.8256197E0,0E0,0E0,3.7755969E0,0E0,5.44923E0,0E0,0E0,0E0,0E0,0E0,0E0,6.191674E0,0E0,6.724578E0,8.616144E0,3.8285372E0,3.7854E0,0E0,0E0,7.2164993E0,0E0,0E0,0E0,0E0,0E0,0E0,4.122367E0,0E0,0E0,1.1784363E1,0E0,3.0659904E0,0E0,0E0,0E0,3.148544E0,0E0,0E0,3.6500044E0,0E0,0E0,0E0],"parents":[2147483647,0,0,1,1,2,2,3,3,4,4,5,5,6,6,7,7,9,9,10,10,12,12,13,13,15,15,16,16,19,19,23,23,25,25,26,26,27,27,33,33,35,35,36,36,37,37,39,39,40,40,41,41,42,42,43,43,45,45,46,46,47,47,50,50,51,51,55,55,56,56,57,57,58,58,59,59,63,63,65,65,66,66,68,68,71,71,73,73,80,80,82,82,83,83,84,84,85,85,88,88,95,95,98,98,100,100,104,104,107,107],"right_children":[2,4,6,8,10,12,14,16,-1,18,20,-1,22,24,-1,26,28,-1,-1,30,-1,-1,-1,32,-1,34,36,38,-1,-1,-1,-1,-1,40,-1,42,44,46,-1,48,50,52,54,56,-1,58,60,62,-1,-1,64,66,-1,-1,-1,68,70,72,74,76,-1,-1,-1,78,-1,80,82,-1,84,-1,-1,86,-1,88,-1,-1,-1,-1,-1,-1,90,-1,92,94,96,98,-1,-1,100,-1,-1,-1,-1,-1,-1,102,-1,-1,104,-1,106,-1,-1,-1,108,-1,-1,110,-1,-1,-1],"split_conditions":[3E0,7E0,4E0,2E0,1.4E1,1E0,1E0,1E0,3.0929258E-2,1.7E1,1.4E1,2.8900662E-2,1.63E2,2E0,2.3080265E-2,1E0,3E0,2.6496833E-2,5.667151E-2,7.43E2,-4.5930305E-3,-1.2818786E-3,1.1040053E-2,5E0,5.174451E-2,3E0,2E0,2E0,2.0839417E-2,1.6857322E-2,2.6723715E-3,3.0595854E-2,4.7528017E-2,8.8E1,3.3161506E-2,2E0,1E0,1E0,1.5063609E-2,2E0,1E0,3E0,2E0,3.9E2,-1.7089507E-3,1E0,1E0,4.7E1,9.084354E-3,2.5769282E-2,1E0,1E0,6.0572852E-3,1.1661444E-3,1.1839431E-2,2E0,3.9E2,5.17E2,3E0,2E0,2.647084E-2,7.4595944E-3,5.354442E-4,1.81E2,5.9886096E-4,1.41E2,1.03E2,-4.5274777E-5,2E0,4.335257E-3,1.8457232E-2,2.7E1,9.010027E-3,2.15E2,-1.1200209E-3,-3.3762968E-5,9.50196E-3,2.0663122E-2,7.0015634E-3,-1.579406E-3,3E0,1.2806212E-2,2.54099E3,2E0,5E0,2.3E2,-1.7190991E-3,-7.74497E-4,1E0,-8.665997E-4,9.4094565E-3,-7.3109154E-4,9.626229E-3,3.8634015E-3,1.6595231E-2,7E0,1.0025765E-2,2.7635993E-4,1.17E2,3.0240742E-3,3E0,8.6801726E-4,1.0269159E-2,1.6791949E-2,1.9E1,2.0379957E-2,1.01859E-2,1E0,-3.676833E-3,8.858534E-3,1.8449633E-3],"split_indices":[303,20,9,194,21,21,214,148,0,20,24,0,3,233,0,21,107,0,0,21,0,0,0,303,0,9,328,98,0,0,0,0,0,6,0,234,13,78,0,19,111,306,12,357,0,326,25,36,0,0,389,20,0,0,0,19,0,32,144,233,0,0,0,2,0,0,2,0,21,0,0,21,0,2,0,0,0,0,0,0,18,0,352,14,339,362,0,0,24,0,0,0,0,0,0,9,0,0,4,0,21,0,0,0,21,0,0,65,0,0,0],"split_type":[0,0,0,0,0,0,0,0,0,0,0,0,0,0,0,0,0,0,0,0,0,0,0,0,0,0,0,0,0,0,0,0,0,0,0,0,0,0,0,0,0,0,0,0,0,0,0,0,0,0,0,0,0,0,0,0,0,0,0,0,0,0,0,0,0,0,0,0,0,0,0,0,0,0,0,0,0,0,0,0,0,0,0,0,0,0,0,0,0,0,0,0,0,0,0,0,0,0,0,0,0,0,0,0,0,0,0,0,0,0,0],"sum_hessian":[4.72432E5,4.67564E5,4.868E3,4.64475E5,3.089E3,1.879E3,2.989E3,4.63514E5,9.61E2,1.156E3,1.933E3,7.27E2,1.152E3,2.487E3,5.02E2,4.32784E5,3.073E4,5.63E2,5.93E2,1.376E3,5.57E2,6.4E2,5.12E2,1.143E3,1.344E3,2.2979E4,4.09805E5,2.9995E4,7.35E2,5.15E2,8.61E2,5.87E2,5.56E2,2.24E4,5.79E2,3.60203E5,4.9602E4,2.9017E4,9.78E2,1.8053E4,4.347E3,3.58993E5,1.21E3,3.5396E4,1.4206E4,2.6699E4,2.318E3,1.7371E4,6.82E2,5.64E2,3.783E3,3.58247E5,7.46E2,6.66E2,5.44E2,3.3759E4,1.637E3,2.316E4,3.539E3,1.725E3,5.93E2,8.2E2,1.6551E4,1.875E3,1.908E3,3.13267E5,4.498E4,2.5219E4,8.54E3,9.5E2,6.87E2,2.2416E4,7.44E2,2.658E3,8.81E2,1.107E3,6.18E2,5.16E2,1.359E3,2.37252E5,7.6015E4,5.93E2,4.4387E4,2.164E3,6.376E3,1.7876E4,4.54E3,5.67E2,2.091E3,7.5434E4,5.81E2,4.3761E4,6.26E2,1.222E3,9.42E2,5.774E3,6.02E2,1.0424E4,7.452E3,8.38E2,1.253E3,5.272E3,5.02E2,5.8E2,6.872E3,5.81E2,6.72E2,6.04E3,8.32E2,8.58E2,5.182E3],"tree_param":{"num_deleted":"0","num_feature":"397","num_nodes":"111","size_leaf_vector":"1"}},{"base_weights":[9.417679E-5,-2.8592264E-3,2.831884E-1,-4.0731276E-3,1.5936753E-1,1.5297797E-1,4.053223E-1,-4.678455E-3,2.7325022E-1,4.363142E-2,7.019107E-2,2.9337823E-2,5.9420485E-2,4.7803175E-2,3.5354427E-1,-6.9816043E-3,3.0230368E-2,3.311786E-2,2.0985039E-2,2.4314815E-2,2.2303898E-2,-4.4924478E-4,1.3042784E-2,2.2063214E-2,4.723197E-2,2.948836E-2,-9.173277E-3,2.4528336E-2,1.9759672E-2,-5.6018294E-3,5.9353415E-2,2.2028655E-2,2.9841378E-2,-1.0186036E-2,2.2486115E-2,5.8013853E-2,1.1385967E-2,1.513024E-2,5.392308E-4,8.537754E-2,8.938049E-3,1.0833868E-2,-1.1413823E-2,1.3274096E-1,1.5221225E-3,9.480771E-2,9.6422964E-4,3.1974893E-2,-6.1545395E-3,6.0059562E-2,2.1544255E-2,2.9533729E-2,-4.82287E-5,5.489153E-3,6.469641E-2,-1.1544919E-2,7.317271E-3,6.1103255E-3,2.0007974E-1,-1.1061636E-2,1.2489113E-2,7.672545E-2,2.3192799E-2,1.8412031E-2,1.2601493E-1,-1.1936945E-2,1.062261E-2,9.222105E-2,-4.8964366E-4,4.697865E-2,-1.2340987E-3,2.9730007E-2,-2.1036748E-4,9.404648E-2,-1.1868969E-3,-8.367287E-3,-1.465157E-3,3.00522E-2,9.023673E-3,-1.640415E-3,7.237371E-3,1.4238311E-1,3.235062E-2,1.2590283E-2,1.0377156E-2,5.9954496E-3,2.0429457E-2,-1.6337406E-3,7.174139E-3,1.9605314E-2,5.901117E-2,2.499149E-3,9.011785E-3,-3.4905528E-3,4.029325E-3,1.5363397E-2,4.4581154E-3,8.4389374E-4,-1.0756815E-3,1.0057933E-2,2.2844484E-2,-8.5122976E-4,8.863304E-3,5.4452283E-4,8.183917E-3,9.725352E-3,1.3744611E-3,7.898383E-3,-1.3463282E-3,5.23297E-4,7.892808E-3],"categories":[],"categories_nodes":[],"categories_segments":[],"categories_sizes":[],"default_left":[1,0,0,1,0,0,0,1,0,0,0,0,0,0,0,0,1,0,0,0,0,0,0,0,0,0,0,0,0,0,0,0,0,0,0,0,0,0,0,0,0,0,1,0,0,1,0,0,1,0,0,1,0,0,0,0,0,0,0,1,0,0,0,0,0,0,0,1,0,0,0,1,0,0,0,0,0,0,0,0,0,0,0,1,0,0,0,0,0,0,0,0,0,0,0,0,0,1,0,0,0,0,0,0,0,0,0,0,0,0,0],"id":7,"left_children":[1,3,5,7,9,11,13,15,17,-1,19,-1,21,-1,23,25,27,-1,-1,29,-1,-1,-1,-1,-1,31,33,35,-1,-1,37,39,-1,41,43,45,47,-1,-1,49,51,53,55,57,59,61,-1,63,65,67,-1,69,-1,71,73,75,-1,-1,77,79,-1,81,-1,83,85,87,-1,89,-1,91,-1,93,-1,95,-1,97,-1,-1,-1,-1,-1,99,101,103,-1,-1,-1,-1,-1,-1,105,-1,-1,-1,-1,-1,-1,107,-1,-1,-1,-1,-1,-1,-1,-1,-1,109,-1,-1,-1],"loss_changes":[3.950128E2,9.208456E1,7.695532E1,7.792375E1,8.5466866E1,3.1048744E1,7.763214E0,3.7236256E1,3.018074E0,0E0,1.8450668E1,0E0,6.5364566E0,0E0,2.2716904E1,3.472879E1,2.7307356E1,0E0,0E0,5.7781734E0,0E0,0E0,0E0,0E0,0E0,4.934662E1,1.3142937E1,1.2197666E1,0E0,0E0,7.067181E0,1.9875904E1,0E0,1.0250534E1,2.936871E1,1.3898029E1,7.1987696E0,0E0,0E0,1.33883E1,3.8576126E0,6.3073516E0,4.169285E0,9.670448E0,1.6604801E1,1.0823345E1,0E0,1.1671418E1,7.010703E0,7.2118464E0,0E0,4.5641246E0,0E0,3.6732912E0,4.4561224E0,3.6972694E0,0E0,0E0,1.1225082E1,4.338811E0,0E0,1.1418749E1,0E0,3.9748917E0,5.845066E0,3.7863777E0,0E0,7.8428707E0,0E0,4.1575556E0,0E0,3.264007E0,0E0,4.1494017E0,0E0,4.077159E0,0E0,0E0,0E0,0E0,0E0,5.468994E0,5.4375234E0,3.7183218E0,0E0,0E0,0E0,0E0,0E0,0E0,3.0385623E0,0E0,0E0,0E0,0E0,0E0,0E0,3.8529487E0,0E0,0E0,0E0,0E0,0E0,0E0,0E0,0E0,0E0,4.8363023E0,0E0,0E0,0E0],"parents":[2147483647,0,0,1,1,2,2,3,3,4,4,5,5,6,6,7,7,8,8,10,10,12,12,14,14,15,15,16,16,19,19,25,25,26,26,27,27,30,30,31,31,33,33,34,34,35,35,36,36,39,39,40,40,41,41,42,42,43,43,44,44,45,45,47,47,48,48,49,49,51,51,53,53,54,54,55,55,58,58,59,59,61,61,63,63,64,64,65,65,67,67,69,69,71,71,73,73,75,75,81,81,82,82,83,83,90,90,97,97,107,107],"right_children":[2,4,6,8,10,12,14,16,18,-1,20,-1,22,-1,24,26,28,-1,-1,30,-1,-1,-1,-1,-1,32,34,36,-1,-1,38,40,-1,42,44,46,48,-1,-1,50,52,54,56,58,60,62,-1,64,66,68,-1,70,-1,72,74,76,-1,-1,78,80,-1,82,-1,84,86,88,-1,90,-1,92,-1,94,-1,96,-1,98,-1,-1,-1,-1,-1,100,102,104,-1,-1,-1,-1,-1,-1,106,-1,-1,-1,-1,-1,-1,108,-1,-1,-1,-1,-1,-1,-1,-1,-1,110,-1,-1,-1],"split_conditions":[3E0,6E0,5E0,2E0,6E0,1E0,2E0,1.71E2,2.3E1,4.363142E-2,2E0,2.9337823E-2,1.79E2,4.7803175E-2,1.4E1,1E0,2E0,3.311786E-2,2.0985039E-2,2.2E1,2.2303898E-2,-4.4924478E-4,1.3042784E-2,2.2063214E-2,4.723197E-2,3E0,2E0,1E0,1.9759672E-2,-5.6018294E-3,7.43E2,2.6E1,2.9841378E-2,6E0,2E0,1E0,7E0,1.513024E-2,5.392308E-4,2E0,8E1,3.42E2,3E0,3E0,8E0,2E0,9.6422964E-4,3E0,5.25E2,4.8972E0,2.1544255E-2,3.1791666E1,-4.82287E-5,1E0,1E0,1E0,7.317271E-3,6.1103255E-3,7E0,2E0,1.2489113E-2,2.4E1,2.3192799E-2,3E0,5.25E2,5.62E2,1.062261E-2,1.81E2,-4.8964366E-4,1.2995E2,-1.2340987E-3,1.5E2,-2.1036748E-4,4E0,-1.1868969E-3,1E0,-1.465157E-3,3.00522E-2,9.023673E-3,-1.640415E-3,7.237371E-3,7.2798E2,1E0,2E0,1.0377156E-2,5.9954496E-3,2.0429457E-2,-1.6337406E-3,7.174139E-3,1.9605314E-2,1.0112E4,2.499149E-3,9.011785E-3,-3.4905528E-3,4.029325E-3,1.5363397E-2,4.4581154E-3,7.6E1,-1.0756815E-3,1.0057933E-2,2.2844484E-2,-8.5122976E-4,8.863304E-3,5.4452283E-4,8.183917E-3,9.725352E-3,1.3744611E-3,6E2,-1.3463282E-3,5.23297E-4,7.892808E-3],"split_indices":[303,20,9,201,21,21,21,362,30,0,132,0,3,0,20,21,57,0,0,9,0,0,0,0,0,9,12,389,0,0,21,34,0,24,21,95,21,0,0,89,211,353,371,10,9,112,0,14,32,247,0,30,0,389,13,75,0,0,351,334,0,24,0,17,362,2,0,2,0,0,0,3,0,37,0,389,0,0,0,0,0,363,41,112,0,0,0,0,0,0,1,0,0,0,0,0,0,37,0,0,0,0,0,0,0,0,0,2,0,0,0],"split_type":[0,0,0,0,0,0,0,0,0,0,0,0,0,0,0,0,0,0,0,0,0,0,0,0,0,0,0,0,0,0,0,0,0,0,0,0,0,0,0,0,0,0,0,0,0,0,0,0,0,0,0,0,0,0,0,0,0,0,0,0,0,0,0,0,0,0,0,0,0,0,0,0,0,0,0,0,0,0,0,0,0,0,0,0,0,0,0,0,0,0,0,0,0,0,0,0,0,0,0,0,0,0,0,0,0,0,0,0,0,0,0],"sum_hessian":[4.72432E5,4.67564E5,4.868E3,4.64101E5,3.463E3,2.367E3,2.501E3,4.631E5,1.001E3,8.34E2,2.629E3,9.38E2,1.429E3,1.006E3,1.495E3,4.34445E5,2.8655E4,5.01E2,5E2,2.031E3,5.98E2,7.57E2,6.72E2,7.19E2,7.76E2,2.4621E4,4.09824E5,2.7722E4,9.33E2,6.15E2,1.416E3,2.3967E4,6.54E2,3.97127E5,1.2697E4,7.804E3,1.9918E4,5.17E2,8.99E2,4.095E3,1.9872E4,2.1912E4,3.75215E5,2.02E3,1.0677E4,4.427E3,3.377E3,9.159E3,1.0759E4,3.44E3,6.55E2,6.23E3,1.3642E4,1.9944E4,1.968E3,3.74643E5,5.72E2,9.88E2,1.032E3,9.697E3,9.8E2,3.925E3,5.02E2,8.015E3,1.144E3,1.0241E4,5.18E2,2.298E3,1.142E3,4.397E3,1.833E3,4.75E3,1.5194E4,1.421E3,5.47E2,1.85224E5,1.89419E5,5.3E2,5.02E2,9.121E3,5.76E2,1.574E3,2.351E3,7.514E3,5.01E2,6.3E2,5.14E2,9.737E3,5.04E2,5.45E2,1.753E3,2.923E3,1.474E3,6.64E2,4.086E3,6.35E2,7.86E2,3.8154E4,1.4707E5,1.074E3,5E2,1.367E3,9.84E2,6.821E3,6.93E2,9.44E2,8.09E2,2.5557E4,1.2597E4,2.4643E4,9.14E2],"tree_param":{"num_deleted":"0","num_feature":"397","num_nodes":"111","size_leaf_vector":"1"}},{"base_weights":[9.79155E-5,-2.2018666E-3,2.9986534E-1,-2.9191726E-3,3.357935E-2,3.8068342E-1,1.24810696E-1,-4.091412E-3,1.3382633E-1,2.8920585E-1,4.6438508E-2,-5.8813917E-4,2.3185227E-2,-7.157209E-3,1.9607121E-2,2.2257316E-1,1.8324137E-3,1.6321987E-2,4.13724E-2,2.5130644E-2,-8.97304E-3,1.6963713E-2,2.2795072E-2,1.5267049E-1,3.988616E-2,3.366013E-2,-5.741301E-3,1.8238382E-2,2.5537059E-2,-9.182713E-3,1.42556755E-2,1.40049225E-2,1.4493991E-1,2.1983574E-1,3.006893E-3,-2.1342968E-3,8.532069E-3,4.7064904E-4,7.885973E-2,-9.492068E-3,5.973212E-2,1.2318127E-2,1.709047E-2,2.6948494E-3,2.7350387E-2,1.3731352E-2,2.8932704E-2,1.9679911E-2,5.6322213E-2,1.3383911E-2,-1.0292055E-2,2.193849E-2,-7.6749915E-4,1.0250277E-2,9.464025E-2,1.0652722E-1,6.110546E-4,-4.4908328E-4,3.745709E-2,-1.0425267E-3,8.1758415E-3,6.3605756E-2,7.287625E-3,-1.0785301E-3,2.0143446E-2,1.4139118E-2,3.0819937E-3,7.11005E-2,1.963544E-3,3.198792E-2,1.7393356E-2,2.5914419E-3,4.2550698E-2,1.2969826E-2,3.9216373E-3,6.0373668E-2,-3.1059047E-3,6.840298E-3,-2.13301E-3,2.311712E-2,1.18468165E-1,2.234967E-3,1.26276165E-2,3.9739194E-3,4.80727E-2,9.711841E-4,8.677476E-3,1.9553723E-2,4.840435E-3,-4.422521E-4,1.5607315E-2,8.202583E-2,-3.4400087E-3,4.228302E-2,-6.1057846E-4,2.7582548E-3,1.4503005E-2,1.5470689E-3,1.0132994E-1,2.7194887E-3,-1.3270628E-3,4.4495175E-3,1.4590712E-2],"categories":[],"categories_nodes":[],"categories_segments":[],"categories_sizes":[],"default_left":[1,1,0,1,0,0,0,0,0,0,0,0,0,0,0,0,0,0,0,0,1,1,0,0,0,0,0,0,0,0,0,0,1,0,0,0,0,0,1,0,0,1,0,0,0,0,0,0,0,0,1,0,0,0,0,1,0,0,0,0,0,0,0,0,0,0,0,0,0,1,0,0,0,0,0,0,0,1,0,1,0,0,0,0,0,0,0,0,0,0,0,1,0,0,0,0,0,0,0,0,0,0,0],"id":8,"left_children":[1,3,5,7,-1,9,11,13,15,17,-1,-1,-1,19,21,23,25,-1,-1,27,29,31,-1,33,-1,35,-1,37,-1,39,-1,41,43,45,-1,-1,-1,-1,47,49,51,53,-1,-1,-1,-1,-1,-1,55,57,59,-1,-1,61,63,65,-1,-1,67,-1,-1,69,71,-1,-1,-1,-1,73,-1,75,-1,77,79,-1,-1,81,-1,83,-1,85,87,-1,-1,89,91,-1,-1,-1,-1,-1,93,95,-1,97,99,-1,-1,-1,101,-1,-1,-1,-1],"loss_changes":[3.25708E2,1.1368188E2,5.0413696E1,7.500464E1,0E0,1.7462128E1,1.6115536E1,3.3706367E1,4.6582664E1,1.8149773E1,0E0,0E0,0E0,2.4085577E1,2.9228603E1,2.869522E1,3.0533304E0,0E0,0E0,3.4664703E1,1.2369438E1,1.985415E1,0E0,1.4089111E1,0E0,3.0102997E0,0E0,1.7427301E1,0E0,8.285614E0,0E0,1.35590725E1,1.790209E1,5.9623604E0,0E0,0E0,0E0,0E0,1.019446E1,7.0773354E0,1.8709969E1,8.63406E0,0E0,0E0,0E0,0E0,0E0,0E0,8.234239E0,5.625298E0,4.5896072E0,0E0,0E0,7.8269672E0,1.4016459E1,4.269291E0,0E0,0E0,3.3257074E0,0E0,0E0,9.031453E0,7.7737393E0,0E0,0E0,0E0,0E0,3.5456877E0,0E0,3.664239E0,0E0,4.2135906E0,8.112107E0,0E0,0E0,3.5000515E0,0E0,4.1581774E0,0E0,3.7505727E0,5.963876E0,0E0,0E0,3.216482E0,6.4322963E0,0E0,0E0,0E0,0E0,0E0,5.9717646E0,5.5271416E0,0E0,8.246968E0,3.0288568E0,0E0,0E0,0E0,4.0596714E0,0E0,0E0,0E0,0E0],"parents":[2147483647,0,0,1,1,2,2,3,3,5,5,6,6,7,7,8,8,9,9,13,13,14,14,15,15,16,16,19,19,20,20,21,21,23,23,25,25,27,27,29,29,31,31,32,32,33,33,38,38,39,39,40,40,41,41,48,48,49,49,50,50,53,53,54,54,55,55,58,58,61,61,62,62,67,67,69,69,71,71,72,72,75,75,77,77,79,79,80,80,83,83,84,84,90,90,91,91,93,93,94,94,98,98],"right_children":[2,4,6,8,-1,10,12,14,16,18,-1,-1,-1,20,22,24,26,-1,-1,28,30,32,-1,34,-1,36,-1,38,-1,40,-1,42,44,46,-1,-1,-1,-1,48,50,52,54,-1,-1,-1,-1,-1,-1,56,58,60,-1,-1,62,64,66,-1,-1,68,-1,-1,70,72,-1,-1,-1,-1,74,-1,76,-1,78,80,-1,-1,82,-1,84,-1,86,88,-1,-1,90,92,-1,-1,-1,-1,-1,94,96,-1,98,100,-1,-1,-1,102,-1,-1,-1,-1],"split_conditions":[3E0,4E0,1.32924E1,2E0,3.357935E-2,3E0,3E0,1E0,1E0,5E0,4.6438508E-2,-5.8813917E-4,2.3185227E-2,1E0,8E0,2E0,8.86971E1,1.6321987E-2,4.13724E-2,2E0,1.5E2,1.1E1,2.2795072E-2,2E0,3.988616E-2,3.09244E1,-5.741301E-3,8.8E1,2.5537059E-2,8E0,1.42556755E-2,1E0,2.26E2,1.0176E1,3.006893E-3,-2.1342968E-3,8.532069E-3,4.7064904E-4,1E0,3E0,3.1E1,2E0,1.709047E-2,2.6948494E-3,2.7350387E-2,1.3731352E-2,2.8932704E-2,1.9679911E-2,1E0,7.595E1,1.45E2,2.193849E-2,-7.6749915E-4,1.09E2,2E0,1E0,6.110546E-4,-4.4908328E-4,2E0,-1.0425267E-3,8.1758415E-3,4E0,2.8E2,-1.0785301E-3,2.0143446E-2,1.4139118E-2,3.0819937E-3,1E0,1.963544E-3,2.7E1,1.7393356E-2,5.91E2,4.2495E2,1.2969826E-2,3.9216373E-3,6.895E1,-3.1059047E-3,2E0,-2.13301E-3,2.21E2,2.69E2,2.234967E-3,1.26276165E-2,2E0,1.8E1,9.711841E-4,8.677476E-3,1.9553723E-2,4.840435E-3,-4.422521E-4,5E0,2.72E2,-3.4400087E-3,2E0,3E0,2.7582548E-3,1.4503005E-2,1.5470689E-3,2E0,2.7194887E-3,-1.3270628E-3,4.4495175E-3,1.4590712E-2],"split_indices":[246,90,254,287,0,232,234,339,268,9,0,0,0,22,20,293,312,0,0,18,207,328,0,212,0,311,0,6,0,20,0,394,4,318,0,0,0,0,111,24,21,57,0,0,0,0,0,0,389,0,316,0,0,4,14,8,0,0,21,0,0,339,0,0,0,0,0,389,0,37,0,355,176,0,0,355,0,341,0,358,5,0,0,19,21,0,0,0,0,0,21,5,0,107,19,0,0,0,9,0,0,0,0],"split_type":[0,0,0,0,0,0,0,0,0,0,0,0,0,0,0,0,0,0,0,0,0,0,0,0,0,0,0,0,0,0,0,0,0,0,0,0,0,0,0,0,0,0,0,0,0,0,0,0,0,0,0,0,0,0,0,0,0,0,0,0,0,0,0,0,0,0,0,0,0,0,0,0,0,0,0,0,0,0,0,0,0,0,0,0,0,0,0,0,0,0,0,0,0,0,0,0,0,0,0,0,0,0,0],"sum_hessian":[4.72432E5,4.68845E5,3.587E3,4.67862E5,9.83E2,2.446E3,1.141E3,4.63895E5,3.967E3,1.19E3,1.256E3,5.18E2,6.23E2,4.10763E5,5.3132E4,2.368E3,1.599E3,6.03E2,5.87E2,2.1864E4,3.88899E5,5.2477E4,6.55E2,1.709E3,6.59E2,1.043E3,5.56E2,2.1239E4,6.25E2,3.88371E5,5.28E2,5.1302E4,1.175E3,1.099E3,6.1E2,5.08E2,5.35E2,1.7372E4,3.867E3,3.86644E5,1.727E3,5.0767E4,5.35E2,6.19E2,5.56E2,5.16E2,5.83E2,6.08E2,3.259E3,1.3059E4,3.73585E5,5.06E2,1.221E3,4.9534E4,1.233E3,1.624E3,1.635E3,7.499E3,5.56E3,3.73054E5,5.31E2,2.595E3,4.6939E4,6.25E2,6.08E2,1.106E3,5.18E2,1.915E3,3.645E3,2.027E3,5.68E2,4.1432E4,5.507E3,6.64E2,1.251E3,1.398E3,6.29E2,3.5189E4,6.243E3,4.395E3,1.112E3,8.95E2,5.03E2,3.2912E4,2.277E3,3.64E3,7.55E2,5.21E2,5.91E2,1.9119E4,1.3793E4,1.613E3,6.64E2,5.209E3,8.584E3,8.73E2,7.4E2,3.591E3,1.618E3,2.682E3,5.902E3,7.2E2,8.98E2],"tree_param":{"num_deleted":"0","num_feature":"397","num_nodes":"103","size_leaf_vector":"1"}},{"base_weights":[9.990109E-5,-1.7699203E-3,3.0852157E-1,-3.3718243E-3,1.2083088E-1,1.3529991E-2,3.726595E-1,-3.7864223E-3,2.5917951E-2,2.1408632E-1,1.2167138E-2,2.936539E-2,3.987278E-2,-4.745005E-3,5.9936482E-2,1.2097853E-1,3.9350197E-1,3.6763992E-2,-7.4332985E-3,-6.723336E-3,2.31426E-2,1.2529506E-1,-4.5382567E-3,2.7114911E-2,2.2796837E-3,4.5815527E-2,3.2021303E-2,-3.8369645E-3,8.333394E-2,2.3819478E-2,-8.614122E-3,1.8636294E-2,1.741691E-2,6.048169E-2,2.716172E-1,2.3957057E-2,-4.5410995E-3,2.168324E-3,1.7649433E-2,1.8245459E-2,2.0991342E-2,-9.423598E-3,9.538763E-3,1.4694437E-2,1.5404179E-2,1.2552632E-1,-7.982442E-4,1.7974274E-2,3.564864E-2,8.284695E-2,-3.7685402E-3,6.706892E-2,8.139473E-3,-6.460367E-3,-1.235995E-3,7.009521E-3,6.2617887E-4,3.8380317E-2,2.7676395E-3,-1.9487322E-3,2.718166E-2,1.3963801E-2,2.7661868E-3,4.7384217E-2,1.8784033E-2,-3.7099895E-4,2.5149537E-2,-7.5685786E-4,9.6408225E-4,3.0168379E-2,1.6238285E-2,-2.6218072E-4,4.8799645E-2,-1.5766275E-3,6.7837216E-2,1.3837538E-3,1.12059815E-2,1.7396761E-2,6.599498E-2,1.723547E-2,5.621977E-4,1.4367438E-2,4.619706E-3,-1.966258E-3,3.3354869E-3,3.687152E-3,1.39564155E-2],"categories":[],"categories_nodes":[],"categories_segments":[],"categories_sizes":[],"default_left":[1,1,1,1,0,0,1,0,0,0,0,0,0,1,1,0,0,0,0,0,1,0,0,0,0,0,0,0,0,0,0,1,0,0,0,0,0,0,0,0,0,0,0,0,0,0,0,0,0,1,0,1,0,0,0,0,0,0,1,0,0,0,0,0,0,0,0,0,0,0,0,0,0,0,0,0,0,0,0,0,0,0,0,0,0,0,0],"id":9,"left_children":[1,3,5,7,9,-1,11,13,-1,15,17,-1,-1,19,21,23,25,27,-1,29,31,33,35,-1,-1,-1,-1,-1,37,39,41,43,-1,45,47,49,-1,-1,-1,51,-1,53,55,57,-1,59,-1,-1,-1,61,-1,63,65,67,-1,-1,-1,69,71,-1,-1,-1,-1,73,-1,-1,75,-1,-1,77,-1,-1,79,-1,81,-1,-1,83,85,-1,-1,-1,-1,-1,-1,-1,-1],"loss_changes":[2.724597E2,9.2232E1,3.112616E1,5.0469616E1,6.1352478E1,0E0,3.0964966E0,2.827463E1,0E0,5.3965515E1,6.0017157E0,0E0,0E0,2.5158775E1,2.891357E1,3.1785233E1,3.7877808E0,7.7052145E0,0E0,2.45914E1,2.0525574E1,3.214645E1,4.044171E0,0E0,0E0,0E0,0E0,0E0,7.7555294E0,2.571246E1,5.8929462E0,1.5639159E1,0E0,1.0581975E1,7.4918365E0,7.4620724E0,0E0,0E0,0E0,1.1892608E1,0E0,3.3392258E0,3.393334E0,8.056873E0,0E0,2.5891727E1,0E0,0E0,0E0,3.2520947E0,0E0,9.738956E0,4.0301204E0,3.4102345E0,0E0,0E0,0E0,9.677825E0,4.7104673E0,0E0,0E0,0E0,0E0,4.6191854E0,0E0,0E0,8.055E0,0E0,0E0,4.0933228E0,0E0,0E0,1.06066E1,0E0,4.359748E0,0E0,0E0,3.925745E0,4.992194E0,0E0,0E0,0E0,0E0,0E0,0E0,0E0,0E0],"parents":[2147483647,0,0,1,1,2,2,3,3,4,4,6,6,7,7,9,9,10,10,13,13,14,14,15,15,16,16,17,17,19,19,20,20,21,21,22,22,28,28,29,29,30,30,31,31,33,33,34,34,35,35,39,39,41,41,42,42,43,43,45,45,49,49,51,51,52,52,53,53,57,57,58,58,63,63,66,66,69,69,72,72,74,74,77,77,78,78],"right_children":[2,4,6,8,10,-1,12,14,-1,16,18,-1,-1,20,22,24,26,28,-1,30,32,34,36,-1,-1,-1,-1,-1,38,40,42,44,-1,46,48,50,-1,-1,-1,52,-1,54,56,58,-1,60,-1,-1,-1,62,-1,64,66,68,-1,-1,-1,70,72,-1,-1,-1,-1,74,-1,-1,76,-1,-1,78,-1,-1,80,-1,82,-1,-1,84,86,-1,-1,-1,-1,-1,-1,-1,-1],"split_conditions":[4E0,2E0,1.83E2,4E0,3.9644E0,1.3529991E-2,2E0,5E0,2.5917951E-2,5E0,6E0,2.936539E-2,3.987278E-2,3.23E2,1.2E1,1E0,3E0,3.64E2,-7.4332985E-3,1E0,2E0,2E0,1.0616E4,2.7114911E-2,2.2796837E-3,4.5815527E-2,3.2021303E-2,-3.8369645E-3,2E0,3E0,1E0,3E0,1.741691E-2,3E0,2E0,2.53E2,-4.5410995E-3,2.168324E-3,1.7649433E-2,2E0,2.0991342E-2,1E0,1.04E2,2.5E1,1.5404179E-2,5E0,-7.982442E-4,1.7974274E-2,3.564864E-2,1E0,-3.7685402E-3,2E0,1.2995E2,4E0,-1.235995E-3,7.009521E-3,6.2617887E-4,8.84E2,4.27E2,-1.9487322E-3,2.718166E-2,1.3963801E-2,2.7661868E-3,1E0,1.8784033E-2,-3.7099895E-4,1E0,-7.5685786E-4,9.6408225E-4,2E0,1.6238285E-2,-2.6218072E-4,2.88E2,-1.5766275E-3,1E0,1.3837538E-3,1.12059815E-2,2.03E2,1.3528E4,1.723547E-2,5.621977E-4,1.4367438E-2,4.619706E-3,-1.966258E-3,3.3354869E-3,3.687152E-3,1.39564155E-2],"split_indices":[303,232,3,90,252,0,90,16,0,9,22,0,0,353,24,22,22,25,0,22,57,103,1,0,0,0,0,0,12,9,326,107,0,32,195,23,0,0,0,34,0,115,4,24,0,9,0,0,0,90,0,132,0,14,0,0,0,0,26,0,0,0,0,25,0,0,393,0,0,326,0,0,33,0,266,0,0,4,1,0,0,0,0,0,0,0,0],"split_type":[0,0,0,0,0,0,0,0,0,0,0,0,0,0,0,0,0,0,0,0,0,0,0,0,0,0,0,0,0,0,0,0,0,0,0,0,0,0,0,0,0,0,0,0,0,0,0,0,0,0,0,0,0,0,0,0,0,0,0,0,0,0,0,0,0,0,0,0,0,0,0,0,0,0,0,0,0,0,0,0,0,0,0,0,0,0,0],"sum_hessian":[4.72432E5,4.69595E5,2.837E3,4.63548E5,6.047E3,7.75E2,2.062E3,4.62827E5,7.21E2,3.249E3,2.798E3,5.42E2,1.52E3,4.55977E5,6.85E3,2.15E3,1.099E3,2.183E3,6.15E2,4.2578E5,3.0197E4,3.397E3,3.453E3,8.43E2,1.307E3,5.56E2,5.43E2,8.36E2,1.347E3,2.4815E4,4.00965E5,2.9333E4,8.64E2,2.364E3,1.033E3,2.037E3,1.416E3,8.18E2,5.29E2,2.4104E4,7.11E2,3.83853E5,1.7112E4,2.8514E4,8.19E2,1.208E3,1.156E3,5.11E2,5.22E2,1.04E3,9.97E2,4.124E3,1.998E4,1.91068E5,1.92785E5,8.68E2,1.6244E4,9.542E3,1.8972E4,6.11E2,5.97E2,5.05E2,5.35E2,3.558E3,5.66E2,1.1781E4,8.199E3,1.78769E5,1.2299E4,8.961E3,5.81E2,1.6992E4,1.98E3,8.71E2,2.687E3,7.265E3,9.34E2,6.617E3,2.344E3,5.05E2,1.475E3,5.84E2,2.103E3,1.991E3,4.626E3,1.69E3,6.54E2],"tree_param":{"num_deleted":"0","num_feature":"397","num_nodes":"87","size_leaf_vector":"1"}}]},"name":"gbtree"},"learner_model_param":{"base_score":"[3.5135217E-2]","boost_from_average":"1","num_class":"0","num_feature":"397","num_target":"1"},"objective":{"name":"reg:squarederror","reg_loss_param":{"scale_pos_weight":"1"}}},"version":[3,1,3]}