{"learner":{"attributes":{},"feature_names":["TransactionAmt","card1","card2","card3","card5","addr1","addr2","dist1","dist2","C1","C2","C3","C4","C5","C6","C7","C8","C9","C10","C11","C12","C13","C14","D1","D2","D3","D4","D5","D6","D7","D8","D9","D10","D11","D12","D13","D14","D15","M2","M3","M4","M5","M6","M7","M8","M9","V1","V2","V3","V4","V5","V6","V7","V8","V9","V10","V11","V12","V13","V14","V15","V16","V17","V18","V19","V20","V21","V22","V23","V24","V25","V26","V27","V28","V29","V30","V31","V32","V33","V34","V35","V36","V37","V38","V39","V40","V41","V42","V43","V44","V45","V46","V47","V48","V49","V50","V51","V52","V53","V54","V55","V56","V57","V58","V59","V60","V61","V62","V63","V64","V65","V66","V67","V68","V69","V70","V71","V72","V73","V74","V75","V76","V77","V78","V79","V80","V81","V82","V83","V84","V85","V86","V87","V88","V89","V90","V91","V92","V93","V94","V95","V96","V97","V98","V99","V100","V101","V102","V103","V104","V105","V106","V107","V108","V109","V110","V111","V112","V113","V114","V115","V116","V117","V118","V119","V120","V121","V122","V123","V124","V125","V126","V127","V128","V129","V130","V131","V132","V133","V134","V135","V136","V137","V138","V139","V140","V141","V142","V143","V144","V145","V146","V147","V148","V149","V150","V151","V152","V153","V154","V155","V156","V157","V158","V159","V160","V161","V162","V163","V164","V165","V166","V167","V168","V169","V170","V171","V172","V173","V174","V175","V176","V177","V178","V179","V180","V181","V182","V183","V184","V185","V186","V187","V188","V189","V190","V191","V192","V193","V194","V195","V196","V197","V198","V199","V200","V201","V202","V203","V204","V205","V206","V207","V208","V209","V210","V211","V212","V213","V214","V215","V216","V217","V218","V219","V220","V221","V222","V223","V224","V225","V226","V227","V228","V229","V230","V231","V232","V233","V234","V235","V236","V237","V238","V239","V240","V241","V242","V243","V244","V245","V246","V247","V248","V249","V250","V251","V252","V253","V254","V255","V256","V257","V258","V259","V260","V261","V262","V263","V264","V265","V266","V267","V268","V269","V270","V271","V272","V273","V274","V275","V276","V277","V278","V279","V280","V281","V282","V283","V284","V285","V286","V287","V288","V289","V290","V291","V292","V293","V294","V295","V296","V297","V298","V299","V300","V301","V302","V303","V304","V305","V306","V307","V308","V309","V310","V311","V312","V313","V314","V315","V316","V317","V318","V319","V320","V321","V322","V323","V324","V325","V326","V327","V328","V329","V330","V331","V332","V333","V334","V335","V336","V337","V338","V339","is_visa","is_american_express","is_discover","is_mastercard","is_debit","ProductCD_W","ProductCD_C","ProductCD_R","ProductCD_H","ProductCD_S","gmail_hotmail_or_yahoo_email","nan_email"],"feature_types":["float","int","float","float","float","float","float","float","float","float","float","float","float","float","float","float","float","float","float","float","float","float","float","float","float","float","float","float","float","float","float","float","float","float","float","float","float","float","int","int","int","int","int","int","int","int","float","float","float","float","float","float","float","float","float","float","float","float","float","float","float","float","float","float","float","float","float","float","float","float","float","float","float","float","float","float","float","float","float","float","float","float","float","float","float","float","float","float","float","float","float","float","float","float","float","float","float","float","float","float","float","float","float","float","float","float","float","float","float","float","float","float","float","float","float","float","float","float","float","float","float","float","float","float","float","float","float","float","float","float","float","float","float","float","float","float","float","float","float","float","float","float","float","float","float","float","float","float","float","float","float","float","float","float","float","float","float","float","float","float","float","float","float","float","float","float","float","float","float","float","float","float","float","float","float","float","float","float","float","float","float","float","float","float","float","float","float","float","float","float","float","float","float","float","float","float","float","float","float","float","float","float","float","float","float","float","float","float","float","float","float","float","float","float","float","float","float","float","float","float","float","float","float","float","float","float","float","float","float","float","float","float","float","float","float","float","float","float","float","float","float","float","float","float","float","float","float","float","float","float","float","float","float","float","float","float","float","float","float","float","float","float","float","float","float","float","float","float","float","float","float","float","float","float","float","float","float","float","float","float","float","float","float","float","float","float","float","float","float","float","float","float","float","float","float","float","float","float","float","float","float","float","float","float","float","float","float","float","float","float","float","float","float","float","float","float","float","float","float","float","float","float","float","float","float","float","float","float","float","float","float","float","float","float","float","float","float","float","float","float","float","float","float","float","float","float","float","float","float","float","float","float","float","float","float","float","float","float","float","float","float","float","float","float","float","float","float","float","float","float","float","float","float","float","float","float","float","float","float","float","float","float","float","float","float","int","int","int","int","int","int","int","int","int","int","int","int"],"gradient_booster":{"model":{"cats":{"enc":[],"feature_segments":[],"sorted_idx":[]},"gbtree_model_param":{"num_parallel_tree":"1","num_trees":"10"},"iteration_indptr":[0,1,2,3,4,5,6,7,8,9,10],"tree_info":[0,0,0,0,0,0,0,0,0,0],"trees":[{"base_weights":[-1.5224233E-9,-6.0909344E-3,5.83838E-1,-8.431957E-3,2.9396737E-1,3.3943415E-1,8.128741E-1,-9.50606E-3,4.8351103E-1,1.727797E-1,5.7589E-1,6.1704236E-1,1.4865617E-1,8.5821897E-1,5.33436E-1,6.406011E-2,-1.4089073E-2,3.657993E-1,8.973595E-2,3.1728327E-1,3.509395E-2,2.3603596E-1,6.970453E-1,2.4660408E-1,7.5087523E-1,1.0248925E-1,4.016766E-1,8.7686056E-1,4.838273E-2,2.5202695E-2,6.782448E-2,5.055881E-2,5.169047E-1,-1.8731264E-2,5.7745736E-2,5.9983903E-1,1.936333E-1,1.3522096E-1,6.5389794E-1,1.4283062E-2,2.338273E-2,3.6681674E-2,3.6798262E-3,7.6234776E-1,3.6319602E-2,8.891191E-3,4.236756E-2,4.6357222E-2,7.934981E-2,1.264609E-3,2.193181E-1,5.446067E-2,2.2878958E-2,8.9588475E-1,4.8923533E-2,1.6096145E-1,2.2851765E-2,1.3676926E-2,6.8991387E-1,2.1858145E-2,-2.1432959E-2,4.786841E-2,3.1028867E-1,7.185663E-2,3.127213E-2,9.733424E-2,4.636563E-2,1.7030096E-2,4.4218352E-1,7.45153E-2,3.7241522E-2,1.0993811E-2,-7.451662E-4,3.524832E-2,8.359439E-2,1.4332785E-1,3.9293803E-2,6.552014E-2,9.203275E-2,1.3033842E-1,3.5827097E-1,2.063848E-2,3.5033535E-2,5.071453E-2,8.035634E-2,8.886779E-3,7.01832E-2,-2.1655554E-2,4.0662155E-2,3.985973E-2,2.4145028E-1,1.7664495E-1,5.5547565E-1,3.0341584E-3,2.4987709E-2,-1.751633E-3,1.3531262E-2,6.876756E-2,1.2871615E-2,2.1094056E-2,4.017791E-3,1.18017934E-1,5.9179943E-2,4.168141E-1,1.1387381E-2,2.7970076E-2,-2.6214968E-3,1.9484153E-3,4.723245E-2,6.3926294E-2,2.9599313E-2,-2.2349793E-2,7.5615E-2,6.5952286E-2,1.3185021E-2,1.4258505E-1,7.082634E-2,3.0981088E-1,2.806774E-3,1.6622832E-2,7.0915604E-1,2.3289542E-1,8.923409E-2,3.3864415E-1,6.1795622E-2,9.34393E-3,5.1453054E-2,8.6262356E-4,-2.0843621E-2,2.7600605E-2,1.01828314E-1,9.13955E-2,1.9663677E-2,-2.3134634E-2,3.7567433E-2,6.0800415E-2,4.184806E-2,6.0151663E-2,3.0051124E-1,1.150092E-1,3.5386144E-3,2.776776E-1,5.7630483E-2,5.1972564E-2,1.6915016E-1,4.10452E-2,8.969166E-2,3.4675753E-1,1.6547057E-1,1.977208E-3,1.221924E-1,4.0065352E-2,1.7051404E-2,6.423559E-3,1.1946767E-1,9.397247E-2,3.1909864E-2,-2.5418203E-3,1.0114192E-2,1.1300077E-3,8.556749E-3,3.7728192E-3,1.742351E-2,1.079616E-1,1.6857077E-3,8.2290435E-4,1.4770426E-2,-1.7300926E-2,-2.8810304E-2,5.160309E-3,2.558402E-1,1.0970193E-1,4.3030805E-4,5.0903227E-2,1.7832567E-1,4.4389557E-2,8.873867E-3,5.852135E-2,4.895071E-2,-8.132156E-4,7.7448145E-2,6.272127E-3,3.7932053E-1,-4.179447E-4,2.2606306E-2,1.9149845E-3,3.0705048E-2,4.6720713E-2,2.2907984E-2,4.388274E-3,1.9656707E-1,2.9939322E-2,9.7496256E-2,4.263689E-3,1.4247097E-2,3.3416785E-3,2.1779273E-2,2.9461961E-3,1.4713553E-1,2.6255182E-3,1.7841825E-2,9.4472155E-2,3.2720715E-2,-1.802135E-2,2.9118255E-2,-2.896828E-2,1.6713157E-2,2.7018618E-2,-2.7937458E-3,6.2976E-2,1.0847108E-1,4.0941846E-2,6.922936E-2,9.376957E-2,3.6530226E-2,2.2848225E-1,3.0750416E-3,9.051136E-4,1.5448572E-1,-9.3254255E-4,3.8511623E-2,4.0270265E-2,2.734357E-4,1.5381481E-2,5.6792002E-2,1.1277839E-2,2.7508805E-2,1.1589817E-2,4.4289217E-3,2.177579E-3,-8.1034563E-4,1.0847694E-1,2.5517756E-1,2.4782958E-2,8.562912E-2,-1.8174294E-2,1.9479929E-2,5.068143E-1,-9.215099E-3,-2.9096361E-3,1.9325536E-2,2.0646378E-4,7.378101E-2,2.5019491E-2,2.099863E-4,3.7731042E-3,2.6693156E-2,1.2542629E-1,2.658587E-3,3.326157E-2,2.3614353E-2,9.862799E-3,2.7879858E-1,2.4427536E-3,2.6818618E-2,1.955215E-2,1.3834909E-1,1.3021571E-2,-9.539028E-4,3.669942E-2,1.5069241E-2,6.8408395E-3,1.4511309E-2,-4.2243255E-4,-2.0131085E-2,6.316953E-2,3.373995E-2,-1.9391641E-3,1.0871006E-2,4.8445683E-2,1.8253757E-2,1.0411126E-1,2.3031496E-1,3.0491475E-2,2.2427805E-2,1.8949123E-1,4.6733912E-2,-1.3322406E-3,6.601014E-2,-4.491892E-4,2.5359256E-2,-2.1126982E-2,3.7833648E-3,2.0629966E-3,1.6737444E-2,2.7399873E-2,8.764837E-2,3.541057E-2,-1.4688676E-3,3.9280467E-2,-2.6618503E-3,2.7758429E-2,8.286084E-3,2.7673356E-3,2.1191185E-2,-2.197183E-2,1.6463891E-5,-2.621878E-5,2.0385182E-2,6.651713E-3,2.3162885E-2,8.458244E-2,3.0346006E-2,2.1367597E-3,-2.2322715E-3,2.6607905E-2,4.485584E-2,2.2981137E-2,1.0261863E-1,5.08736E-4,1.3439795E-1,1.5405397E-2,1.8666489E-2,6.1736535E-4,2.1041267E-1,2.7674502E-2,8.6228317E-4,1.4429494E-3,1.2115151E-2,4.9367016E-3,4.2260434E-2],"categories":[],"categories_nodes":[],"categories_segments":[],"categories_sizes":[],"default_left":[1,0,0,1,0,0,1,0,0,0,0,0,1,0,1,0,1,0,0,0,0,0,0,0,0,0,0,1,0,0,0,1,0,0,1,0,0,0,1,0,0,0,0,0,0,0,0,0,0,0,0,0,0,0,0,1,1,0,0,0,1,1,1,0,0,1,0,0,0,0,0,0,0,0,0,0,0,0,0,0,1,0,0,0,0,0,0,1,0,1,0,0,0,0,0,0,0,0,0,0,0,1,0,1,0,0,0,0,1,1,0,0,1,0,0,1,0,0,0,0,0,0,0,1,0,0,0,0,1,0,0,1,0,0,0,0,0,0,0,0,1,0,0,0,1,0,0,0,0,0,0,0,0,0,0,0,0,0,0,0,0,0,0,0,0,0,0,0,1,1,0,0,0,0,0,0,0,0,0,0,1,0,1,0,0,0,0,0,0,0,0,0,0,0,0,0,0,0,0,0,0,0,0,1,0,1,0,0,0,0,0,0,0,0,1,0,0,0,0,0,0,0,0,0,0,0,0,0,0,0,0,1,0,0,0,0,0,1,1,0,0,0,1,0,0,0,0,0,0,1,0,0,0,0,0,0,0,0,0,0,0,0,0,0,0,0,0,0,0,0,0,0,0,1,0,0,0,0,0,0,0,0,0,0,0,0,0,0,0,1,0,0,0,0,0,0,0,0,0,0,0,0,1,0,0,0,0,0,0,0,0,0,1,0,0,0,0,0,0,0,0],"id":0,"left_children":[1,3,5,7,9,11,13,15,17,19,21,23,25,27,29,31,33,35,-1,37,39,41,43,45,47,49,51,53,-1,-1,-1,55,57,59,61,63,65,67,69,71,-1,-1,-1,73,-1,-1,-1,-1,-1,-1,75,-1,-1,77,-1,79,81,-1,83,85,87,89,91,-1,-1,93,-1,95,97,-1,-1,-1,-1,-1,-1,99,-1,-1,-1,101,103,105,-1,-1,-1,107,109,111,-1,113,115,117,119,-1,-1,-1,-1,-1,-1,-1,-1,121,-1,123,-1,125,-1,127,129,131,-1,133,135,137,139,141,-1,143,-1,-1,145,147,149,151,-1,153,155,-1,157,159,161,163,165,167,169,171,-1,173,175,177,179,181,183,-1,185,-1,-1,187,189,-1,191,-1,-1,193,195,197,199,-1,-1,-1,-1,-1,-1,201,-1,-1,-1,203,205,207,209,211,-1,213,215,-1,-1,217,-1,219,221,-1,223,-1,-1,-1,-1,-1,-1,-1,225,-1,227,229,-1,-1,-1,-1,231,-1,-1,233,-1,235,237,239,-1,241,-1,-1,243,-1,245,247,249,251,-1,-1,253,-1,255,-1,-1,-1,-1,-1,-1,-1,-1,-1,-1,257,259,-1,261,263,-1,265,267,-1,-1,-1,269,-1,-1,-1,-1,271,-1,273,-1,-1,275,-1,-1,277,279,-1,-1,-1,-1,-1,-1,-1,281,-1,-1,-1,-1,283,-1,285,287,289,-1,291,-1,-1,293,-1,-1,295,297,-1,-1,-1,299,-1,-1,301,-1,-1,-1,-1,-1,303,-1,-1,-1,-1,-1,305,307,-1,-1,-1,309,311,313,-1,315,-1,317,-1,319,-1,-1,-1,-1,-1,-1],"loss_changes":[1.6800952E3,3.28469E2,2.7029797E2,2.4520338E2,1.22684296E2,1.2497229E2,2.7239136E1,1.5609918E2,4.596817E1,5.0544083E1,4.2988525E1,4.598996E1,1.6198956E1,1.0720947E1,1.3653587E1,1.6574567E2,1.4534445E2,3.1234634E1,0E0,7.517028E1,5.405202E0,7.6819572E0,1.4541351E1,7.190378E0,4.942505E0,1.2735735E1,4.091522E0,1.0586792E1,0E0,0E0,0E0,8.0648636E1,5.0683426E1,4.489673E1,6.584711E1,9.206696E0,1.1978117E1,2.9601873E1,8.34729E0,2.5051143E0,0E0,0E0,0E0,1.6811127E1,0E0,0E0,0E0,0E0,0E0,0E0,6.402937E0,0E0,0E0,5.283081E0,0E0,3.1496368E1,1.5219099E1,0E0,7.0791016E0,1.601146E1,3.6660538E1,3.939544E1,3.1589882E1,0E0,0E0,3.65421E0,0E0,2.4795308E0,1.6583355E1,0E0,0E0,0E0,0E0,0E0,0E0,2.5863838E0,0E0,0E0,0E0,2.5426079E1,9.612335E0,7.2093716E0,0E0,0E0,0E0,5.3619742E0,7.448761E0,2.5923782E1,0E0,1.7024796E1,4.5603214E1,1.2931852E1,1.9518791E1,0E0,0E0,0E0,0E0,0E0,0E0,0E0,0E0,1.4632267E1,0E0,6.79097E0,0E0,7.926959E0,0E0,2.6012409E0,3.2816677E0,6.3932514E0,0E0,1.792212E1,1.3566646E1,1.6648357E1,1.1894754E1,9.549286E0,0E0,9.337143E0,0E0,0E0,1.0059372E1,6.2818985E0,8.228945E0,3.7894287E0,0E0,3.248547E0,6.633522E0,0E0,2.1869693E0,2.1494064E0,3.7076292E0,3.996172E0,2.9628906E0,1.2444794E1,3.4852535E1,7.2338285E0,0E0,1.3115036E1,8.594091E0,2.1883537E1,3.5631332E0,6.841093E0,5.5479965E0,0E0,4.5332904E0,0E0,0E0,3.5079994E0,2.1066961E0,0E0,1.0399101E1,0E0,0E0,2.8953483E0,2.1355302E0,8.599182E0,4.517134E0,0E0,0E0,0E0,0E0,0E0,0E0,7.55192E0,0E0,0E0,0E0,6.206936E0,5.947403E0,3.1198785E0,3.441829E1,1.67475E1,0E0,6.8785915E0,6.391573E0,0E0,0E0,4.3630996E0,0E0,3.5083325E0,1.4958403E1,0E0,8.398052E0,0E0,0E0,0E0,0E0,0E0,0E0,0E0,2.7096004E0,0E0,2.0625725E0,2.1090362E0,0E0,0E0,0E0,0E0,5.482933E0,0E0,0E0,3.2025585E0,0E0,5.9796486E0,5.201529E1,5.476288E0,0E0,3.027769E0,0E0,0E0,7.0650773E0,0E0,7.6771646E0,5.9451313E0,5.4145737E0,3.9719887E0,0E0,0E0,4.56303E0,0E0,3.5031435E0,0E0,0E0,0E0,0E0,0E0,0E0,0E0,0E0,0E0,0E0,2.6626053E0,3.6061783E0,0E0,2.3550892E0,4.980854E0,0E0,2.3327217E0,3.185666E0,0E0,0E0,0E0,2.3996792E0,0E0,0E0,0E0,0E0,4.0259438E0,0E0,4.32078E0,0E0,0E0,6.910454E0,0E0,0E0,2.4203782E0,4.8839917E0,0E0,0E0,0E0,0E0,0E0,0E0,0E0,3.8125E0,0E0,0E0,0E0,0E0,2.433305E0,0E0,4.2459755E0,9.575378E0,4.120333E0,0E0,2.8792067E0,0E0,0E0,3.6106284E0,0E0,0E0,2.7639008E0,5.18628E0,0E0,0E0,0E0,4.339679E0,0E0,0E0,2.8480492E0,0E0,0E0,0E0,0E0,0E0,2.252159E0,0E0,0E0,0E0,0E0,0E0,8.273371E0,3.1413455E0,0E0,0E0,0E0,3.4366052E0,3.030212E0,5.673727E0,0E0,5.2935405E0,0E0,2.2613497E0,0E0,8.607889E0,0E0,0E0,0E0,0E0,0E0,0E0],"parents":[2147483647,0,0,1,1,2,2,3,3,4,4,5,5,6,6,7,7,8,8,9,9,10,10,11,11,12,12,13,13,14,14,15,15,16,16,17,17,19,19,20,20,21,21,22,22,23,23,24,24,25,25,26,26,27,27,31,31,32,32,33,33,34,34,35,35,36,36,37,37,38,38,39,39,43,43,50,50,53,53,55,55,56,56,58,58,59,59,60,60,61,61,62,62,65,65,67,67,68,68,75,75,79,79,80,80,81,81,85,85,86,86,87,87,89,89,90,90,91,91,92,92,101,101,103,103,105,105,107,107,108,108,109,109,111,111,112,112,113,113,114,114,115,115,117,117,120,120,121,121,122,122,123,123,125,125,126,126,128,128,129,129,130,130,131,131,132,132,133,133,134,134,135,135,137,137,138,138,139,139,140,140,141,141,142,142,144,144,147,147,148,148,150,150,153,153,154,154,155,155,156,156,163,163,167,167,168,168,169,169,170,170,171,171,173,173,174,174,177,177,179,179,180,180,182,182,190,190,192,192,193,193,198,198,201,201,203,203,204,204,205,205,207,207,210,210,212,212,213,213,214,214,215,215,218,218,220,220,231,231,232,232,234,234,235,235,237,237,238,238,242,242,247,247,249,249,252,252,255,255,256,256,264,264,269,269,271,271,272,272,273,273,275,275,278,278,281,281,282,282,286,286,289,289,295,295,301,301,302,302,306,306,307,307,308,308,310,310,312,312,314,314],"right_children":[2,4,6,8,10,12,14,16,18,20,22,24,26,28,30,32,34,36,-1,38,40,42,44,46,48,50,52,54,-1,-1,-1,56,58,60,62,64,66,68,70,72,-1,-1,-1,74,-1,-1,-1,-1,-1,-1,76,-1,-1,78,-1,80,82,-1,84,86,88,90,92,-1,-1,94,-1,96,98,-1,-1,-1,-1,-1,-1,100,-1,-1,-1,102,104,106,-1,-1,-1,108,110,112,-1,114,116,118,120,-1,-1,-1,-1,-1,-1,-1,-1,122,-1,124,-1,126,-1,128,130,132,-1,134,136,138,140,142,-1,144,-1,-1,146,148,150,152,-1,154,156,-1,158,160,162,164,166,168,170,172,-1,174,176,178,180,182,184,-1,186,-1,-1,188,190,-1,192,-1,-1,194,196,198,200,-1,-1,-1,-1,-1,-1,202,-1,-1,-1,204,206,208,210,212,-1,214,216,-1,-1,218,-1,220,222,-1,224,-1,-1,-1,-1,-1,-1,-1,226,-1,228,230,-1,-1,-1,-1,232,-1,-1,234,-1,236,238,240,-1,242,-1,-1,244,-1,246,248,250,252,-1,-1,254,-1,256,-1,-1,-1,-1,-1,-1,-1,-1,-1,-1,258,260,-1,262,264,-1,266,268,-1,-1,-1,270,-1,-1,-1,-1,272,-1,274,-1,-1,276,-1,-1,278,280,-1,-1,-1,-1,-1,-1,-1,282,-1,-1,-1,-1,284,-1,286,288,290,-1,292,-1,-1,294,-1,-1,296,298,-1,-1,-1,300,-1,-1,302,-1,-1,-1,-1,-1,304,-1,-1,-1,-1,-1,306,308,-1,-1,-1,310,312,314,-1,316,-1,318,-1,320,-1,-1,-1,-1,-1,-1],"split_conditions":[3E0,4E0,5E0,2E0,2E0,1E0,1E0,1E0,3E0,2E0,5.09E2,2E0,3E0,1E0,2E0,3E0,1.71E2,1E0,8.973595E-2,1.4E1,2E0,9E1,2.5E1,1E0,3E0,1.79E2,2.56181E1,2.1458333E2,4.838273E-2,2.5202695E-2,6.782448E-2,6.8E1,1E0,7E0,3E0,3E0,4E0,8E0,1E1,5.3625E1,2.338273E-2,3.6681674E-2,3.6798262E-3,1.1E1,3.6319602E-2,8.891191E-3,4.236756E-2,4.6357222E-2,7.934981E-2,1.264609E-3,4E0,5.446067E-2,2.2878958E-2,3.26268E1,4.8923533E-2,2E0,2E0,1.3676926E-2,4E0,2.0895E2,3E0,2E0,4.9E2,7.185663E-2,3.127213E-2,3.35225E1,4.636563E-2,2E0,4E0,7.45153E-2,3.7241522E-2,1.0993811E-2,-7.451662E-4,3.524832E-2,8.359439E-2,4E0,3.9293803E-2,6.552014E-2,9.203275E-2,5.83E2,2E0,1E0,3.5033535E-2,5.071453E-2,8.035634E-2,2E0,1E0,2E0,4.0662155E-2,5.3E1,1.1E1,1.2E1,1.4E2,3.0341584E-3,2.4987709E-2,-1.751633E-3,1.3531262E-2,6.876756E-2,1.2871615E-2,2.1094056E-2,4.017791E-3,1E0,5.9179943E-2,1E0,1.1387381E-2,1.2995E2,-2.6214968E-3,1E0,1.85E2,3E0,2.9599313E-2,4E0,3E0,1E0,2.3E1,1E0,7.082634E-2,3E0,2.806774E-3,1.6622832E-2,1.1E1,3E0,8.01E2,5.12E2,6.1795622E-2,1E0,1E0,8.6262356E-4,5.67E2,1.359E2,1E0,1E0,2E0,1E0,7E0,3E0,4.184806E-2,5.69E2,2E0,6.1E2,2E0,7.8E1,2.04E2,5.1972564E-2,3.15E2,4.10452E-2,8.969166E-2,3.45E2,6E1,1.977208E-3,5.5041664E1,4.0065352E-2,1.7051404E-2,3.371E2,3.24E2,1E0,2E0,-2.5418203E-3,1.0114192E-2,1.1300077E-3,8.556749E-3,3.7728192E-3,1.742351E-2,7.6495E2,1.6857077E-3,8.2290435E-4,1.4770426E-2,1.2E3,2.75E2,2.19E2,4E0,1E0,4.3030805E-4,6E0,3.4E1,4.4389557E-2,8.873867E-3,4.79E2,4.895071E-2,2.585E2,1.61E2,6.272127E-3,2E0,-4.179447E-4,2.2606306E-2,1.9149845E-3,3.0705048E-2,4.6720713E-2,2.2907984E-2,4.388274E-3,3.7E1,2.9939322E-2,1.5066E4,8E1,1.4247097E-2,3.3416785E-3,2.1779273E-2,2.9461961E-3,2.585E2,2.6255182E-3,1.7841825E-2,1E0,3.2720715E-2,1.5E1,1E0,1.68E2,1.6713157E-2,2E0,-2.7937458E-3,6.2976E-2,1.2E1,4.0941846E-2,6E0,3.87E2,6E0,1E0,3.0750416E-3,9.051136E-4,2.14E2,-9.3254255E-4,5.09E2,4.0270265E-2,2.734357E-4,1.5381481E-2,5.6792002E-2,1.1277839E-2,2.7508805E-2,1.1589817E-2,4.4289217E-3,2.177579E-3,-8.1034563E-4,1.4204167E2,1E0,2.4782958E-2,2.6995E2,3E0,1.9479929E-2,1E0,1E0,-2.9096361E-3,1.9325536E-2,2.0646378E-4,2E2,2.5019491E-2,2.099863E-4,3.7731042E-3,2.6693156E-2,3E0,2.658587E-3,4.4E2,2.3614353E-2,9.862799E-3,2E0,2.4427536E-3,2.6818618E-2,4.15E2,9.364E3,1.3021571E-2,-9.539028E-4,3.669942E-2,1.5069241E-2,6.8408395E-3,1.4511309E-2,-4.2243255E-4,3.9E2,6.316953E-2,3.373995E-2,-1.9391641E-3,1.0871006E-2,1E0,1.8253757E-2,1.14E2,5E0,1E0,2.2427805E-2,3.01E2,4.6733912E-2,-1.3322406E-3,5E0,-4.491892E-4,2.5359256E-2,1.30592E1,1E0,2.0629966E-3,1.6737444E-2,2.7399873E-2,3.35E2,3.541057E-2,-1.4688676E-3,1.74E2,-2.6618503E-3,2.7758429E-2,8.286084E-3,2.7673356E-3,2.1191185E-2,6.5E0,1.6463891E-5,-2.621878E-5,2.0385182E-2,6.651713E-3,2.3162885E-2,1E0,2E0,2.1367597E-3,-2.2322715E-3,2.6607905E-2,3E0,2E0,1.0023E4,5.08736E-4,4.84E2,1.5405397E-2,2E0,6.1736535E-4,3E0,2.7674502E-2,8.6228317E-4,1.4429494E-3,1.2115151E-2,4.9367016E-3,4.2260434E-2],"split_indices":[303,15,9,201,90,22,214,22,201,32,24,201,234,268,90,9,362,22,0,20,112,23,22,283,302,3,311,30,0,0,0,6,125,24,107,266,9,9,24,30,0,0,0,9,0,0,0,0,0,0,303,0,0,320,0,89,289,0,9,352,307,98,2,0,0,322,0,112,22,0,0,0,0,0,0,273,0,0,0,2,262,13,0,0,0,112,387,232,0,37,339,24,359,0,0,0,0,0,0,0,0,111,0,277,0,0,0,13,3,26,0,16,90,387,33,80,0,336,0,0,339,83,27,2,0,387,271,0,2,353,24,136,344,114,9,273,0,357,9,176,112,355,357,0,5,0,0,2,6,0,30,0,0,362,5,395,17,0,0,0,0,0,0,0,0,0,0,2,316,23,22,368,0,24,37,0,0,2,0,0,2,0,120,0,0,0,0,0,0,0,0,0,1,211,0,0,0,0,0,0,0,268,0,343,28,3,0,63,0,0,380,0,9,5,341,98,0,0,37,0,24,0,0,0,0,0,0,0,0,0,0,30,392,0,0,27,0,266,341,0,0,0,205,0,0,0,0,122,0,32,0,0,123,0,0,2,1,0,0,0,0,0,0,0,0,0,0,0,0,147,0,2,327,136,0,5,0,0,9,0,0,362,387,0,0,0,358,0,0,2,0,0,0,0,0,30,0,0,0,0,0,81,99,0,0,0,10,184,1,0,362,0,111,0,17,0,0,0,0,0,0],"split_type":[0,0,0,0,0,0,0,0,0,0,0,0,0,0,0,0,0,0,0,0,0,0,0,0,0,0,0,0,0,0,0,0,0,0,0,0,0,0,0,0,0,0,0,0,0,0,0,0,0,0,0,0,0,0,0,0,0,0,0,0,0,0,0,0,0,0,0,0,0,0,0,0,0,0,0,0,0,0,0,0,0,0,0,0,0,0,0,0,0,0,0,0,0,0,0,0,0,0,0,0,0,0,0,0,0,0,0,0,0,0,0,0,0,0,0,0,0,0,0,0,0,0,0,0,0,0,0,0,0,0,0,0,0,0,0,0,0,0,0,0,0,0,0,0,0,0,0,0,0,0,0,0,0,0,0,0,0,0,0,0,0,0,0,0,0,0,0,0,0,0,0,0,0,0,0,0,0,0,0,0,0,0,0,0,0,0,0,0,0,0,0,0,0,0,0,0,0,0,0,0,0,0,0,0,0,0,0,0,0,0,0,0,0,0,0,0,0,0,0,0,0,0,0,0,0,0,0,0,0,0,0,0,0,0,0,0,0,0,0,0,0,0,0,0,0,0,0,0,0,0,0,0,0,0,0,0,0,0,0,0,0,0,0,0,0,0,0,0,0,0,0,0,0,0,0,0,0,0,0,0,0,0,0,0,0,0,0,0,0,0,0,0,0,0,0,0,0,0,0,0,0,0,0,0,0,0,0,0,0,0,0,0,0,0,0,0,0,0,0,0,0],"sum_hessian":[4.72432E5,4.67564E5,4.868E3,4.63954E5,3.61E3,2.367E3,2.501E3,4.62953E5,1.001E3,2.536E3,1.074E3,9.55E2,1.412E3,2.134E3,3.67E2,2.7142E4,4.35811E5,7.94E2,2.07E2,1.231E3,1.305E3,2.9E2,7.84E2,2.61E2,6.94E2,1.206E3,2.06E2,2.02E3,1.14E2,1.34E2,2.33E2,2.6367E4,7.75E2,4.09364E5,2.6447E4,3.26E2,4.68E2,8.08E2,4.23E2,1.191E3,1.14E2,1.7E2,1.2E2,6.45E2,1.39E2,1.46E2,1.15E2,1.05E2,5.89E2,6.88E2,5.18E2,1.01E2,1.05E2,1.913E3,1.07E2,5.28E3,2.1087E4,2.48E2,5.27E2,2.5543E4,3.83821E5,2.5463E4,9.84E2,2.2E2,1.06E2,3.55E2,1.13E2,5.91E2,2.17E2,3.07E2,1.16E2,2.13E2,9.78E2,1.07E2,5.38E2,3.73E2,1.45E2,2.02E2,1.711E3,4.585E3,6.95E2,2.0956E4,1.31E2,2.23E2,3.04E2,2.0147E4,5.396E3,3.83631E5,1.9E2,2.4463E4,1E3,6.48E2,3.36E2,2.55E2,1E2,4.64E2,1.27E2,1.15E2,1.02E2,2.19E2,1.54E2,4.478E3,1.07E2,5.55E2,1.4E2,1.8124E4,2.832E3,1.7069E4,3.078E3,5.263E3,1.33E2,3.8092E5,2.711E3,1.2359E4,1.2104E4,8.36E2,1.64E2,3.36E2,3.12E2,1.01E2,2.35E2,8.83E2,3.595E3,4.19E2,1.36E2,1.0115E4,8.009E3,1.3206E4,3.863E3,2.275E3,8.03E2,3.241E3,2.022E3,3.76001E5,4.919E3,2.61E3,1.01E2,1.2073E4,2.86E2,1.038E3,1.1066E4,3.14E2,5.22E2,1.24E2,2.12E2,1.03E2,1.32E2,3.13E2,5.7E2,1.162E3,2.433E3,2.96E2,1.23E2,9.864E3,2.51E2,2.51E3,5.499E3,3.731E3,1.32E2,1.785E3,4.9E2,4.34E2,3.69E2,2.648E3,5.93E2,1.866E3,1.56E2,1.85439E5,1.90562E5,4.292E3,6.27E2,1.394E3,1.216E3,1.121E4,8.63E2,1.64E2,1.22E2,9.12E2,1.26E2,1.046E4,6.06E2,1.06E2,2.08E2,3.89E2,1.33E2,1.07E2,1.05E2,1.4E2,1.73E2,1.21E2,4.49E2,2.84E2,2.149E3,9.72E3,1.44E2,1.41E2,1.1E2,1.141E3,1.369E3,5.306E3,1.93E2,2.508E3,1.4E2,1.82611E5,2.828E3,1.90417E5,1.45E2,2.586E3,1.706E3,1.68E2,4.59E2,1.55E2,1.239E3,2.801E3,8.409E3,6.4E2,2.23E2,6.09E2,3.03E2,8.605E3,1.855E3,1.05E2,5.01E2,1.03E2,1.05E2,2.29E2,2.2E2,1.588E3,5.61E2,4.02E3,5.7E3,1.023E3,3.46E2,1.22E2,2.386E3,1.82489E5,1.22E2,2.01E2,2.627E3,1.90316E5,1.01E2,1.693E3,8.93E2,1.91E2,2.68E2,1.079E3,1.6E2,1.898E3,9.03E2,8.285E3,1.24E2,1.87E2,4.53E2,1.47E2,1.56E2,1.569E3,2.86E2,8.63E2,1.6E2,1.55E2,1.91E2,1.867E3,5.19E2,2.2453E4,1.60036E5,1E2,1.01E2,2.426E3,2.01E2,7.36E2,1.57E2,1.594E3,3.04E2,8.178E3,1.07E2,3.21E2,1.32E2,9.23E2,6.46E2,1.32E2,1.54E2,1.53639E5,6.397E3,6.06E2,1.3E2,1.27E2,1.467E3,1.99E2,1.05E2,7.09E3,1.088E3,1.67E2,1.54E2,5.21E2,1.25E2,1.47775E5,5.864E3,6.28E3,1.17E2,1.292E3,1.75E2,1.154E3,5.936E3,1.182E3,1.46593E5,1.97E2,9.57E2,5.399E3,5.37E2,6.7E2,2.87E2,1.61E2,5.238E3,2.89E2,2.48E2,1.29E2,1.58E2,5.041E3,1.97E2,1.48E2,1E2],"tree_param":{"num_deleted":"0","num_feature":"397","num_nodes":"321","size_leaf_vector":"1"}},{"base_weights":[7.696707E-5,-5.4183546E-3,5.2682334E-1,-7.534142E-3,2.6577044E-1,3.5362372E-1,7.1471024E-1,-8.499903E-3,4.530482E-1,3.9624342E-1,4.9609754E-2,5.9369785E-1,1.6281067E-1,7.367366E-1,2.127295E-2,5.812686E-2,-1.2648929E-2,6.978822E-3,5.744724E-1,2.0473036E-1,6.7830545E-1,1.5860128E-3,2.391132E-2,2.2888896E-1,7.1018195E-1,1.0755151E-1,5.5837E-2,7.685835E-1,3.4578405E-2,5.023597E-2,5.804791E-1,-1.8476568E-2,3.4606125E-2,2.8925475E-1,7.269453E-2,3.693825E-1,9.1742113E-4,7.320404E-1,3.898956E-2,3.518905E-2,3.5277922E-3,7.5033374E-2,4.3222312E-2,-1.3194707E-3,1.7267184E-1,7.8408396E-1,4.2364933E-2,1.5922289E-1,2.2231188E-2,3.1775475E-2,6.912106E-1,2.3367172E-2,-2.0169498E-2,2.8775193E-2,2.5321272E-1,4.3617945E-2,6.557749E-3,4.644264E-1,4.947307E-3,7.7209726E-2,5.0502826E-2,9.916043E-2,3.9159633E-2,5.881054E-2,8.03838E-2,1.1989572E-1,3.696652E-1,1.9826861E-2,3.5315678E-2,4.7837652E-2,7.9452716E-2,9.735757E-3,8.432466E-2,-2.0783322E-2,7.60586E-2,7.281066E-2,1.4475851E-2,2.0251884E-1,6.5058224E-2,3.3688852E-1,6.531504E-2,1.6773044E-1,2.5747134E-3,1.08977966E-1,5.3450514E-2,1.5174679E-2,4.308127E-1,1.7859336E-2,2.5463944E-2,3.843576E-2,-2.1680771E-5,6.426301E-2,1.9599153E-1,-2.1433236E-2,3.3192303E-2,1.330811E-1,-3.9873456E-4,3.867449E-2,1.2954508E-1,8.123655E-3,1.16965204E-1,1.6660206E-3,2.5765046E-1,4.3600816E-1,7.6152026E-3,2.548109E-2,1.3120755E-3,2.206482E-2,1.4127217E-1,5.334189E-2,3.019927E-1,2.4429655E-2,-2.3816586E-3,2.0169965E-3,9.784147E-3,8.5497186E-2,3.95985E-4,2.9305413E-1,4.892121E-3,-1.6408512E-2,-2.618407E-2,1.16400875E-1,8.7824774E-5,5.4614474E-3,2.5222385E-1,3.2704685E-2,2.260614E-1,1.1640793E-1,4.769832E-2,7.0330696E-3,2.4295963E-2,7.2003745E-2,8.012437E-2,7.708344E-2,3.223482E-1,2.5858885E-2,5.9865415E-2,6.909647E-4,1.6766435E-2,3.2637057E-1,1.1018504E-1,2.1813147E-2,4.118037E-2,7.7618626E-3,4.5376632E-2,1.09262E-1,7.04603E-4,3.8231578E-2,1.6952856E-2,-1.4771922E-3,-2.0304589E-2,-2.629704E-2,1.608696E-2,6.928859E-2,3.464457E-2,-8.803867E-4,1.989022E-2,1.6335507E-1,3.8878202E-2,2.754572E-2,2.0167608E-2,3.711642E-2,6.7838104E-3,1.5001164E-1,2.8328406E-2,5.919418E-3,1.6554372E-1,2.4229927E-2,2.4997668E-1,1.9198988E-2,-1.8706138E-3,3.7941602E-1,1.0902912E-2,1.1598169E-2,3.803898E-2,1.634994E-1,6.181968E-3,5.869628E-4,1.1939222E-2,3.0668309E-2,1.4247598E-1,8.736582E-3,2.5210915E-2,-4.3945005E-3,7.519568E-2,-2.0549279E-2,2.2242194E-2,-2.638994E-3,1.1111717E-2,4.1832775E-2,2.817282E-2,3.0783603E-2,4.1047367E-3,2.2186551E-2,1.6882217E-1,2.9026982E-1,1.23051524E-1,4.794766E-4,1.441818E-2,3.6794527E-3,7.3750116E-2,3.305552E-2,-1.0421609E-3,2.1314157E-2,-2.9853545E-4,1.314949E-1,4.1410804E-2,2.397983E-1,5.78745E-2,1.4229642E-1,2.6970318E-2,1.3858019E-1,2.6225999E-2,2.0730598E-1,1.9060288E-3,-7.5393557E-3,4.4352908E-2,6.03126E-2,6.7204284E-4,-2.187606E-3,-9.66856E-3,1.3378553E-2,1.570376E-3,1.0931385E-2,6.54078E-2,2.7929807E-2,4.960903E-3,1.733767E-1,6.263798E-2,4.9529742E-2,1.834849E-1,2.7554438E-2,-2.9319513E-3,2.2328187E-2,4.658563E-2,2.5576433E-2,5.425474E-3,4.1237823E-3,3.5494607E-2,1.1551398E-3,1.5932009E-1,4.009761E-3,2.1614563E-2,2.20215E-3,1.4896743E-2,2.5195843E-1,-6.411967E-4,-1.9453266E-3,-1.9427923E-3,9.75369E-2,5.7399966E-4,-1.4402182E-3,2.8184978E-2,5.229452E-5,8.2282074E-2,-1.6157454E-3,8.4580565E-3,9.321417E-3,2.7351484E-2,2.1357816E-2,2.7928834E-3,1.17925435E-1,3.194674E-1,4.1043643E-2,-1.9096542E-3,-3.92562E-3,1.8368592E-2,-2.1225137E-3,1.5948726E-1,8.371833E-3,1.9331628E-2,2.9784384E-1,8.942239E-3,-3.0535262E-3,1.2412947E-2,1.9551072E-2,6.0657426E-3,1.7352827E-2,1.2467763E-2,2.9937897E-2,3.5731595E-2,9.041032E-2,3.2007188E-2,4.2274603E-1,1.4547276E-2,3.146843E-2,1.3769802E-1,1.2424785E-3,-2.4999005E-3,3.655975E-2,-3.1591435E-3,2.2983883E-2,4.428529E-2,-4.4557647E-4,7.617215E-3,1.2964169E-4,1.5204543E-2,1.2970433E-2,-8.171483E-4,3.6351332E-3,1.5337874E-1,2.9123465E-2,5.719277E-2,2.4244578E-3,1.10867135E-1,1.7873839E-1,9.874458E-4,-1.79487E-3,4.636685E-2,1.8382123E-3,2.249367E-1,2.6663719E-2,5.0143874E-3,7.725801E-3,2.570746E-2,-3.0697014E-3,1.1900736E-2,3.7002945E-3,1.6634323E-1,3.600053E-2,1.1224399E-2,-5.0812564E-3,7.577127E-2,1.2666716E-2,-1.7169252E-3,-3.1443571E-3,2.5916219E-2,-6.5754855E-4,8.744123E-2,3.2578127E-3,1.8290943E-2,-4.552397E-4,2.2744494E-2],"categories":[],"categories_nodes":[],"categories_segments":[],"categories_sizes":[],"default_left":[1,0,0,1,0,0,0,0,0,0,0,0,1,1,0,0,1,0,0,1,1,0,0,0,0,0,0,0,0,1,0,0,1,0,0,0,0,0,0,0,0,0,0,0,0,0,0,1,1,0,0,0,1,0,0,0,0,0,0,0,0,1,0,0,0,0,0,0,0,0,0,0,0,0,0,0,0,0,0,0,0,0,0,0,0,0,0,0,0,0,0,1,0,0,1,0,0,1,1,0,1,0,0,0,0,0,0,0,0,0,1,0,0,0,0,1,0,0,0,0,1,0,1,0,0,0,0,1,0,1,0,0,0,0,0,0,0,0,0,0,0,0,0,0,0,0,0,0,0,0,1,1,0,1,0,0,0,0,0,1,0,0,0,0,0,1,0,0,0,0,0,0,0,0,0,0,0,0,0,0,0,0,0,0,0,0,0,0,0,0,0,0,0,0,0,0,1,0,0,0,0,0,0,0,0,0,0,0,0,0,0,0,0,1,0,1,0,0,0,0,1,0,0,1,0,0,0,0,0,0,0,0,1,0,0,0,0,0,0,0,0,0,0,0,0,0,0,1,0,0,0,0,0,0,0,0,0,0,0,0,0,0,0,0,0,0,0,0,0,0,0,0,0,1,0,0,0,0,0,0,0,0,0,1,0,1,0,0,0,0,0,0,0,0,0,0,0,0,0,0,1,0,0,0,0,0,0,0,0,0,0,0,0,0,0,0,0,0,0,0,0,0,0,0,0,0,0,0,0,0,0,0,0],"id":1,"left_children":[1,3,5,7,9,11,13,15,17,19,21,23,25,27,-1,29,31,-1,33,35,37,-1,-1,39,41,43,-1,45,-1,47,49,51,53,55,-1,57,-1,59,-1,-1,-1,-1,-1,-1,61,63,-1,65,67,-1,69,71,73,75,77,-1,-1,79,-1,-1,-1,81,-1,-1,-1,83,85,87,-1,-1,-1,89,91,93,95,97,99,101,-1,103,-1,105,-1,107,-1,-1,109,111,-1,113,-1,115,117,119,121,123,-1,125,127,129,131,-1,133,135,-1,-1,-1,137,139,-1,141,143,-1,-1,-1,145,-1,147,-1,149,151,153,155,-1,157,159,161,163,-1,165,-1,-1,167,169,171,-1,-1,-1,-1,173,175,-1,-1,177,179,181,-1,-1,-1,183,185,187,-1,189,-1,-1,-1,191,-1,193,-1,-1,-1,195,197,199,201,203,205,-1,-1,207,-1,-1,-1,209,-1,-1,-1,211,213,-1,-1,215,217,219,-1,-1,-1,221,-1,-1,-1,223,225,227,229,-1,-1,231,233,-1,-1,-1,-1,235,-1,237,-1,239,-1,241,243,245,-1,247,249,-1,-1,-1,251,-1,-1,253,255,-1,-1,257,-1,259,261,263,265,267,-1,-1,-1,-1,-1,-1,269,-1,-1,-1,-1,271,-1,273,-1,275,-1,-1,277,-1,279,-1,-1,-1,-1,-1,-1,281,283,285,-1,287,-1,-1,289,-1,-1,291,-1,293,-1,-1,-1,-1,295,-1,297,299,-1,301,-1,303,305,307,-1,-1,-1,-1,-1,-1,-1,-1,-1,-1,-1,-1,309,-1,-1,-1,311,313,-1,315,317,-1,319,-1,-1,-1,-1,321,-1,323,325,-1,-1,327,329,-1,-1,-1,-1,-1,331,-1,-1,-1,-1],"loss_changes":[1.3675784E3,2.6830365E2,1.5621228E2,2.0641544E2,1.0189874E2,1.162135E2,2.419519E1,1.2799814E2,4.478656E1,1.2047717E2,8.749728E0,4.6350708E1,3.0853527E1,2.5082153E1,0E0,1.1159116E2,1.2003835E2,0E0,2.9904404E1,4.369199E1,1.1217743E1,0E0,0E0,6.7344246E0,6.2545166E0,1.0048153E1,0E0,7.649658E0,0E0,8.1612816E1,9.527679E0,2.749176E1,6.092694E1,8.685759E0,0E0,2.2179047E1,0E0,2.9570923E0,0E0,0E0,0E0,0E0,0E0,0E0,1.2953159E1,2.8295898E0,0E0,4.4802216E1,1.6872623E1,0E0,2.2462158E0,1.253312E1,2.2044357E1,2.934694E1,2.3701538E1,0E0,0E0,1.1446991E1,0E0,0E0,0E0,3.1483388E0,0E0,0E0,0E0,2.0334938E1,1.0752594E1,9.726275E0,0E0,0E0,0E0,3.5265782E0,6.0503407E0,1.3007034E1,1.0804724E1,2.2078579E1,2.29114E1,1.1392384E1,0E0,8.946007E0,0E0,4.3556614E0,0E0,1.2641483E1,0E0,0E0,7.152466E0,5.75229E0,0E0,3.4297752E0,0E0,3.0083227E0,5.7807713E0,8.737061E0,1.2155844E1,1.2782192E1,0E0,7.9222727E0,1.901667E1,8.476248E0,4.505819E1,0E0,9.79829E0,5.8969345E0,0E0,0E0,0E0,2.713549E0,1.8571648E1,0E0,2.0209427E0,6.3274317E0,0E0,0E0,0E0,3.2344522E0,0E0,2.086338E0,0E0,1.0353893E1,4.019287E0,1.33724E1,5.6161213E0,0E0,5.9910316E0,5.9932933E0,4.7761526E0,1.2225868E1,0E0,5.8190784E0,0E0,0E0,1.842386E1,2.6775548E0,7.2557297E0,0E0,0E0,0E0,0E0,4.877655E0,7.2014313E0,0E0,0E0,2.1285357E0,1.1428783E1,3.9522371E0,0E0,0E0,0E0,8.2442875E0,8.429333E0,2.4305878E0,0E0,6.0356464E0,0E0,0E0,0E0,6.0231953E0,0E0,5.069348E0,0E0,0E0,0E0,1.0979385E1,3.1475918E0,4.9808655E0,6.712797E0,7.594898E0,8.809275E0,0E0,0E0,1.2332291E1,0E0,0E0,0E0,2.635933E0,0E0,0E0,0E0,3.3140283E0,8.393581E0,0E0,0E0,5.4459257E0,4.8798332E1,2.0337257E0,0E0,0E0,0E0,2.2518835E0,0E0,0E0,0E0,3.1597197E0,3.0881371E0,1.761554E1,1.1159229E1,0E0,0E0,5.01435E0,2.1026657E1,0E0,0E0,0E0,0E0,2.6832209E0,0E0,6.8728104E0,0E0,2.516737E0,0E0,2.0063744E0,3.4377422E0,6.6008472E0,0E0,2.2181625E0,4.415777E0,0E0,0E0,0E0,2.753643E0,0E0,0E0,3.8442655E0,2.1138916E0,0E0,0E0,2.6910734E0,0E0,4.036745E0,1.197937E1,4.342979E0,4.6214247E0,5.6312404E0,0E0,0E0,0E0,0E0,0E0,0E0,2.426323E0,0E0,0E0,0E0,0E0,3.992199E0,0E0,3.1747854E0,0E0,3.1513758E0,0E0,0E0,3.8823907E0,0E0,6.5528574E0,0E0,0E0,0E0,0E0,0E0,0E0,5.000163E0,7.3816376E0,4.905243E0,0E0,2.6970146E0,0E0,0E0,9.0555E0,0E0,0E0,3.331005E0,0E0,2.503882E0,0E0,0E0,0E0,0E0,2.419576E0,0E0,2.2962322E0,2.8410578E0,0E0,3.7099762E0,0E0,2.7709684E0,2.4951506E0,2.7274728E0,0E0,0E0,0E0,0E0,0E0,0E0,0E0,0E0,0E0,0E0,0E0,0E0,3.7260828E0,0E0,0E0,0E0,3.6876793E0,2.6791391E0,0E0,2.875645E0,6.418163E0,0E0,3.4621124E0,0E0,0E0,0E0,0E0,2.9321105E0,0E0,2.4237695E0,6.1213913E0,0E0,0E0,2.4961815E0,2.069123E0,0E0,0E0,0E0,0E0,0E0,3.706756E0,0E0,0E0,0E0,0E0],"parents":[2147483647,0,0,1,1,2,2,3,3,4,4,5,5,6,6,7,7,8,8,9,9,10,10,11,11,12,12,13,13,15,15,16,16,18,18,19,19,20,20,23,23,24,24,25,25,27,27,29,29,30,30,31,31,32,32,33,33,35,35,37,37,44,44,45,45,47,47,48,48,50,50,51,51,52,52,53,53,54,54,57,57,61,61,65,65,66,66,67,67,71,71,72,72,73,73,74,74,75,75,76,76,77,77,79,79,81,81,83,83,86,86,87,87,89,89,91,91,92,92,93,93,94,94,95,95,97,97,98,98,99,99,100,100,102,102,103,103,107,107,108,108,110,110,111,111,115,115,117,117,119,119,120,120,121,121,122,122,124,124,125,125,126,126,127,127,129,129,132,132,133,133,134,134,139,139,140,140,143,143,144,144,145,145,149,149,150,150,151,151,153,153,157,157,159,159,163,163,164,164,165,165,166,166,167,167,168,168,171,171,175,175,179,179,180,180,183,183,184,184,185,185,189,189,193,193,194,194,195,195,196,196,199,199,200,200,205,205,207,207,209,209,211,211,212,212,213,213,215,215,216,216,220,220,223,223,224,224,227,227,229,229,230,230,231,231,232,232,233,233,240,240,245,245,247,247,249,249,252,252,254,254,261,261,262,262,263,263,265,265,268,268,271,271,273,273,278,278,280,280,281,281,283,283,285,285,286,286,287,287,300,300,304,304,305,305,307,307,308,308,310,310,315,315,317,317,318,318,321,321,322,322,328,328],"right_children":[2,4,6,8,10,12,14,16,18,20,22,24,26,28,-1,30,32,-1,34,36,38,-1,-1,40,42,44,-1,46,-1,48,50,52,54,56,-1,58,-1,60,-1,-1,-1,-1,-1,-1,62,64,-1,66,68,-1,70,72,74,76,78,-1,-1,80,-1,-1,-1,82,-1,-1,-1,84,86,88,-1,-1,-1,90,92,94,96,98,100,102,-1,104,-1,106,-1,108,-1,-1,110,112,-1,114,-1,116,118,120,122,124,-1,126,128,130,132,-1,134,136,-1,-1,-1,138,140,-1,142,144,-1,-1,-1,146,-1,148,-1,150,152,154,156,-1,158,160,162,164,-1,166,-1,-1,168,170,172,-1,-1,-1,-1,174,176,-1,-1,178,180,182,-1,-1,-1,184,186,188,-1,190,-1,-1,-1,192,-1,194,-1,-1,-1,196,198,200,202,204,206,-1,-1,208,-1,-1,-1,210,-1,-1,-1,212,214,-1,-1,216,218,220,-1,-1,-1,222,-1,-1,-1,224,226,228,230,-1,-1,232,234,-1,-1,-1,-1,236,-1,238,-1,240,-1,242,244,246,-1,248,250,-1,-1,-1,252,-1,-1,254,256,-1,-1,258,-1,260,262,264,266,268,-1,-1,-1,-1,-1,-1,270,-1,-1,-1,-1,272,-1,274,-1,276,-1,-1,278,-1,280,-1,-1,-1,-1,-1,-1,282,284,286,-1,288,-1,-1,290,-1,-1,292,-1,294,-1,-1,-1,-1,296,-1,298,300,-1,302,-1,304,306,308,-1,-1,-1,-1,-1,-1,-1,-1,-1,-1,-1,-1,310,-1,-1,-1,312,314,-1,316,318,-1,320,-1,-1,-1,-1,322,-1,324,326,-1,-1,328,330,-1,-1,-1,-1,-1,332,-1,-1,-1,-1],"split_conditions":[3E0,4E0,3E0,2E0,2.5E1,1E0,5.61906E1,1E0,2E0,1.4E1,2E0,2E0,4E0,2.1E1,2.127295E-2,3E0,1E0,6.978822E-3,1E0,7E0,1.4E1,1.5860128E-3,2.391132E-2,1E0,2.0988E1,2E0,5.5837E-2,3E0,3.4578405E-2,6.8E1,2E0,4E0,3E0,1E0,7.269453E-2,4E0,9.1742113E-4,6.70667E1,3.898956E-2,3.518905E-2,3.5277922E-3,7.5033374E-2,4.3222312E-2,-1.3194707E-3,2E0,3.31102E1,4.2364933E-2,2E0,2E0,3.1775475E-2,4E0,1.71E2,2E0,1E0,1.7965E3,4.3617945E-2,6.557749E-3,7E0,4.947307E-3,7.7209726E-2,5.0502826E-2,2.22E2,3.9159633E-2,5.881054E-2,8.03838E-2,5.83E2,7.31E2,2E0,3.5315678E-2,4.7837652E-2,7.9452716E-2,1E0,1E0,4E0,5.9541664E1,9.2E1,2E0,3.347E1,6.5058224E-2,1E0,6.531504E-2,1.2668E4,2.5747134E-3,4.59E2,5.3450514E-2,1.5174679E-2,1E0,1E0,2.5463944E-2,2E0,-2.1680771E-5,2.8E1,4.5495E0,1E0,2.3E1,3E0,-3.9873456E-4,3E0,2E0,3E0,1.23E2,1.6660206E-3,1E0,2E0,7.6152026E-3,2.548109E-2,1.3120755E-3,2E0,3.4083332E1,5.334189E-2,2.08333E-1,1.2995E2,-2.3816586E-3,2.0169965E-3,9.784147E-3,1E0,3.95985E-4,9.364E3,4.892121E-3,1E0,1.62E2,6E0,4E0,5.4614474E-3,1.97E2,1E0,7.795E1,2.5E1,4.769832E-2,6.525E2,2.4295963E-2,7.2003745E-2,1E0,1.1233E4,2.95E2,2.5858885E-2,5.9865415E-2,6.909647E-4,1.6766435E-2,1.7E2,1E0,2.1813147E-2,4.118037E-2,3.371E2,1E0,7.6495E2,7.04603E-4,3.8231578E-2,1.6952856E-2,6E2,2.722E3,1.95E2,1.608696E-2,2E0,3.464457E-2,-8.803867E-4,1.989022E-2,1E0,3.8878202E-2,2.21E2,2.0167608E-2,3.711642E-2,6.7838104E-3,3.808E3,1E0,5.17E2,1.4E1,1E0,2E0,1.9198988E-2,-1.8706138E-3,7E0,1.0902912E-2,1.1598169E-2,3.803898E-2,2E0,6.181968E-3,5.869628E-4,1.1939222E-2,2.57E2,2E0,8.736582E-3,2.5210915E-2,4.45E2,2.45E1,4E0,2.2242194E-2,-2.638994E-3,1.1111717E-2,2E0,2.817282E-2,3.0783603E-2,4.1047367E-3,1E0,2E0,6E0,1E0,4.794766E-4,1.441818E-2,8E0,1.6657E4,3.305552E-2,-1.0421609E-3,2.1314157E-2,-2.9853545E-4,6.23E3,4.1410804E-2,2E0,5.78745E-2,1.63E2,2.6970318E-2,1E0,2E0,1.3904167E2,1.9060288E-3,8.5E1,1E1,6.03126E-2,6.7204284E-4,-2.187606E-3,6.3E1,1.3378553E-2,1.570376E-3,2E0,1E0,2.7929807E-2,4.960903E-3,3.405E2,6.263798E-2,1.84E2,2.585E2,1E0,3E0,1.2E1,4.658563E-2,2.5576433E-2,5.425474E-3,4.1237823E-3,3.5494607E-2,1.1551398E-3,4.37E2,4.009761E-3,2.1614563E-2,2.20215E-3,1.4896743E-2,1E0,-6.411967E-4,2E0,-1.9427923E-3,5E2,5.7399966E-4,-1.4402182E-3,9E1,5.229452E-5,3.01E2,-1.6157454E-3,8.4580565E-3,9.321417E-3,2.7351484E-2,2.1357816E-2,2.7928834E-3,2E0,1E0,2E0,-1.9096542E-3,5E0,1.8368592E-2,-2.1225137E-3,2.51E2,8.371833E-3,1.9331628E-2,2.26E2,8.942239E-3,2E0,1.2412947E-2,1.9551072E-2,6.0657426E-3,1.7352827E-2,4.84E2,2.9937897E-2,8E1,2E0,3.2007188E-2,1E0,1.4547276E-2,1E0,1E0,3.62E2,-2.4999005E-3,3.655975E-2,-3.1591435E-3,2.2983883E-2,4.428529E-2,-4.4557647E-4,7.617215E-3,1.2964169E-4,1.5204543E-2,1.2970433E-2,-8.171483E-4,3.6351332E-3,2E0,2.9123465E-2,5.719277E-2,2.4244578E-3,1E0,8.821E3,9.874458E-4,9E0,5E2,1.8382123E-3,2.95E1,2.6663719E-2,5.0143874E-3,7.725801E-3,2.570746E-2,3E0,1.1900736E-2,1E0,3.02E2,3.600053E-2,1.1224399E-2,5E0,1.02E2,1.2666716E-2,-1.7169252E-3,-3.1443571E-3,2.5916219E-2,-6.5754855E-4,2E0,3.2578127E-3,1.8290943E-2,-4.552397E-4,2.2744494E-2],"split_indices":[303,15,19,194,22,22,311,22,201,19,90,201,90,35,0,19,339,0,192,24,24,0,0,392,313,194,0,340,0,6,18,24,107,187,0,22,0,253,0,0,0,0,0,0,68,319,0,89,297,0,90,0,232,389,363,0,0,19,0,0,0,4,0,0,0,2,25,12,0,0,0,389,79,16,30,357,98,360,0,217,0,1,0,25,0,0,283,13,0,19,0,37,356,114,23,90,0,90,98,112,5,0,120,90,0,0,0,15,30,0,31,0,0,0,0,94,0,1,0,389,3,19,267,0,205,394,0,33,0,358,0,0,396,1,360,0,0,0,0,3,389,0,0,362,393,0,0,0,0,2,365,207,0,69,0,0,0,368,0,358,0,0,0,1,43,32,37,81,68,0,0,339,0,0,0,132,0,0,0,36,188,0,0,0,0,10,0,0,0,22,0,0,0,41,22,339,120,0,0,24,1,0,0,0,0,1,0,106,0,3,0,395,17,30,0,37,37,0,0,0,7,0,0,112,107,0,0,363,0,5,0,104,81,13,0,0,0,0,0,0,8,0,0,0,0,225,0,58,0,0,0,0,7,0,5,0,0,0,0,0,0,122,388,106,0,22,0,0,5,0,0,0,0,92,0,0,0,0,32,0,352,14,0,7,0,78,42,23,0,0,0,0,0,0,0,0,0,0,0,0,26,0,0,0,395,1,0,14,362,0,358,0,0,0,0,20,0,330,2,0,0,327,362,0,0,0,0,0,122,0,0,0,0],"split_type":[0,0,0,0,0,0,0,0,0,0,0,0,0,0,0,0,0,0,0,0,0,0,0,0,0,0,0,0,0,0,0,0,0,0,0,0,0,0,0,0,0,0,0,0,0,0,0,0,0,0,0,0,0,0,0,0,0,0,0,0,0,0,0,0,0,0,0,0,0,0,0,0,0,0,0,0,0,0,0,0,0,0,0,0,0,0,0,0,0,0,0,0,0,0,0,0,0,0,0,0,0,0,0,0,0,0,0,0,0,0,0,0,0,0,0,0,0,0,0,0,0,0,0,0,0,0,0,0,0,0,0,0,0,0,0,0,0,0,0,0,0,0,0,0,0,0,0,0,0,0,0,0,0,0,0,0,0,0,0,0,0,0,0,0,0,0,0,0,0,0,0,0,0,0,0,0,0,0,0,0,0,0,0,0,0,0,0,0,0,0,0,0,0,0,0,0,0,0,0,0,0,0,0,0,0,0,0,0,0,0,0,0,0,0,0,0,0,0,0,0,0,0,0,0,0,0,0,0,0,0,0,0,0,0,0,0,0,0,0,0,0,0,0,0,0,0,0,0,0,0,0,0,0,0,0,0,0,0,0,0,0,0,0,0,0,0,0,0,0,0,0,0,0,0,0,0,0,0,0,0,0,0,0,0,0,0,0,0,0,0,0,0,0,0,0,0,0,0,0,0,0,0,0,0,0,0,0,0,0,0,0,0,0,0,0,0,0,0,0,0,0,0,0,0,0,0,0,0,0,0,0,0,0],"sum_hessian":[4.72432E5,4.67564E5,4.868E3,4.63954E5,3.61E3,2.548E3,2.32E3,4.62993E5,9.61E2,2.246E3,1.364E3,1.119E3,1.429E3,2.218E3,1.02E2,2.7134E4,4.35859E5,2.35E2,7.26E2,1.348E3,8.98E2,1.167E3,1.97E2,2.78E2,8.41E2,1.265E3,1.64E2,2.042E3,1.76E2,2.6741E4,3.93E2,3.88014E5,4.7845E4,2.63E2,4.63E2,7.27E2,6.21E2,7.44E2,1.54E2,1.65E2,1.13E2,7.2E2,1.21E2,4.46E2,8.19E2,1.942E3,1E2,5.457E3,2.1284E4,1.28E2,2.65E2,1.5083E4,3.72931E5,4.6613E4,1.232E3,1.53E2,1.1E2,5.57E2,1.7E2,6.12E2,1.32E2,6.24E2,1.95E2,2.06E2,1.736E3,4.611E3,8.46E2,2.1141E4,1.43E2,1.05E2,1.6E2,1.2336E4,2.747E3,3.70575E5,2.356E3,1.1416E4,3.5197E4,1.106E3,1.26E2,3.49E2,2.08E2,3.16E2,3.08E2,4.505E3,1.06E2,1.93E2,6.53E2,2.0976E4,1.65E2,3.169E3,9.167E3,2.342E3,4.05E2,3.66172E5,4.403E3,1.372E3,9.84E2,7.138E3,4.278E3,3.3153E4,2.044E3,2.56E2,8.5E2,2.48E2,1.01E2,1.98E2,1.18E2,1.225E3,3.28E3,3.46E2,3.07E2,1.8123E4,2.853E3,2.434E3,7.35E2,1.729E3,6.13E2,2.38E2,1.67E2,1.77978E5,1.88194E5,1.246E3,3.157E3,8.36E2,5.36E2,6.929E3,2.09E2,4.135E3,1.43E2,3.301E4,1.43E2,1.07E2,1.937E3,2.3E2,6.2E2,1.31E2,1.17E2,1.119E3,1.06E2,4.58E2,2.822E3,1.91E2,1.16E2,1.01E4,8.023E3,1.324E3,4.05E2,1.26E2,1.12E2,3.6833E4,1.41145E5,1.88089E5,1.05E2,1.045E3,2.01E2,3.031E3,1.26E2,3.38E2,1.98E2,6.735E3,1.94E2,1.02E2,1.07E2,2.988E3,1.147E3,3.279E4,2.2E2,1.466E3,4.71E2,1E2,1.3E2,4.83E2,1.37E2,1E2,3.58E2,1.331E3,1.491E3,9.942E3,1.58E2,6.979E3,1.044E3,1.162E3,1.62E2,3.5492E4,1.341E3,1.41012E5,1.33E2,1.8797E5,1.19E2,9.36E2,1.09E2,1.48E2,1.9E2,6.5E3,2.35E2,4.66E2,2.522E3,9.62E2,1.85E2,3.1752E4,1.038E3,1.09E2,1.11E2,1.76E2,1.29E3,2.84E2,1.87E2,2.97E2,1.86E2,1.129E3,2.02E2,2.64E2,6.715E3,6.8E2,3.64E2,3.3349E4,2.143E3,1.45E2,1.196E3,1.25677E5,1.5335E4,1.98E2,7.38E2,5.167E3,1.333E3,1.15E2,1.2E2,3.57E2,1.09E2,1.146E3,1.376E3,6.879E3,2.4873E4,9.27E2,1.11E2,1E2,1.84E2,1.14E2,1.83E2,1.32E2,9.97E2,1.23E2,1.41E2,6.504E3,2.11E2,5.61E2,1.19E2,2.2686E4,1.0663E4,8.95E2,1.248E3,1.3636E4,1.699E3,4.518E3,6.49E2,2.54E2,1.079E3,2.09E2,1.48E2,1.23E2,1.023E3,9.41E2,4.35E2,5.337E3,1.542E3,2.4751E4,1.22E2,7.1E2,2.17E2,3.2E2,6.77E2,4.31E2,1.3E2,2.2498E4,1.88E2,2.33E2,6.62E2,1.56E2,1.543E3,1.05E2,5.44E2,8.41E2,1E2,2.64E2,1.71E2,4.868E3,4.69E2,1.9884E4,4.867E3,1E2,1.17E2,3.11E2,1.2E2,2.2116E4,3.82E2,1.438E3,1.05E2,1.67E2,3.77E2,4.61E2,3.8E2,1.56E2,1.08E2,4.474E3,3.94E2,3.52E2,1.17E2,1.8639E4,1.245E3,1.36E2,2.44E2,1.01E2,2.93E2,1.62E2,1.9E2,1.8454E4,1.85E2,9.26E2,3.19E2,1.01E2,1.43E2,1.8004E4,4.5E2,1.27E2,7.99E2,1.04E2,2.15E2,1.7727E4,2.77E2,3.3E2,1.2E2,1.73E2,1.04E2],"tree_param":{"num_deleted":"0","num_feature":"397","num_nodes":"333","size_leaf_vector":"1"}},{"base_weights":[1.3938155E-4,-4.1804207E-3,5.203371E-1,-6.332932E-3,2.719143E-1,6.2122834E-1,2.2482681E-1,-7.0974124E-3,4.7593662E-1,1.8969968E-1,5.050682E-1,6.692825E-1,1.7501248E-1,1.4185058E-1,5.7600714E-2,-1.2749315E-2,3.657681E-2,6.674005E-2,2.090421E-1,4.866055E-1,8.394343E-2,6.6601634E-1,2.8942809E-1,5.439842E-1,7.3449886E-1,-1.0647258E-4,3.3197004E-2,2.4657187E-1,-1.3108117E-3,4.9641643E-2,-1.6270332E-2,3.0966176E-2,2.8150612E-1,2.770447E-3,3.8205612E-2,3.7682262E-1,6.8927385E-2,3.318385E-1,5.0333403E-2,3.9745744E-2,7.192287E-2,4.0161884E-1,9.970102E-3,4.2784002E-1,6.8518646E-2,7.5454645E-2,4.067669E-2,9.1727406E-2,3.7060523E-1,3.96125E-2,3.7887767E-1,-1.7655686E-2,5.8761273E-2,2.6120406E-2,2.2722796E-1,4.0610647E-1,6.454709E-2,4.6492394E-2,1.5814053E-2,1.7349921E-2,4.9023744E-2,3.140996E-2,2.3531897E-2,2.4550758E-2,5.8598842E-2,5.27638E-1,1.944871E-2,2.1278102E-2,-2.606387E-3,5.112197E-2,1.25338305E-2,1.4034832E-1,1.536765E-2,6.4293675E-2,2.544474E-1,-1.8767197E-2,1.6348483E-2,3.4172204E-1,3.675278E-2,2.2103949E-2,1.8402965E-1,1.18295E-1,6.135372E-1,1.8692668E-1,7.0073895E-2,1.4655778E-2,-8.7170926E-4,6.464556E-2,-7.715832E-4,6.1536033E-2,3.573699E-2,1.1277992E-1,3.277656E-1,1.3230232E-2,3.4023818E-2,1.447029E-1,5.5399876E-2,-1.4139332E-2,-2.3189683E-2,5.577015E-3,6.6644736E-3,1.3455236E-1,6.78514E-2,2.8538097E-2,3.1976912E-2,1.01568386E-1,1.6899787E-2,9.7953364E-2,4.7314373E-1,2.276327E-1,-1.1352827E-3,3.5930723E-2,7.605982E-2,1.0721135E-3,3.1256908E-1,1.1957104E-1,1.1786417E-3,1.0077358E-1,4.867303E-2,3.991457E-1,1.8540347E-2,4.1966338E-2,1.503545E-3,3.1406842E-3,2.1677631E-1,3.6986428E-4,-1.7941896E-2,-2.3436192E-2,1.1046001E-1,3.565765E-2,-6.582355E-4,2.4412474E-2,3.3842248E-3,2.3480793E-2,3.0965058E-2,5.674274E-2,8.281657E-2,4.2068306E-2,9.940198E-3,2.512501E-1,3.3849686E-2,7.225248E-2,9.4138915E-3,3.7665587E-2,1.5439592E-1,1.3591366E-2,4.953594E-2,2.0531673E-2,2.7973955E-3,1.5753785E-1,5.109726E-2,5.177E-2,2.9415086E-2,6.8742506E-2,1.5021082E-2,-6.21893E-4,1.0568434E-2,5.882534E-3,3.564563E-2,-1.261038E-3,1.9260333E-1,-1.8160125E-3,2.0173514E-2,-2.3637988E-2,7.293392E-2,-1.8832705E-4,2.961393E-2,1.1253164E-3,7.606943E-3,1.3515545E-3,6.719825E-2,4.1804794E-2,1.7909603E-1,3.152017E-2,1.3868965E-1,3.7997542E-3,4.6349294E-2,7.837712E-3,4.582503E-2,1.4585657E-4,1.8523892E-2,-1.2670214E-3,2.9221207E-2,2.9084034E-4,1.7637E-1,3.344324E-3,1.8443398E-2,8.97423E-3,-2.9480638E-4,1.1420867E-2,3.3002938E-4,1.0847604E-3,-1.9471975E-3,-3.8798999E-3,6.782384E-2,4.438595E-2,1.1717554E-3,-2.3731373E-3,1.0549892E-2,2.0096397E-2,1.3596705E-3,3.917295E-2,-2.4644677E-3,5.0169952E-2,3.3834092E-2,3.2842092E-3,1.7995737E-2,1.2836386E-1,3.6236536E-2,1.8803837E-2,7.8443855E-2,2.0623319E-1,3.1181397E-2,4.931622E-2,-1.06555526E-4,3.9316446E-2,3.5195336E-2,3.6979463E-2,1.4469793E-1,2.4057324E-3,-1.6872047E-3,4.9540777E-2,5.5464883E-5,2.4077544E-2,2.1457817E-2,2.5416201E-2,2.8853832E-2,2.1624893E-1,-1.6167256E-3,1.5160334E-2,1.979356E-2,5.916031E-2,3.4163762E-2,1.03245266E-1,2.8836686E-2,1.8517595E-2,-2.9898593E-3,2.879964E-3,1.4881247E-1,-1.2431901E-3,2.0294568E-2,-2.0949359E-3,5.2007746E-2,2.5231418E-1,1.1977052E-2,1.0438195E-3,7.492404E-3,1.3480296E-3,1.5331763E-2,-8.8409113E-4,7.228975E-2,3.3066523E-1,3.5153222E-3,2.4689995E-2,-1.9918093E-3,7.7483E-2,-3.557518E-3,1.8616244E-2,6.8724075E-5,8.390624E-2,2.9308602E-2,-3.4427012E-3,7.1617976E-2,8.829796E-2,2.3855643E-2,1.3253944E-2,3.5859805E-2,-4.6491634E-5,6.5944837E-3,3.712672E-2,2.6153235E-2,1.6981205E-2,4.741738E-2,7.394703E-3,6.5935396E-2,1.0021034E-1,-5.22922E-4,1.8437317E-2,1.6221026E-3,2.8903566E-3,-1.9208522E-3,-3.0429097E-5,2.9515604E-2,6.4251974E-2,3.9748553E-2,6.737997E-4,1.1320639E-1,1.076412E-1,-2.054827E-3,-2.3842831E-4,6.41713E-2,8.711843E-2,-1.5734511E-3,1.08849E-3,1.2688966E-1,-4.4697258E-4,2.1000162E-2,4.196216E-2,2.0746395E-1,4.5532263E-3,2.5998695E-2,2.1150815E-3,2.4813415E-2,1.2185683E-1,-3.3743847E-3,2.7844193E-3,1.2865733E-1,9.88107E-2,2.3166917E-2,2.9273544E-2,-2.3512861E-3,-1.5478921E-3,6.954368E-2,2.8985015E-3,3.4149483E-2,2.2628494E-3,2.5876552E-2,1.5557544E-1,-3.120793E-3,1.4241368E-1,-1.3444138E-3,2.4039051E-3,1.2976864E-1,4.6902396E-2,2.4972074E-2,1.8494E-1,1.9393066E-3,2.1705874E-3,2.1651652E-1,3.1331282E-3,2.2474593E-2,-3.150982E-3,8.124043E-2,1.2131914E-1,3.435326E-2,6.7403936E-3,3.277367E-2,1.1233605E-1,-3.4531557E-3,3.3956082E-3,2.0191187E-2,4.332834E-3,1.9187812E-2],"categories":[],"categories_nodes":[],"categories_segments":[],"categories_sizes":[],"default_left":[1,1,0,1,0,1,0,0,0,0,0,0,1,0,0,0,0,0,0,0,0,0,0,0,0,0,0,0,0,0,0,1,0,0,0,1,0,0,1,0,0,0,0,0,0,0,0,0,0,1,0,1,0,1,0,0,1,0,0,0,0,1,0,0,0,0,0,0,0,0,0,1,1,0,0,0,0,0,1,1,0,0,1,0,0,0,0,0,0,0,0,0,1,0,0,0,0,0,0,0,0,0,0,1,0,0,0,1,0,0,0,0,0,0,0,0,0,0,0,0,0,0,0,0,0,1,0,1,0,0,0,0,0,0,0,0,1,1,1,0,0,0,0,0,0,0,0,0,0,0,0,0,0,1,0,0,0,0,0,0,0,0,0,1,0,0,0,0,0,0,1,0,0,0,0,0,1,0,0,0,0,0,0,0,0,0,0,0,0,0,0,0,0,1,0,0,0,0,0,0,0,0,0,0,0,0,0,0,0,0,0,0,0,0,1,0,0,0,1,1,0,0,0,0,0,1,0,0,0,1,0,0,0,1,0,0,0,0,1,1,0,0,0,0,0,0,0,0,0,0,0,0,0,0,0,0,0,0,0,0,0,0,0,0,0,0,0,0,0,0,0,0,0,1,0,0,0,0,0,0,0,0,0,0,0,0,0,0,0,0,0,0,0,0,0,0,0,1,1,0,0,0,0,0,0,0,1,0,0,0,0,0,1,0,0,0,0,0,0,0,0,0,1,0,0,0,0,0,0,0,0,0,0,0,0,0,0,0,0,0,0,0,0],"id":2,"left_children":[1,3,5,7,9,11,13,15,17,19,21,23,25,27,-1,29,31,-1,33,35,37,39,41,43,45,-1,-1,47,-1,49,51,53,55,-1,-1,57,-1,59,61,-1,-1,63,-1,65,-1,-1,-1,67,69,71,73,75,77,79,81,83,85,-1,-1,-1,-1,87,-1,-1,-1,89,-1,-1,-1,-1,-1,91,93,-1,95,97,99,101,103,105,107,109,111,113,-1,-1,-1,115,-1,-1,-1,117,119,121,-1,123,-1,125,127,129,-1,131,-1,133,-1,135,137,139,141,143,-1,-1,-1,-1,145,147,-1,149,-1,151,-1,153,155,-1,157,159,161,163,165,167,-1,-1,-1,169,-1,-1,171,173,175,177,179,-1,-1,-1,181,-1,-1,-1,-1,183,185,-1,-1,187,189,191,-1,-1,-1,193,195,-1,-1,197,199,-1,-1,-1,-1,201,203,205,207,209,211,213,215,-1,-1,-1,-1,-1,-1,-1,217,-1,-1,-1,-1,-1,-1,-1,-1,219,221,-1,-1,-1,-1,-1,-1,223,-1,225,-1,-1,-1,227,-1,229,231,233,235,237,239,241,-1,-1,243,245,-1,-1,-1,247,-1,249,-1,251,-1,253,-1,255,-1,257,-1,-1,-1,-1,259,261,-1,-1,263,265,-1,267,-1,-1,-1,-1,269,271,-1,273,-1,275,-1,-1,-1,277,-1,279,281,283,285,-1,-1,-1,-1,287,-1,-1,-1,289,291,293,-1,-1,-1,295,-1,-1,-1,297,-1,-1,299,301,-1,-1,303,305,-1,-1,307,-1,309,311,313,-1,-1,-1,-1,315,-1,-1,317,319,-1,321,-1,-1,323,-1,-1,-1,-1,325,-1,327,-1,-1,329,331,-1,333,-1,-1,335,-1,-1,-1,337,339,-1,-1,-1,341,-1,-1,-1,-1,-1],"loss_changes":[1.0616704E3,2.7848163E2,1.14611084E2,1.7145267E2,6.852826E1,6.0904785E1,2.849739E1,1.1459387E2,3.621495E1,8.424499E1,3.066211E1,1.7332031E1,8.156346E0,1.3452444E1,0E0,9.030428E1,7.301251E1,0E0,9.996565E0,1.3110825E1,1.649649E1,4.7154236E0,8.518253E0,1.2353119E1,8.021301E0,0E0,0E0,9.147757E0,0E0,7.236084E1,4.0454033E1,4.9408016E1,3.1907349E1,0E0,0E0,8.512527E0,0E0,5.093584E0,6.1325865E0,0E0,0E0,6.0447197E0,0E0,1.1502838E1,0E0,0E0,0E0,3.3778195E0,8.705517E0,5.2053684E1,1.9655365E1,1.4442665E1,4.3815926E1,3.2160744E1,5.196064E1,4.738157E1,2.692542E0,0E0,0E0,0E0,0E0,2.1115859E0,0E0,0E0,0E0,3.34227E0,0E0,0E0,0E0,0E0,0E0,2.099504E1,1.1896315E1,0E0,1.4221817E1,7.568405E0,6.5505495E0,3.4531773E1,1.5155368E1,2.0463276E1,3.0842964E1,1.4045306E1,7.4738464E0,9.840432E0,0E0,0E0,0E0,2.532113E0,0E0,0E0,0E0,1.5762497E1,4.594921E0,5.760029E0,0E0,2.7735581E0,0E0,9.975414E0,6.2578735E0,3.6508193E0,0E0,3.5258431E0,0E0,9.003241E0,0E0,2.610408E1,8.139477E0,9.564951E0,2.6351578E1,5.2792683E0,0E0,0E0,0E0,0E0,7.722372E0,3.311954E0,0E0,9.845333E0,0E0,2.7218132E0,0E0,3.56394E0,2.691251E0,0E0,4.4455185E0,1.1776447E1,6.9044876E0,3.6892014E0,7.306515E0,2.824875E0,0E0,0E0,0E0,6.076512E0,0E0,0E0,1.1518194E1,1.0217339E1,8.143716E0,9.946842E0,3.4494796E0,0E0,0E0,0E0,8.717228E0,0E0,0E0,0E0,0E0,4.76474E0,4.3919525E0,0E0,0E0,3.7392626E0,2.8816965E0,2.5787954E0,0E0,0E0,0E0,6.741861E0,1.4309767E1,0E0,0E0,2.2973862E0,2.9886634E0,0E0,0E0,0E0,0E0,4.1204705E0,9.576945E0,2.506491E0,7.6609974E0,5.4092274E0,7.1100426E0,5.545145E0,1.1160321E1,0E0,0E0,0E0,0E0,0E0,0E0,0E0,8.409107E0,0E0,0E0,0E0,0E0,0E0,0E0,0E0,0E0,2.9319751E0,3.9144E1,0E0,0E0,0E0,0E0,0E0,0E0,4.4681516E0,0E0,1.1715885E1,0E0,0E0,0E0,8.926451E0,0E0,4.646351E0,9.618607E0,4.8198338E0,3.7519174E0,4.989004E0,6.6337595E0,3.9498796E0,0E0,0E0,3.10738E0,2.389495E0,0E0,0E0,0E0,2.147392E0,0E0,2.9304667E0,0E0,8.917812E0,0E0,2.3559475E0,0E0,3.1780572E0,0E0,2.4138062E0,0E0,0E0,0E0,0E0,3.6777039E0,4.5829864E0,0E0,0E0,4.328082E0,2.4526443E0,0E0,2.3274372E0,0E0,0E0,0E0,0E0,5.0267467E0,5.3350925E0,0E0,3.9435232E0,0E0,2.870099E0,0E0,0E0,0E0,2.0305314E0,0E0,2.7716773E0,1.3473729E1,1.3543448E1,3.679935E0,0E0,0E0,0E0,0E0,2.7103536E0,0E0,0E0,0E0,2.1729858E0,2.8405542E0,2.8364258E0,0E0,0E0,0E0,2.6412735E0,0E0,0E0,0E0,5.448163E0,0E0,0E0,3.7257886E0,3.5807526E0,0E0,0E0,3.2888844E0,3.1625566E0,0E0,0E0,2.4778175E0,0E0,2.1156158E0,2.4078295E0,5.4269285E0,0E0,0E0,0E0,0E0,4.886467E0,0E0,0E0,3.3233414E0,3.655867E0,0E0,2.5111604E0,0E0,0E0,4.060223E0,0E0,0E0,0E0,0E0,2.5754395E0,0E0,4.7474117E0,0E0,0E0,2.1453712E0,2.5081034E0,0E0,4.9913597E0,0E0,0E0,5.268505E0,0E0,0E0,0E0,2.357192E0,2.7336884E0,0E0,0E0,0E0,2.71626E0,0E0,0E0,0E0,0E0,0E0],"parents":[2147483647,0,0,1,1,2,2,3,3,4,4,5,5,6,6,7,7,8,8,9,9,10,10,11,11,12,12,13,13,15,15,16,16,18,18,19,19,20,20,21,21,22,22,23,23,24,24,27,27,29,29,30,30,31,31,32,32,35,35,37,37,38,38,41,41,43,43,47,47,48,48,49,49,50,50,51,51,52,52,53,53,54,54,55,55,56,56,61,61,65,65,71,71,72,72,74,74,75,75,76,76,77,77,78,78,79,79,80,80,81,81,82,82,83,83,87,87,91,91,92,92,93,93,95,95,97,97,98,98,99,99,101,101,103,103,105,105,106,106,107,107,108,108,109,109,114,114,115,115,117,117,119,119,121,121,122,122,124,124,125,125,126,126,127,127,128,128,129,129,133,133,136,136,137,137,138,138,139,139,140,140,144,144,149,149,150,150,153,153,154,154,155,155,159,159,160,160,163,163,164,164,169,169,170,170,171,171,172,172,173,173,174,174,175,175,176,176,184,184,193,193,194,194,201,201,203,203,207,207,209,209,210,210,211,211,212,212,213,213,214,214,215,215,218,218,219,219,223,223,225,225,227,227,229,229,231,231,233,233,238,238,239,239,242,242,243,243,245,245,250,250,251,251,253,253,255,255,259,259,261,261,262,262,263,263,264,264,269,269,273,273,274,274,275,275,279,279,283,283,286,286,287,287,290,290,291,291,294,294,296,296,297,297,298,298,303,303,306,306,307,307,309,309,312,312,317,317,319,319,322,322,323,323,325,325,328,328,332,332,333,333,337,337],"right_children":[2,4,6,8,10,12,14,16,18,20,22,24,26,28,-1,30,32,-1,34,36,38,40,42,44,46,-1,-1,48,-1,50,52,54,56,-1,-1,58,-1,60,62,-1,-1,64,-1,66,-1,-1,-1,68,70,72,74,76,78,80,82,84,86,-1,-1,-1,-1,88,-1,-1,-1,90,-1,-1,-1,-1,-1,92,94,-1,96,98,100,102,104,106,108,110,112,114,-1,-1,-1,116,-1,-1,-1,118,120,122,-1,124,-1,126,128,130,-1,132,-1,134,-1,136,138,140,142,144,-1,-1,-1,-1,146,148,-1,150,-1,152,-1,154,156,-1,158,160,162,164,166,168,-1,-1,-1,170,-1,-1,172,174,176,178,180,-1,-1,-1,182,-1,-1,-1,-1,184,186,-1,-1,188,190,192,-1,-1,-1,194,196,-1,-1,198,200,-1,-1,-1,-1,202,204,206,208,210,212,214,216,-1,-1,-1,-1,-1,-1,-1,218,-1,-1,-1,-1,-1,-1,-1,-1,220,222,-1,-1,-1,-1,-1,-1,224,-1,226,-1,-1,-1,228,-1,230,232,234,236,238,240,242,-1,-1,244,246,-1,-1,-1,248,-1,250,-1,252,-1,254,-1,256,-1,258,-1,-1,-1,-1,260,262,-1,-1,264,266,-1,268,-1,-1,-1,-1,270,272,-1,274,-1,276,-1,-1,-1,278,-1,280,282,284,286,-1,-1,-1,-1,288,-1,-1,-1,290,292,294,-1,-1,-1,296,-1,-1,-1,298,-1,-1,300,302,-1,-1,304,306,-1,-1,308,-1,310,312,314,-1,-1,-1,-1,316,-1,-1,318,320,-1,322,-1,-1,324,-1,-1,-1,-1,326,-1,328,-1,-1,330,332,-1,334,-1,-1,336,-1,-1,-1,338,340,-1,-1,-1,342,-1,-1,-1,-1,-1],"split_conditions":[3E0,2E0,1E0,4E0,3E0,2E0,6E0,1E0,5E1,1E0,1E0,4E0,1E0,7.62564E1,5.7600714E-2,1E0,4E0,6.674005E-2,4E0,2E0,2E0,1.03922E1,8E0,3E0,1E0,-1.0647258E-4,3.3197004E-2,3.0996E1,-1.3108117E-3,2E0,4E0,3E0,2.6E1,2.770447E-3,3.8205612E-2,2E0,6.8927385E-2,2.50139E1,2E0,3.9745744E-2,7.192287E-2,6E0,9.970102E-3,3E0,6.8518646E-2,7.5454645E-2,4.067669E-2,1.80052E1,5.12E2,8.6E1,1E0,1E0,3E0,2E0,1.1E1,1.1E1,5.41363E1,4.6492394E-2,1.5814053E-2,1.7349921E-2,4.9023744E-2,2E0,2.3531897E-2,2.4550758E-2,5.8598842E-2,1.1077E1,1.944871E-2,2.1278102E-2,-2.606387E-3,5.112197E-2,1.25338305E-2,2E0,2E0,6.4293675E-2,3E0,1E0,2.159E2,5E0,2E0,1.11E2,5E0,6E0,4.9E2,2E0,7.0073895E-2,1.4655778E-2,-8.7170926E-4,2E0,-7.715832E-4,6.1536033E-2,3.573699E-2,5.79E2,1E0,8E1,3.4023818E-2,2E0,5.5399876E-2,1E0,4E0,2E0,6.6644736E-3,2E0,6.78514E-2,9.063E0,3.1976912E-2,1.27E2,1E0,1E0,6E0,2E0,-1.1352827E-3,3.5930723E-2,7.605982E-2,1.0721135E-3,5E0,1E0,1.1786417E-3,1E0,4.867303E-2,2E0,1.8540347E-2,1E0,1E0,3.1406842E-3,5E0,3.5E2,2.722E3,1.5E2,1E0,1E0,-6.582355E-4,2.4412474E-2,3.3842248E-3,2E0,3.0965058E-2,5.674274E-2,9.2E1,2.01E2,5E0,2E0,1.83E2,7.225248E-2,9.4138915E-3,3.7665587E-2,2E0,1.3591366E-2,4.953594E-2,2.0531673E-2,2.7973955E-3,7.31E2,2E0,5.177E-2,2.9415086E-2,8.5083336E1,2.57E2,1E0,1.0568434E-2,5.882534E-3,3.564563E-2,6E2,6E0,-1.8160125E-3,2.0173514E-2,2E0,6.23E3,-1.8832705E-4,2.961393E-2,1.1253164E-3,7.606943E-3,2.03E2,8.44672E1,1E0,1E0,1E0,2.4E1,1E0,5.7E2,7.837712E-3,4.582503E-2,1.4585657E-4,1.8523892E-2,-1.2670214E-3,2.9221207E-2,2.9084034E-4,3.0666666E1,3.344324E-3,1.8443398E-2,8.97423E-3,-2.9480638E-4,1.1420867E-2,3.3002938E-4,1.0847604E-3,-1.9471975E-3,7.9E1,1E0,4.438595E-2,1.1717554E-3,-2.3731373E-3,1.0549892E-2,2.0096397E-2,1.3596705E-3,2E0,-2.4644677E-3,6E0,3.3834092E-2,3.2842092E-3,1.7995737E-2,3.538E2,3.6236536E-2,1E0,1.1E1,4.45E2,2.5755E2,2E0,5E1,3.166E3,3.5195336E-2,3.6979463E-2,1E0,2E0,-1.6872047E-3,4.9540777E-2,5.5464883E-5,2E0,2.1457817E-2,1E0,2.8853832E-2,4E1,-1.6167256E-3,7.6E1,1.979356E-2,2.7E1,3.4163762E-2,4E0,2.8836686E-2,1.8517595E-2,-2.9898593E-3,2.879964E-3,3.15E2,5.29E2,2.0294568E-2,-2.0949359E-3,1.0112E4,1E0,1.1977052E-2,1.51E2,7.492404E-3,1.3480296E-3,1.5331763E-2,-8.8409113E-4,7E0,2.9E2,3.5153222E-3,2E0,-1.9918093E-3,1.4608E4,-3.557518E-3,1.8616244E-2,6.8724075E-5,3E0,2.9308602E-2,5E0,5E0,9.803E3,1.7188E4,1.3253944E-2,3.5859805E-2,-4.6491634E-5,6.5944837E-3,9.708E3,2.6153235E-2,1.6981205E-2,4.741738E-2,1E0,5E0,2.04E2,-5.22922E-4,1.8437317E-2,1.6221026E-3,2.63E2,-1.9208522E-3,-3.0429097E-5,2.9515604E-2,1E0,3.9748553E-2,6.737997E-4,8E0,7.638E3,-2.054827E-3,-2.3842831E-4,3.37E2,1E0,-1.5734511E-3,1.08849E-3,1.0509E4,-4.4697258E-4,2.1E1,2.15E2,2E0,4.5532263E-3,2.5998695E-2,2.1150815E-3,2.4813415E-2,2.34E2,-3.3743847E-3,2.7844193E-3,1.85394E1,7.919E3,2.3166917E-2,1E0,-2.3512861E-3,-1.5478921E-3,2E0,2.8985015E-3,3.4149483E-2,2.2628494E-3,2.5876552E-2,6E0,-3.120793E-3,1E0,-1.3444138E-3,2.4039051E-3,3.9E2,5.4E1,2.4972074E-2,3E0,1.9393066E-3,2.1705874E-3,5.14E2,3.1331282E-3,2.2474593E-2,-3.150982E-3,1E1,2E0,3.435326E-2,6.7403936E-3,3.277367E-2,1E0,-3.4531557E-3,3.3956082E-3,2.0191187E-2,4.332834E-3,1.9187812E-2],"split_indices":[302,234,268,90,12,367,304,339,254,22,220,302,229,312,0,22,12,0,10,240,368,257,21,288,214,0,0,312,0,18,16,107,21,0,0,262,0,316,68,0,0,19,0,262,0,0,0,315,2,6,368,326,21,57,328,19,248,0,0,0,0,262,0,0,0,321,0,0,0,0,0,132,294,0,19,114,353,19,203,4,17,21,2,328,0,0,0,21,0,0,0,2,282,211,0,90,0,389,18,21,0,21,0,178,0,2,389,80,10,101,0,0,0,0,19,389,0,389,0,262,0,392,387,0,185,358,365,316,327,27,0,0,0,132,0,0,360,358,328,326,360,0,0,0,19,0,0,0,0,25,98,0,0,30,36,114,0,0,0,2,37,0,0,194,1,0,0,0,0,34,255,389,119,41,32,22,2,0,0,0,0,0,0,0,30,0,0,0,0,0,0,0,0,37,34,0,0,0,0,0,0,90,0,15,0,0,0,359,0,387,10,363,358,19,205,1,0,0,106,92,0,0,0,112,0,266,0,26,0,37,0,21,0,26,0,0,0,0,5,32,0,0,1,15,0,176,0,0,0,0,19,362,0,19,0,1,0,0,0,277,0,330,339,1,1,0,0,0,0,1,0,0,0,80,328,5,0,0,0,353,0,0,0,345,0,0,328,1,0,0,5,395,0,0,1,0,21,2,32,0,0,0,0,178,0,0,254,1,0,43,0,0,92,0,0,0,0,21,0,98,0,0,2,358,0,19,0,0,2,0,0,0,328,293,0,0,0,41,0,0,0,0,0],"split_type":[0,0,0,0,0,0,0,0,0,0,0,0,0,0,0,0,0,0,0,0,0,0,0,0,0,0,0,0,0,0,0,0,0,0,0,0,0,0,0,0,0,0,0,0,0,0,0,0,0,0,0,0,0,0,0,0,0,0,0,0,0,0,0,0,0,0,0,0,0,0,0,0,0,0,0,0,0,0,0,0,0,0,0,0,0,0,0,0,0,0,0,0,0,0,0,0,0,0,0,0,0,0,0,0,0,0,0,0,0,0,0,0,0,0,0,0,0,0,0,0,0,0,0,0,0,0,0,0,0,0,0,0,0,0,0,0,0,0,0,0,0,0,0,0,0,0,0,0,0,0,0,0,0,0,0,0,0,0,0,0,0,0,0,0,0,0,0,0,0,0,0,0,0,0,0,0,0,0,0,0,0,0,0,0,0,0,0,0,0,0,0,0,0,0,0,0,0,0,0,0,0,0,0,0,0,0,0,0,0,0,0,0,0,0,0,0,0,0,0,0,0,0,0,0,0,0,0,0,0,0,0,0,0,0,0,0,0,0,0,0,0,0,0,0,0,0,0,0,0,0,0,0,0,0,0,0,0,0,0,0,0,0,0,0,0,0,0,0,0,0,0,0,0,0,0,0,0,0,0,0,0,0,0,0,0,0,0,0,0,0,0,0,0,0,0,0,0,0,0,0,0,0,0,0,0,0,0,0,0,0,0,0,0,0,0,0,0,0,0,0,0,0,0,0,0,0,0,0,0,0,0,0,0,0,0,0,0,0,0,0,0,0,0],"sum_hessian":[4.72432E5,4.68551E5,3.881E3,4.64936E5,3.615E3,2.885E3,9.96E2,4.6421E5,7.26E2,2.686E3,9.29E2,2.6E3,2.85E2,8.17E2,1.79E2,4.11026E5,5.3184E4,4.14E2,3.12E2,6.96E2,1.99E3,5.2E2,4.09E2,9.22E2,1.678E3,1.39E2,1.46E2,4.84E2,3.33E2,2.195E4,3.89076E5,5.2004E4,1.18E3,1.58E2,1.54E2,4.7E2,2.26E2,2.27E2,1.763E3,1E2,4.2E2,2.5E2,1.59E2,5.28E2,3.94E2,1.569E3,1.09E2,2.23E2,2.61E2,2.1312E4,6.38E2,3.8203E5,7.046E3,5.0762E4,1.242E3,7.44E2,4.36E2,3.27E2,1.43E2,1.24E2,1.03E2,1.61E3,1.53E2,1.48E2,1.02E2,3.61E2,1.67E2,1.06E2,1.17E2,1.59E2,1.02E2,4.125E3,1.7187E4,1.91E2,4.47E2,3.69942E5,1.2088E4,4.98E2,6.548E3,4.9514E4,1.248E3,9.79E2,2.63E2,4.36E2,3.08E2,2.01E2,2.35E2,8.67E2,7.43E2,2.21E2,1.4E2,3.61E3,5.15E2,1.7085E4,1.02E2,3.38E2,1.09E2,1.80794E5,1.89148E5,9.965E3,2.123E3,3.17E2,1.81E2,6.374E3,1.74E2,3.032E3,4.6482E4,9.72E2,2.76E2,5.27E2,4.52E2,1.09E2,1.54E2,1.86E2,2.5E2,4.19E2,4.48E2,3.51E3,1E2,3.31E2,1.84E2,4.944E3,1.2141E4,1.37E2,2.01E2,3.7545E4,1.43249E5,1.88808E5,3.4E2,2.863E3,7.102E3,1.45E2,1.72E2,6.272E3,1.02E2,1.06E2,2.926E3,1.0058E4,3.6424E4,2.78E2,6.94E2,1.61E2,1.15E2,1.6E2,3.67E2,1.36E2,1.14E2,2.1E2,2.09E2,1.628E3,1.882E3,1.37E2,1.94E2,2.472E3,2.472E3,1.1908E4,2.33E2,1.01E2,1E2,3.7239E4,3.06E2,1.43116E5,1.33E2,1.88421E5,3.87E2,2.18E2,1.22E2,1.793E3,1.07E3,4.171E3,2.101E3,2.062E3,8.64E2,9.08E3,9.78E2,3.1177E4,5.247E3,1.59E2,1.19E2,5.8E2,1.14E2,1.7E2,1.97E2,1.78E2,1.45E3,1.673E3,2.09E2,1.91E3,5.62E2,2.52E2,2.22E3,7.406E3,4.502E3,3.5888E4,1.351E3,1.22E2,1.84E2,1.88293E5,1.28E2,1.15E2,2.72E2,1.697E3,2.474E3,1.988E3,1.13E2,1.948E3,1.14E2,6.9E2,1.74E2,7.155E3,1.925E3,5.95E2,3.83E2,2.455E3,2.8722E4,5.14E3,1.07E2,1.89E2,1.261E3,2.4192E4,1.1696E4,1.75E2,1.176E3,1.573E3,1.24E2,1.811E3,1.77E2,4.26E2,2.64E2,7.023E3,1.32E2,1.805E3,1.2E2,2.74E2,3.21E2,1.03E2,2.8E2,2.046E3,4.09E2,2.8572E4,1.5E2,8.93E2,4.247E3,2.2E2,1.041E3,2.3756E4,4.36E2,1.464E3,1.09E2,1.051E3,7.6E2,2.56E2,1.7E2,5.525E3,1.498E3,1.514E3,2.91E2,1.47E2,1.27E2,2.93E2,1.16E2,2.7744E4,8.28E2,1.846E3,2.401E3,1.14E2,1.06E2,2.3226E4,5.3E2,6.51E2,1.09E2,1.31E2,1.25E2,3.901E3,1.624E3,1.186E3,3.28E2,1.11E2,1.82E2,1.9799E4,7.945E3,6.34E2,1.94E2,1.724E3,1.22E2,2.024E3,3.77E2,2.89E2,3.62E2,3.336E3,5.65E2,1.289E3,3.35E2,2.76E2,9.1E2,1.4083E4,5.716E3,1.503E3,2.21E2,2.67E2,1.1E2,1.86E2,1.03E2,3.54E2,2.11E2,5.38E2,7.51E2,7.33E2,1.77E2,4.823E3,8.93E2,4.89E2,1.014E3,1E2,1.21E2,2.12E2,1.42E2,6.43E2,1.08E2,5.26E2,2.07E2,4.596E3,2.27E2,9.12E2,1.02E2,5.26E2,1.17E2,2.05E2,3.21E2,1.18E2,1.09E2,2.78E2,6.34E2,3.88E2,1.38E2,1.44E2,1.77E2,5E2,1.34E2,1.93E2,1.95E2,2.76E2,2.24E2],"tree_param":{"num_deleted":"0","num_feature":"397","num_nodes":"343","size_leaf_vector":"1"}},{"base_weights":[1.944077E-4,-4.2924206E-3,4.3027276E-1,-5.974355E-3,2.2048368E-1,2.449667E-1,6.0397637E-1,-6.77371E-3,3.7536523E-1,3.3862233E-1,3.754387E-2,4.5639017E-1,9.976747E-2,6.249099E-1,2.7061416E-2,-1.1605422E-2,3.0655432E-2,4.5536393E-3,4.800587E-1,4.94991E-1,5.3392816E-2,1.9589458E-2,2.3426903E-2,5.4945713E-1,1.3866311E-1,6.2714465E-2,3.037433E-1,6.531762E-1,3.1785977E-1,4.6758343E-2,-1.4926718E-2,2.6295803E-2,2.0381787E-1,2.322166E-1,6.1295576E-2,2.8396106E-1,6.1309546E-1,-6.8895165E-3,3.1090844E-2,4.837905E-4,1.6732568E-2,3.2952134E-2,5.93741E-2,-6.960296E-4,2.8742436E-2,-6.8179314E-4,1.534464E-1,4.2132325E-2,1.5694378E-2,6.6407524E-2,3.9585173E-2,4.9850088E-2,9.881828E-3,3.7107605E-2,4.0914264E-1,-1.5366036E-2,1.0152763E-1,2.2785347E-2,1.6666417E-1,1.09653525E-1,5.4886717E-1,3.552938E-2,4.568537E-3,6.0079046E-2,1.0922586E-1,3.788934E-2,6.408481E-2,-3.743004E-3,1.3008365E-2,2.0534018E-1,-2.122376E-3,1.264194E-1,1.4279089E-2,9.0352995E-3,5.473912E-1,1.875276E-2,-1.6739106E-2,6.558968E-2,2.762137E-1,5.5966858E-2,1.07183205E-2,8.8894606E-2,4.2695358E-1,2.8486398E-1,5.620597E-2,3.263959E-2,6.745283E-2,2.473609E-2,-6.7699514E-4,1.1953939E-2,4.1875467E-2,1.9148432E-1,6.3887924E-2,1.2194643E-2,2.704469E-2,6.037813E-2,3.4998942E-2,6.8465634E-3,7.153812E-2,-1.686791E-2,2.9513428E-2,3.7420973E-2,2.8635738E-2,1.2214256E-2,3.9793264E-2,4.6087842E-2,1.374217E-1,5.723864E-3,6.1663803E-2,2.2798836E-1,3.0729914E-2,6.544977E-2,8.425863E-3,1.7076189E-2,3.969812E-2,1.5161425E-1,-1.4820643E-3,4.8819683E-2,1.670132E-1,4.2219125E-2,2.2591087E-1,3.9044343E-2,1.0608499E-3,-3.0012291E-3,2.9586721E-2,4.5517306E-3,1.3832061E-1,-1.7480053E-2,1.3235576E-2,-3.994457E-3,6.2913634E-3,2.9899517E-2,1.0284149E-1,1.0041836E-1,5.744153E-2,2.0596758E-4,3.9719768E-2,4.06726E-2,2.996396E-1,7.1003176E-3,4.159776E-2,2.8242334E-4,1.7642915E-2,2.5199232E-1,-2.868931E-3,1.3351199E-1,3.3310434E-1,1.2649593E-1,2.3279449E-3,3.1036133E-2,9.213648E-3,1.7172488E-3,7.3122546E-2,-9.974146E-4,1.0366877E-2,-7.955187E-4,6.173477E-3,1.5479098E-2,2.4219105E-2,1.0330123E-2,2.7210418E-2,-1.3395686E-2,-2.1283437E-2,-2.1890302E-3,1.2168275E-1,1.7421018E-2,8.260539E-2,8.637067E-2,2.9690338E-2,1.3653764E-1,2.7029737E-4,-2.97708E-3,4.9335543E-2,3.2423027E-2,3.3072937E-2,8.922574E-2,-5.752909E-4,4.749352E-2,1.1564863E-2,9.9108955E-3,3.932966E-2,-5.942111E-4,1.5331163E-1,4.0561967E-2,1.7165985E-2,5.4408493E-3,2.5673717E-2,3.267097E-2,2.1951135E-1,-9.571686E-4,2.070095E-3,1.8330604E-3,1.2102577E-2,-1.3284674E-3,-1.6518584E-2,-2.1435935E-3,1.4316223E-2,-4.9344846E-4,1.3933412E-2,4.485277E-1,-3.919002E-5,1.0644879E-2,1.2225617E-1,4.9391035E-2,2.3694952E-1,2.1411204E-1,6.680533E-2,-1.8110605E-3,1.6928789E-1,4.4835843E-2,-5.461996E-3,3.0273924E-2,3.279616E-2,6.448162E-2,1.5744407E-3,4.7925394E-3,1.6071092E-1,3.241503E-2,1.2124881E-1,1.5182304E-2,1.8604503E-3,2.647172E-2,7.155978E-3,-3.779822E-3,6.207581E-2,-1.6722059E-3,1.8297235E-2,2.3622183E-2,6.249742E-2,2.0847525E-2,-2.5600079E-3,2.3136158E-1,-3.0603416E-3,9.360946E-2,-2.2342177E-3,5.2224666E-2,4.1823374E-4,4.6124548E-2,-2.6916183E-4,9.982309E-4,1.0518491E-1,1.1812085E-3,2.1198377E-1,7.605107E-2,-5.023595E-4,-9.158281E-3,2.170055E-2,6.3210875E-2,-1.0762764E-3,4.020196E-2,1.5347885E-1,1.509533E-2,-5.928026E-4,2.4605498E-1,4.836518E-3,1.3827588E-1,-1.8515762E-4,-6.9090165E-4,3.6743034E-2,5.067243E-2,4.124749E-4,1.455237E-2,1.3743831E-1,2.6796225E-3,4.448124E-2,5.5747297E-2,2.0542292E-1,7.657241E-2,3.132351E-2,8.913587E-3,2.639297E-1,3.3980818E-3,1.7157617E-1,1.8272415E-3,-1.2632033E-3,-2.1485433E-3,5.6807406E-2,4.1812845E-3,1.9541323E-2,-1.3112406E-3,7.667156E-2,2.4108835E-1,-4.9522384E-3,1.344646E-2,4.289729E-2,2.9031355E-2,1.1026639E-2,2.564213E-3,2.0267656E-2,1.0708481E-3,1.9469598E-2,3.0626718E-2,-6.678048E-4,2.3896375E-3,2.2470122E-2,3.58846E-2,4.656905E-3,1.6245333E-2,2.4172422E-2,1.785993E-1,3.529988E-2,4.829597E-3,2.5002027E-2,3.347169E-2,3.1115962E-2,5.3010292E-2,2.5799502E-2,8.3773555E-3,3.5553057E-2,-6.973993E-4,1.4320137E-2,2.6079735E-2,5.623582E-3,1.5667732E-1,1.379848E-3,1.7885702E-3,1.4292237E-1,3.0304657E-3,2.7244592E-2,1.2284198E-3,2.386039E-2],"categories":[],"categories_nodes":[],"categories_segments":[],"categories_sizes":[],"default_left":[1,0,0,1,0,0,1,1,0,1,0,1,1,0,0,0,1,0,0,0,0,1,0,0,0,0,0,0,0,0,1,1,0,0,0,0,1,0,0,0,0,0,0,0,0,0,0,0,0,0,0,0,0,1,0,0,0,0,0,0,1,0,0,0,0,0,0,0,0,0,0,0,1,0,1,0,1,0,0,1,0,1,0,1,1,0,0,0,0,0,0,1,0,0,0,0,0,0,0,0,0,1,0,0,0,1,1,0,0,0,0,0,0,0,0,0,0,0,1,0,0,0,0,0,0,0,0,0,0,0,0,0,0,0,0,0,1,0,0,0,0,0,0,0,0,0,1,0,0,0,0,0,0,0,0,0,0,0,1,0,0,0,0,1,0,0,0,0,0,0,0,0,1,0,0,0,0,0,0,0,0,0,0,0,0,0,0,0,1,0,0,0,0,0,1,0,0,0,0,0,0,1,0,1,0,0,1,0,1,0,1,1,0,0,0,0,0,0,0,0,0,0,0,0,0,0,0,0,0,0,0,0,0,0,0,0,0,0,0,0,0,0,0,0,0,0,0,0,0,0,0,0,0,1,0,1,0,0,0,0,0,0,0,0,0,0,0,0,0,0,1,0,0,0,0,0,0,0,0,0,0,0,0,0,0,0,0,0,0,0,0,0,0,0,0,0,0,0,1,0,0,0,0,0,0,1,0,0,0,0,0,0,0,1,0,0,0,0,0,0,0],"id":3,"left_children":[1,3,5,7,9,11,13,15,17,19,21,23,25,27,-1,29,31,-1,33,35,37,39,-1,41,43,45,47,49,51,53,55,57,59,61,-1,63,65,67,-1,-1,-1,-1,-1,-1,-1,-1,69,-1,-1,-1,-1,-1,-1,71,73,75,77,79,81,83,85,-1,-1,-1,87,-1,-1,-1,-1,89,-1,91,93,-1,95,97,99,101,103,105,107,109,111,113,115,-1,-1,-1,-1,-1,-1,117,119,121,-1,-1,-1,123,125,127,-1,129,-1,-1,-1,131,133,135,137,139,141,-1,-1,-1,-1,143,-1,-1,145,147,149,151,153,155,157,-1,159,161,163,-1,-1,165,167,169,-1,171,173,175,177,-1,-1,-1,-1,179,-1,181,183,185,-1,-1,-1,-1,187,189,-1,-1,-1,-1,191,-1,-1,193,195,197,199,201,203,205,-1,207,-1,209,211,213,-1,215,-1,-1,-1,-1,-1,-1,217,-1,-1,-1,-1,219,221,-1,-1,-1,-1,223,225,-1,-1,-1,-1,227,-1,229,231,233,235,237,239,-1,241,243,245,247,-1,249,251,-1,253,-1,255,-1,-1,-1,-1,257,259,-1,-1,-1,-1,261,-1,263,-1,265,-1,-1,-1,-1,-1,-1,267,-1,269,271,-1,273,275,277,-1,279,281,-1,-1,283,-1,285,-1,-1,287,-1,-1,289,291,-1,-1,293,295,297,-1,-1,299,-1,301,-1,-1,-1,303,-1,-1,-1,305,307,-1,-1,-1,-1,-1,-1,-1,-1,-1,-1,-1,-1,-1,-1,-1,-1,309,311,-1,-1,-1,313,-1,315,-1,-1,-1,-1,-1,-1,-1,317,-1,-1,319,-1,-1,-1,-1],"loss_changes":[9.116839E2,1.7678362E2,1.5553528E2,1.4149829E2,7.4932236E1,7.2515076E1,1.5831665E1,8.376277E1,3.3310913E1,9.379912E1,4.807193E0,2.7773056E1,1.0556868E1,1.8363342E1,0E0,7.952246E1,3.9923397E1,0E0,2.2818619E1,3.2180054E1,1.1788341E1,2.759665E0,0E0,5.2800293E0,5.045849E0,7.681973E0,3.067068E0,3.3926392E0,8.13319E0,7.70995E1,1.9872368E1,2.5420818E1,4.16044E1,6.1051455E0,0E0,2.7411926E1,3.187622E0,2.6590273E0,0E0,0E0,0E0,0E0,0E0,0E0,0E0,0E0,4.829528E0,0E0,0E0,0E0,0E0,0E0,0E0,4.387239E1,2.4714706E1,1.8117928E1,8.984508E0,2.0181078E1,2.5105885E1,9.513491E0,5.514221E0,0E0,0E0,0E0,5.4485707E0,0E0,0E0,0E0,0E0,6.9703636E0,0E0,1.7702225E1,9.127775E0,0E0,2.3060455E0,9.39957E0,1.4982178E1,7.5045805E0,4.127285E0,1.0754166E1,9.406864E0,7.8746576E0,2.182827E1,2.379589E0,5.4707975E0,0E0,0E0,0E0,0E0,0E0,0E0,1.4737465E1,7.8005066E0,5.0899196E0,0E0,0E0,0E0,2.7376628E0,4.7210236E0,6.8496094E0,0E0,2.188692E0,0E0,0E0,0E0,1.0997883E1,2.2853828E1,6.320249E0,1.6367935E1,8.203962E0,2.857366E0,0E0,0E0,0E0,0E0,6.2981853E0,0E0,0E0,1.0650394E1,3.1565185E0,2.685236E0,3.7075028E0,2.545291E0,2.7427223E0,2.4450579E0,0E0,3.3123217E0,5.6544266E0,1.2399451E1,0E0,0E0,6.137644E0,8.245874E0,4.753954E0,0E0,4.536227E0,9.883463E0,6.86888E0,8.029991E0,0E0,0E0,0E0,0E0,4.4060907E0,0E0,4.6367836E0,3.143673E0,3.277822E0,0E0,0E0,0E0,0E0,1.146367E1,2.2010646E0,0E0,0E0,0E0,0E0,2.0037587E0,0E0,0E0,6.618309E0,4.759308E0,2.5316427E0,3.682898E1,5.3688064E0,9.049043E0,6.0202427E0,0E0,5.014391E0,0E0,3.2392197E0,9.27474E0,4.5492015E0,0E0,4.319048E0,0E0,0E0,0E0,0E0,0E0,0E0,7.648037E0,0E0,0E0,0E0,0E0,2.5495174E0,2.619648E0,0E0,0E0,0E0,0E0,5.616035E0,5.693962E0,0E0,0E0,0E0,0E0,7.9262924E0,0E0,2.6408622E0,7.7259192E0,4.728058E0,2.0830212E1,1.7318573E1,4.6848574E0,0E0,5.441221E0,2.100256E0,2.6029625E0,2.2545528E0,0E0,4.813113E0,2.64822E0,0E0,5.0681267E0,0E0,2.6268005E0,0E0,0E0,0E0,0E0,4.4131584E0,3.4636856E1,0E0,0E0,0E0,0E0,4.065938E0,0E0,1.16265955E1,0E0,3.780302E0,0E0,0E0,0E0,0E0,0E0,0E0,7.403592E0,0E0,3.8424892E0,3.2732534E0,0E0,2.1758149E0,4.721287E0,2.5321681E0,0E0,3.4826694E0,8.656113E0,0E0,0E0,5.6488056E0,0E0,4.364229E0,0E0,0E0,4.5438495E0,0E0,0E0,3.644301E0,6.9304566E0,0E0,0E0,3.7186234E0,5.4140425E0,5.0999126E0,0E0,0E0,2.7440815E0,0E0,2.3065724E0,0E0,0E0,0E0,1.0081153E1,0E0,0E0,0E0,4.419581E0,5.7693233E0,0E0,0E0,0E0,0E0,0E0,0E0,0E0,0E0,0E0,0E0,0E0,0E0,0E0,0E0,0E0,0E0,2.6829681E0,2.337675E0,0E0,0E0,0E0,3.8153362E0,0E0,2.980972E0,0E0,0E0,0E0,0E0,0E0,0E0,0E0,3.092143E0,0E0,0E0,3.2956E0,0E0,0E0,0E0,0E0],"parents":[2147483647,0,0,1,1,2,2,3,3,4,4,5,5,6,6,7,7,8,8,9,9,10,10,11,11,12,12,13,13,15,15,16,16,18,18,19,19,20,20,21,21,23,23,24,24,25,25,26,26,27,27,28,28,29,29,30,30,31,31,32,32,33,33,35,35,36,36,37,37,46,46,53,53,54,54,55,55,56,56,57,57,58,58,59,59,60,60,64,64,69,69,71,71,72,72,74,74,75,75,76,76,77,77,78,78,79,79,80,80,81,81,82,82,83,83,84,84,91,91,92,92,93,93,97,97,98,98,99,99,101,101,105,105,106,106,107,107,108,108,109,109,110,110,115,115,118,118,119,119,120,120,121,121,122,122,123,123,124,124,126,126,127,127,128,128,131,131,132,132,133,133,135,135,136,136,137,137,138,138,143,143,145,145,146,146,147,147,152,152,153,153,158,158,161,161,162,162,163,163,164,164,165,165,166,166,167,167,169,169,171,171,172,172,173,173,175,175,182,182,187,187,188,188,193,193,194,194,199,199,201,201,202,202,203,203,204,204,205,205,206,206,208,208,209,209,210,210,211,211,213,213,214,214,216,216,218,218,223,223,224,224,229,229,231,231,233,233,240,240,242,242,243,243,245,245,246,246,247,247,249,249,250,250,253,253,255,255,258,258,261,261,262,262,265,265,266,266,267,267,270,270,272,272,276,276,280,280,281,281,298,298,299,299,303,303,305,305,313,313,316,316],"right_children":[2,4,6,8,10,12,14,16,18,20,22,24,26,28,-1,30,32,-1,34,36,38,40,-1,42,44,46,48,50,52,54,56,58,60,62,-1,64,66,68,-1,-1,-1,-1,-1,-1,-1,-1,70,-1,-1,-1,-1,-1,-1,72,74,76,78,80,82,84,86,-1,-1,-1,88,-1,-1,-1,-1,90,-1,92,94,-1,96,98,100,102,104,106,108,110,112,114,116,-1,-1,-1,-1,-1,-1,118,120,122,-1,-1,-1,124,126,128,-1,130,-1,-1,-1,132,134,136,138,140,142,-1,-1,-1,-1,144,-1,-1,146,148,150,152,154,156,158,-1,160,162,164,-1,-1,166,168,170,-1,172,174,176,178,-1,-1,-1,-1,180,-1,182,184,186,-1,-1,-1,-1,188,190,-1,-1,-1,-1,192,-1,-1,194,196,198,200,202,204,206,-1,208,-1,210,212,214,-1,216,-1,-1,-1,-1,-1,-1,218,-1,-1,-1,-1,220,222,-1,-1,-1,-1,224,226,-1,-1,-1,-1,228,-1,230,232,234,236,238,240,-1,242,244,246,248,-1,250,252,-1,254,-1,256,-1,-1,-1,-1,258,260,-1,-1,-1,-1,262,-1,264,-1,266,-1,-1,-1,-1,-1,-1,268,-1,270,272,-1,274,276,278,-1,280,282,-1,-1,284,-1,286,-1,-1,288,-1,-1,290,292,-1,-1,294,296,298,-1,-1,300,-1,302,-1,-1,-1,304,-1,-1,-1,306,308,-1,-1,-1,-1,-1,-1,-1,-1,-1,-1,-1,-1,-1,-1,-1,-1,310,312,-1,-1,-1,314,-1,316,-1,-1,-1,-1,-1,-1,-1,318,-1,-1,320,-1,-1,-1,-1],"split_conditions":[3E0,6E0,5E0,2E0,2.5E1,1E0,2.7E1,1E0,2E0,1.2E1,3E0,5E1,3E0,1.30592E1,2.7061416E-2,1E0,3E0,4.5536393E-3,1E0,1.4E1,2.2E1,2E0,2.3426903E-2,3E0,1E0,1.79E2,2.77932E1,1.7E1,3.65E1,3E0,2E0,2E0,1.1E1,5E0,6.1295576E-2,2E0,1E0,9E0,3.1090844E-2,4.837905E-4,1.6732568E-2,3.2952134E-2,5.93741E-2,-6.960296E-4,2.8742436E-2,-6.8179314E-4,7.62564E1,4.2132325E-2,1.5694378E-2,6.6407524E-2,3.9585173E-2,4.9850088E-2,9.881828E-3,8.6E1,1E0,4E0,2E0,1E0,5E0,1E0,4.9E2,3.552938E-2,4.568537E-3,6.0079046E-2,4E0,3.788934E-2,6.408481E-2,-3.743004E-3,1.3008365E-2,4E0,-2.122376E-3,1E0,2E0,9.0352995E-3,1.1E1,1.71E2,3E0,5E0,1E0,2E0,2E0,1E0,6E0,3.38E2,8E0,3.263959E-2,6.745283E-2,2.473609E-2,-6.7699514E-4,1.1953939E-2,4.1875467E-2,1.04E2,2E0,8E1,2.704469E-2,6.037813E-2,3.4998942E-2,7.595E1,1E0,3E0,2.9513428E-2,1.85E2,2.8635738E-2,1.2214256E-2,3.9793264E-2,8.8E1,1.33E2,5E0,4E0,2E0,6.2985E2,6.544977E-2,8.425863E-3,1.7076189E-2,3.969812E-2,3E0,-1.4820643E-3,4.8819683E-2,2E0,1.81E2,1.7E1,1.2995E2,1E0,2E0,1.26882E1,4.5517306E-3,2E0,1E0,7E0,-3.994457E-3,6.2913634E-3,1E0,1E0,2.4E1,5.744153E-2,3.9E2,5.7E2,2.25E2,2E0,7.1003176E-3,4.159776E-2,2.8242334E-4,1.7642915E-2,3.01E2,-2.868931E-3,7.31E2,1.95761E1,2E0,2.3279449E-3,3.1036133E-2,9.213648E-3,1.7172488E-3,1E0,1E0,1.0366877E-2,-7.955187E-4,6.173477E-3,1.5479098E-2,5.83E2,1.0330123E-2,2.7210418E-2,1E0,4E0,5E1,6E0,5E0,4E0,1.7E2,2.9690338E-2,1E0,2.7029737E-4,1E0,4.41E2,3.15E2,3.3072937E-2,2.06E2,-5.752909E-4,4.749352E-2,1.1564863E-2,9.9108955E-3,3.932966E-2,-5.942111E-4,3.0666666E1,4.0561967E-2,1.7165985E-2,5.4408493E-3,2.5673717E-2,1E0,3.1791666E1,-9.571686E-4,2.070095E-3,1.8330604E-3,1.2102577E-2,6E2,2.722E3,-2.1435935E-3,1.4316223E-2,-4.9344846E-4,1.3933412E-2,4.2298E1,-3.919002E-5,6.7E1,3.9644E0,1.42E2,3.37E2,5.2E2,2.64E2,-1.8110605E-3,1.76E2,1.2209E4,3.78E2,2.6E1,3.279616E-2,2E0,1E0,4.7925394E-3,4.6E2,3.241503E-2,5.5E2,1.5182304E-2,1.8604503E-3,2.647172E-2,7.155978E-3,3.9E2,2.45E1,-1.6722059E-3,1.8297235E-2,2.3622183E-2,6.249742E-2,4E0,-2.5600079E-3,4E0,-3.0603416E-3,3E0,-2.2342177E-3,5.2224666E-2,4.1823374E-4,4.6124548E-2,-2.6916183E-4,9.982309E-4,4E0,1.1812085E-3,1E0,1E0,-5.023595E-4,3E0,9.5E3,3.5007E3,-1.0762764E-3,2.04E2,3.23E2,1.509533E-2,-5.928026E-4,1E0,4.836518E-3,1E0,-1.8515762E-4,-6.9090165E-4,1E0,5.067243E-2,4.124749E-4,5.358E2,3E0,2.6796225E-3,4.448124E-2,6E1,7.795E1,1E1,3.132351E-2,8.913587E-3,1E0,3.3980818E-3,4.967E3,1.8272415E-3,-1.2632033E-3,-2.1485433E-3,9E0,4.1812845E-3,1.9541323E-2,-1.3112406E-3,1.4685E3,1.0023E4,-4.9522384E-3,1.344646E-2,4.289729E-2,2.9031355E-2,1.1026639E-2,2.564213E-3,2.0267656E-2,1.0708481E-3,1.9469598E-2,3.0626718E-2,-6.678048E-4,2.3896375E-3,2.2470122E-2,3.58846E-2,4.656905E-3,1.6245333E-2,5.55E2,1.5E1,3.529988E-2,4.829597E-3,2.5002027E-2,9.633E3,3.1115962E-2,2E0,2.5799502E-2,8.3773555E-3,3.5553057E-2,-6.973993E-4,1.4320137E-2,2.6079735E-2,5.623582E-3,3.85E2,1.379848E-3,1.7885702E-3,8.691E3,3.0304657E-3,2.7244592E-2,1.2284198E-3,2.386039E-2],"split_indices":[303,20,9,194,22,22,35,339,201,24,83,377,234,250,0,22,107,0,192,9,19,131,0,302,283,3,250,22,0,9,234,57,328,207,0,22,68,9,0,0,0,0,0,0,0,0,312,0,0,0,0,0,0,6,125,24,104,389,17,389,2,0,0,0,22,0,0,0,0,303,0,389,299,0,28,0,307,9,395,107,111,80,10,2,37,0,0,0,0,0,0,2,98,211,0,0,0,0,97,16,0,3,0,0,0,360,24,328,16,326,351,0,0,0,0,106,0,0,131,2,26,0,387,20,311,0,19,115,9,0,0,41,387,32,0,0,2,4,335,0,0,0,0,5,0,25,322,303,0,0,0,0,393,41,0,0,0,0,2,0,0,389,18,204,22,18,17,5,0,24,0,22,24,5,0,353,0,0,0,0,0,0,30,0,0,0,0,36,30,0,0,0,0,2,365,0,0,0,0,0,0,37,252,37,26,2,5,0,2,1,32,24,0,99,111,0,2,0,2,0,0,0,0,0,0,0,0,0,0,9,0,82,0,9,0,0,0,0,0,0,10,0,395,20,0,24,1,352,0,5,360,0,0,24,0,106,0,0,387,0,0,355,22,0,0,32,0,32,0,0,97,0,1,0,0,0,339,0,0,0,353,1,0,0,0,0,0,0,0,0,0,0,0,0,0,0,0,0,2,24,0,0,0,1,0,326,0,0,0,0,0,0,0,26,0,0,1,0,0,0,0],"split_type":[0,0,0,0,0,0,0,0,0,0,0,0,0,0,0,0,0,0,0,0,0,0,0,0,0,0,0,0,0,0,0,0,0,0,0,0,0,0,0,0,0,0,0,0,0,0,0,0,0,0,0,0,0,0,0,0,0,0,0,0,0,0,0,0,0,0,0,0,0,0,0,0,0,0,0,0,0,0,0,0,0,0,0,0,0,0,0,0,0,0,0,0,0,0,0,0,0,0,0,0,0,0,0,0,0,0,0,0,0,0,0,0,0,0,0,0,0,0,0,0,0,0,0,0,0,0,0,0,0,0,0,0,0,0,0,0,0,0,0,0,0,0,0,0,0,0,0,0,0,0,0,0,0,0,0,0,0,0,0,0,0,0,0,0,0,0,0,0,0,0,0,0,0,0,0,0,0,0,0,0,0,0,0,0,0,0,0,0,0,0,0,0,0,0,0,0,0,0,0,0,0,0,0,0,0,0,0,0,0,0,0,0,0,0,0,0,0,0,0,0,0,0,0,0,0,0,0,0,0,0,0,0,0,0,0,0,0,0,0,0,0,0,0,0,0,0,0,0,0,0,0,0,0,0,0,0,0,0,0,0,0,0,0,0,0,0,0,0,0,0,0,0,0,0,0,0,0,0,0,0,0,0,0,0,0,0,0,0,0,0,0,0,0,0,0,0,0,0,0,0,0,0,0,0,0,0,0,0,0,0,0,0,0,0,0,0,0,0,0,0,0],"sum_hessian":[4.72432E5,4.67564E5,4.868E3,4.64101E5,3.463E3,2.367E3,2.501E3,4.6314E5,9.61E2,2.099E3,1.364E3,9.55E2,1.412E3,2.345E3,1.56E2,4.10195E5,5.2945E4,2.35E2,7.26E2,1.351E3,7.48E2,1.26E3,1.04E2,7.33E2,2.22E2,1.206E3,2.06E2,2.137E3,2.08E2,2.2079E4,3.88116E5,5.1656E4,1.289E3,2.63E2,4.63E2,4.97E2,8.54E2,6.14E2,1.34E2,1.155E3,1.05E2,1.37E2,5.96E2,1.17E2,1.05E2,6.88E2,5.18E2,1.04E2,1.02E2,2.035E3,1.02E2,1.07E2,1.01E2,2.1517E4,5.62E2,3.86666E5,1.45E3,5.0407E4,1.249E3,1.023E3,2.66E2,1.53E2,1.1E2,1.68E2,3.29E2,1.06E2,7.48E2,5.08E2,1.06E2,3.98E2,1.2E2,4.371E3,1.7146E4,1.75E2,3.87E2,1.4954E4,3.71712E5,1.214E3,2.36E2,1.3433E4,3.6974E4,9.72E2,2.77E2,2.29E2,7.94E2,1.09E2,1.57E2,1.45E2,1.84E2,2.95E2,1.03E2,2.132E3,2.239E3,1.7018E4,1.28E2,2.85E2,1.02E2,1.2211E4,2.743E3,3.71568E5,1.44E2,1.087E3,1.27E2,1.13E2,1.23E2,1.1994E4,1.439E3,3.3683E4,3.291E3,2.78E2,6.94E2,1.61E2,1.16E2,1.26E2,1.03E2,3.34E2,4.6E2,1.48E2,1.984E3,1.986E3,2.53E2,4.981E3,1.2037E4,8.527E3,3.684E3,1.986E3,7.57E2,3.64167E5,7.401E3,2.68E2,8.19E2,9.344E3,2.65E3,1.338E3,1.01E2,2.8988E4,4.695E3,3.035E3,2.56E2,1.59E2,1.19E2,5.91E2,1.03E2,2.12E2,1.22E2,1.666E3,3.18E2,3.54E2,1.632E3,1.47E2,1.06E2,3.043E3,1.938E3,1.181E4,2.27E2,7.929E3,5.98E2,1.4E2,3.544E3,6.14E2,1.43E2,1.75619E5,1.88548E5,6.488E3,9.13E2,7.566E3,1.778E3,2.456E3,1.94E2,9.74E2,3.64E2,2.7233E4,1.755E3,4.591E3,1.04E2,1.479E3,1.556E3,1.23E2,1.33E2,1.1E2,1.02E2,2.08E2,1.458E3,2.09E2,1.09E2,2.37E2,1.17E2,1.528E3,4.1E2,8.469E3,3.341E3,3.352E3,1.92E2,3.6108E4,1.39511E5,1.88382E5,1.66E2,6.374E3,1.14E2,2.41E2,6.72E2,7.117E3,4.49E2,1.474E3,3.04E2,3.13E2,2.143E3,1.71E2,8.03E2,1.337E3,2.5896E4,1.653E3,1.02E2,2.246E3,2.345E3,9.48E2,5.31E2,2.16E2,1.242E3,1.51E2,1.377E3,3.08E2,1.02E2,3.4773E4,1.335E3,1.39378E5,1.33E2,1.2E2,1.21E2,5.557E3,1.56E3,2.59E2,1.9E2,9.1E2,5.64E2,1.31E2,1.73E2,1.41E2,1.72E2,8.69E2,1.274E3,1.74E2,6.29E2,8.19E2,5.18E2,2.28E4,3.096E3,9.14E2,7.39E2,1.776E3,4.7E2,1.03E2,2.242E3,2.95E2,2.36E2,1.09E3,1.52E2,3.2288E4,2.485E3,1.45E2,1.19E3,5.283E3,2.74E2,1.38E2,1.21E2,6.91E2,2.19E2,1.132E3,1.42E2,1.95E2,4.34E2,5.78E2,2.41E2,2.558E3,2.0242E4,1.39E3,1.706E3,7.98E2,1.16E2,7.24E2,1.052E3,3.27E2,1.43E2,1.94E2,1.01E2,1.55E2,9.35E2,2.34E3,1.45E2,5.183E3,1E2,1.21E2,1.53E2,5.91E2,1E2,1.05E2,1.14E2,4.21E2,7.11E2,2.37E2,1.97E2,1E2,1.41E2,1.573E3,1.33E2,9.42E2,1.1E2,1.45E2,1.82E2,5.71E2,1.4E2,1.35E2,1.02E2,2.07E2,1.366E3,6.86E2,2.56E2,1.05E2,1.02E2,1.13E2,1.43E2],"tree_param":{"num_deleted":"0","num_feature":"397","num_nodes":"321","size_leaf_vector":"1"}},{"base_weights":[2.356258E-4,-3.8109135E-3,3.881106E-1,-4.5909425E-3,4.22537E-1,2.2143437E-1,5.443465E-1,-6.2044985E-3,1.4588697E-1,5.619638E-1,1.8064843E-1,4.1199854E-1,9.0556204E-2,5.7263225E-1,3.1420854E-1,-1.0686096E-2,2.8667687E-2,2.4364994E-1,4.424064E-2,6.140476E-2,3.2741345E-2,3.5724638E-3,3.4113266E-2,4.885645E-1,1.0052608E-2,5.686263E-2,2.7604613E-1,5.95157E-1,3.0920481E-2,5.7923324E-2,1.0714015E-2,3.8521387E-2,-1.3440112E-2,2.4543876E-2,1.9067112E-1,1.4557955E-1,4.8660278E-1,2.972155E-2,2.9788462E-2,5.282096E-1,2.0777998E-2,-6.1459065E-4,1.3908106E-1,3.8846474E-2,1.3919868E-2,3.5322517E-2,6.0952093E-2,3.1237291E-2,3.6602923E-1,-1.43572185E-2,5.5017654E-2,2.1127483E-2,2.1454115E-1,1.0692847E-1,5.0013256E-1,7.737867E-2,4.2606613E-1,5.6295365E-1,8.890289E-3,1.7268727E-2,1.7077362E-2,4.626408E-2,6.446071E-2,2.1106552E-1,2.3596142E-3,1.3149733E-2,1.079552E-1,4.85979E-3,5.1140588E-2,1.8519636E-2,-1.5523172E-2,3.9884567E-1,3.4324095E-2,1.7791811E-2,1.5129472E-1,-1.9104897E-4,2.87894E-1,2.0103931E-1,-9.048187E-4,2.9649911E-2,6.1598238E-2,2.0940879E-1,2.6700182E-3,5.2597977E-2,2.5280824E-2,3.3393722E-2,6.1823584E-2,3.8097687E-2,-3.4477494E-3,2.8445306E-1,6.623916E-3,1.1186797E-2,2.2271475E-2,1.7094035E-1,4.966672E-2,-2.2418567E-4,4.578772E-2,-1.1850872E-2,-1.8991264E-2,9.020314E-3,6.0835697E-2,2.152385E-3,1.0515992E-1,8.400092E-2,1.345169E-2,1.0176514E-1,4.997558E-2,4.7118545E-1,6.9257714E-2,3.3092435E-2,1.4193588E-1,3.227911E-2,4.9773866E-4,1.7743712E-2,2.7188186E-2,3.8829055E-2,1.5707223E-2,1.4962593E-2,9.137002E-3,4.289053E-2,1.4851853E-1,1.4298326E-1,2.84948E-3,8.752833E-2,2.344674E-2,-6.237499E-4,-1.4807127E-2,-1.912147E-2,1.2328242E-2,3.3864167E-2,-2.0658614E-3,1.703827E-1,-3.9191176E-3,4.7787596E-2,6.8044305E-2,9.216352E-3,5.6673776E-2,6.0809817E-2,3.0679962E-2,5.656138E-2,2.6771074E-2,-1.9492276E-3,1.9232195E-2,-3.4411307E-4,2.653021E-1,6.0707632E-2,-1.7884003E-3,9.050308E-2,5.6862296E-3,1.1924693E-1,3.10901E-1,8.334557E-3,2.6818529E-2,5.17741E-3,1.655202E-1,1.128011E-3,9.575424E-3,-2.7264648E-3,5.520962E-2,-1.5029543E-3,1.3754618E-2,-1.9210048E-3,1.3394723E-2,9.24318E-2,2.1751283E-4,1.2928024E-1,4.0673472E-2,3.342161E-2,1.488179E-1,4.725702E-3,3.3529386E-2,2.6459614E-2,1.2310828E-1,2.0974196E-2,2.1838963E-2,1.2421024E-2,3.847394E-2,1.3672734E-2,9.903207E-4,2.0310485E-3,1.7734483E-1,1.0598054E-2,-1.9764989E-3,2.6477454E-2,9.598046E-2,3.992064E-2,1.6604494E-2,1.1931586E-2,3.2246895E-2,-5.574271E-3,4.1857056E-2,4.634929E-2,2.9627368E-4,1.5534426E-3,3.1695973E-2,3.134907E-3,2.915741E-1,1.1326349E-3,8.457942E-2,1.0330404E-1,3.133858E-2,3.3288065E-3,9.50846E-2,4.646194E-2,-2.1642556E-3,1.732915E-3,1.3239828E-1,2.589961E-1,5.9817344E-2,1.4137613E-2,-8.5478456E-4,2.5012145E-2,4.318607E-3,-1.4739727E-4,2.644008E-2,-3.6947024E-3,1.1681786E-1,-6.524044E-3,7.274509E-2,2.730349E-2,2.3845207E-2,5.883182E-2,1.2935514E-2,3.3110974E-3,1.7056246E-1,3.5196546E-2,5.5836152E-2,3.718185E-2,-3.771411E-4,3.536476E-2,2.9258305E-2,4.0533096E-2,2.410671E-2,2.3979608E-2,2.1159148E-3,6.4524407E-3,3.338892E-2,1.4022583E-1,1.7316213E-3,1.783173E-3,1.00515656E-1,2.2142861E-2,9.4184335E-3,-1.2065838E-3,-1.8133495E-3,2.3942625E-2,9.152504E-4,7.03881E-2,-5.2934873E-5,4.0697833E-3,3.049503E-2,2.514785E-2,3.534705E-4,2.839094E-2,2.990642E-2,2.5546083E-2,-4.4183314E-4,1.4028216E-2,-3.044982E-3,3.332081E-2,1.9045039E-1,2.654937E-2,4.3942886E-3,1.4210843E-2,5.349988E-4,-3.1483897E-3,6.0759567E-2,9.917804E-2,-3.0759838E-3,2.2552938E-3,1.9207876E-2,1.5925862E-3,9.3555465E-2,4.648151E-2,-2.1810278E-3,3.7244633E-2,-5.022194E-3,-4.0706443E-3,1.0915454E-2,2.3129594E-2,-1.0518305E-4,2.0267885E-2,6.1091874E-3,1.3413361E-2,-6.5177E-4,3.5955697E-2,1.6820803E-1,-4.9566955E-4,9.904384E-3,2.9800849E-2,1.5217747E-2,2.4096597E-2,3.83387E-3,1.8988488E-3,9.168994E-2,1.5177374E-1,-2.6276882E-3,2.4737356E-2,7.050155E-3],"categories":[],"categories_nodes":[],"categories_segments":[],"categories_sizes":[],"default_left":[1,1,0,1,0,0,1,0,0,1,0,1,1,0,0,0,1,0,1,0,0,0,0,0,0,0,1,0,0,0,0,0,0,0,0,1,0,1,0,0,0,0,0,0,0,0,0,0,0,0,0,1,0,0,1,0,0,0,0,0,0,0,0,0,0,1,0,0,0,0,0,0,0,1,0,0,0,0,0,0,0,1,0,0,0,0,0,0,0,0,0,0,0,1,0,0,0,0,1,0,0,0,1,0,0,0,0,0,0,0,0,0,0,0,0,0,0,0,0,0,1,0,0,0,0,0,0,1,0,0,0,0,0,0,1,1,0,0,0,0,0,0,0,0,1,0,0,0,0,1,0,0,0,0,0,0,0,0,0,0,0,0,0,0,0,0,0,0,0,0,1,1,0,0,0,0,0,0,0,0,1,0,0,0,0,0,0,0,0,0,0,0,0,0,0,0,0,0,1,0,0,0,0,1,0,0,1,0,0,0,0,0,0,0,0,0,0,1,0,0,0,0,0,0,0,0,0,0,0,0,0,1,0,0,0,0,0,0,0,0,0,0,0,0,0,0,0,0,0,0,0,0,0,1,0,0,0,0,0,0,0,0,0,0,0,1,0,0,0,0,0,0,1,1,0,0,0,1,0,0,0,0,0,0,0,0,1,0,0,0,0,0,0,0,0,0,0,0,0],"id":4,"left_children":[1,3,5,7,9,11,13,15,17,19,21,23,25,27,29,31,33,35,37,-1,-1,-1,-1,39,-1,41,43,45,-1,-1,-1,47,49,51,53,55,57,59,-1,61,-1,-1,63,-1,-1,-1,-1,65,67,69,71,73,75,77,79,81,83,85,-1,87,-1,-1,-1,89,-1,91,93,-1,-1,95,97,99,101,103,105,-1,107,109,-1,-1,-1,111,-1,-1,-1,-1,-1,113,-1,115,-1,117,-1,119,121,-1,123,125,127,-1,-1,129,131,133,135,137,-1,139,141,-1,143,-1,-1,145,-1,-1,-1,-1,147,-1,149,151,-1,153,155,157,159,161,-1,163,-1,165,-1,-1,167,169,171,173,-1,-1,-1,-1,-1,-1,175,177,-1,179,181,183,185,-1,-1,-1,187,-1,-1,189,191,-1,-1,-1,-1,193,-1,195,-1,197,199,201,203,205,207,-1,209,-1,-1,-1,-1,-1,211,213,-1,-1,215,-1,-1,-1,-1,217,219,-1,-1,-1,-1,-1,221,-1,223,225,-1,227,229,231,-1,-1,233,235,237,-1,-1,-1,-1,-1,239,-1,241,243,245,247,-1,-1,-1,-1,249,-1,251,253,255,257,-1,259,-1,-1,-1,-1,-1,261,-1,-1,263,-1,-1,265,-1,-1,-1,267,-1,-1,-1,-1,-1,269,-1,271,-1,-1,-1,273,275,-1,-1,-1,-1,277,279,281,-1,-1,-1,-1,283,285,-1,-1,-1,287,-1,-1,-1,-1,-1,-1,-1,289,291,-1,-1,293,-1,-1,-1,-1,295,297,-1,-1,-1],"loss_changes":[7.4153674E2,1.555176E2,1.2582172E2,1.1333322E2,2.7786621E1,5.8910934E1,1.4546326E1,7.2172714E1,4.9101448E1,4.549652E0,7.48349E0,2.252237E1,8.730275E0,1.1356201E1,1.5678247E1,5.546017E1,3.5087757E1,5.9382004E1,8.897202E0,0E0,0E0,0E0,0E0,7.4961853E0,0E0,6.307991E0,2.7822475E0,4.929199E0,0E0,0E0,0E0,5.163169E1,2.4337967E1,3.3251816E1,3.3258537E1,3.4313717E1,2.1392487E1,4.043825E0,0E0,2.131256E0,0E0,0E0,4.3395243E0,0E0,0E0,0E0,0E0,2.94454E1,2.148676E1,1.4661797E1,3.6327602E1,2.1857397E1,1.43745E1,1.1358524E1,4.6611176E0,9.773294E0,4.763687E0,5.5697784E0,0E0,2.3218257E0,0E0,0E0,0E0,3.2551985E0,0E0,7.046818E0,1.4780228E1,0E0,0E0,7.4184093E0,4.7013474E0,1.820383E1,1.1039053E1,1.4113376E1,2.1203407E1,0E0,2.6763798E1,3.936697E0,0E0,0E0,0E0,9.3945675E0,0E0,0E0,0E0,0E0,0E0,7.241684E0,0E0,2.1942062E0,0E0,4.8223705E0,0E0,1.0595615E1,4.1417937E0,0E0,5.261305E0,5.954403E0,3.5419235E0,0E0,0E0,2.424523E0,1.431164E1,1.8667845E1,8.441536E0,9.167977E0,0E0,5.5180435E0,3.5325115E0,0E0,7.3981895E0,0E0,0E0,2.18446E0,0E0,0E0,0E0,0E0,4.71301E0,0E0,8.194511E0,2.6810484E0,0E0,5.410515E0,3.2468705E0,4.392797E0,4.832823E0,2.5985641E0,0E0,2.6000342E0,0E0,9.616266E0,0E0,0E0,8.105148E0,4.587962E0,8.229321E0,5.415771E0,0E0,0E0,0E0,0E0,0E0,0E0,3.2800293E0,2.4814007E0,0E0,4.1273074E0,2.0186622E0,4.970335E0,2.7780704E0,0E0,0E0,0E0,4.0750465E0,0E0,0E0,4.580192E0,2.895448E1,0E0,0E0,0E0,0E0,8.445442E0,0E0,1.4276433E1,0E0,2.3121493E0,6.2076416E0,4.4769573E0,4.685001E0,2.7260349E0,1.0888075E1,0E0,2.761776E0,0E0,0E0,0E0,0E0,0E0,2.8601246E0,2.5875568E0,0E0,0E0,3.7713976E0,0E0,0E0,0E0,0E0,2.5264177E0,6.132162E0,0E0,0E0,0E0,0E0,0E0,1.55576E1,0E0,2.678431E0,8.0422735E0,0E0,4.38664E0,6.2655993E0,6.030034E0,0E0,0E0,2.6253533E0,5.683216E0,3.0138326E0,0E0,0E0,0E0,0E0,0E0,3.7130756E0,0E0,2.5521994E0,2.0680149E0,4.2921586E0,2.4322839E0,0E0,0E0,0E0,0E0,3.8724523E0,0E0,6.110072E0,7.8576274E0,3.3036041E0,2.984286E0,0E0,5.522257E0,0E0,0E0,0E0,0E0,0E0,3.57405E0,0E0,0E0,2.3950257E0,0E0,0E0,2.7680926E0,0E0,0E0,0E0,2.3484926E0,0E0,0E0,0E0,0E0,0E0,3.1570182E0,0E0,2.7676911E0,0E0,0E0,0E0,3.595149E0,1.0480374E1,0E0,0E0,0E0,0E0,2.314096E0,7.370655E0,2.328072E0,0E0,0E0,0E0,0E0,2.1406531E0,5.05435E0,0E0,0E0,0E0,2.0266266E0,0E0,0E0,0E0,0E0,0E0,0E0,0E0,2.592063E0,2.88406E0,0E0,0E0,2.3340428E0,0E0,0E0,0E0,0E0,3.7255864E0,2.5138822E0,0E0,0E0,0E0],"parents":[2147483647,0,0,1,1,2,2,3,3,4,4,5,5,6,6,7,7,8,8,9,9,10,10,11,11,12,12,13,13,14,14,15,15,16,16,17,17,18,18,23,23,25,25,26,26,27,27,31,31,32,32,33,33,34,34,35,35,36,36,37,37,39,39,42,42,47,47,48,48,49,49,50,50,51,51,52,52,53,53,54,54,55,55,56,56,57,57,59,59,63,63,65,65,66,66,69,69,70,70,71,71,72,72,73,73,74,74,76,76,77,77,81,81,87,87,89,89,91,91,93,93,94,94,96,96,97,97,98,98,101,101,102,102,103,103,104,104,105,105,107,107,108,108,110,110,113,113,118,118,120,120,121,121,123,123,124,124,125,125,126,126,127,127,129,129,131,131,134,134,135,135,136,136,137,137,144,144,145,145,147,147,148,148,149,149,150,150,154,154,157,157,158,158,163,163,165,165,167,167,168,168,169,169,170,170,171,171,172,172,174,174,180,180,181,181,184,184,189,189,190,190,196,196,198,198,199,199,201,201,202,202,203,203,206,206,207,207,208,208,214,214,216,216,217,217,218,218,219,219,224,224,226,226,227,227,228,228,229,229,231,231,237,237,240,240,243,243,247,247,253,253,255,255,259,259,260,260,265,265,266,266,267,267,272,272,273,273,277,277,285,285,286,286,289,289,294,294,295,295],"right_children":[2,4,6,8,10,12,14,16,18,20,22,24,26,28,30,32,34,36,38,-1,-1,-1,-1,40,-1,42,44,46,-1,-1,-1,48,50,52,54,56,58,60,-1,62,-1,-1,64,-1,-1,-1,-1,66,68,70,72,74,76,78,80,82,84,86,-1,88,-1,-1,-1,90,-1,92,94,-1,-1,96,98,100,102,104,106,-1,108,110,-1,-1,-1,112,-1,-1,-1,-1,-1,114,-1,116,-1,118,-1,120,122,-1,124,126,128,-1,-1,130,132,134,136,138,-1,140,142,-1,144,-1,-1,146,-1,-1,-1,-1,148,-1,150,152,-1,154,156,158,160,162,-1,164,-1,166,-1,-1,168,170,172,174,-1,-1,-1,-1,-1,-1,176,178,-1,180,182,184,186,-1,-1,-1,188,-1,-1,190,192,-1,-1,-1,-1,194,-1,196,-1,198,200,202,204,206,208,-1,210,-1,-1,-1,-1,-1,212,214,-1,-1,216,-1,-1,-1,-1,218,220,-1,-1,-1,-1,-1,222,-1,224,226,-1,228,230,232,-1,-1,234,236,238,-1,-1,-1,-1,-1,240,-1,242,244,246,248,-1,-1,-1,-1,250,-1,252,254,256,258,-1,260,-1,-1,-1,-1,-1,262,-1,-1,264,-1,-1,266,-1,-1,-1,268,-1,-1,-1,-1,-1,270,-1,272,-1,-1,-1,274,276,-1,-1,-1,-1,278,280,282,-1,-1,-1,-1,284,286,-1,-1,-1,288,-1,-1,-1,-1,-1,-1,-1,290,292,-1,-1,294,-1,-1,-1,-1,296,298,-1,-1,-1],"split_conditions":[3E0,4E0,5E0,2E0,6.70667E1,1E0,1.04041664E2,1E0,3.9644E0,2.5E1,3E0,2E0,3E0,1.30592E1,2E0,1E0,3E0,5E0,2E0,6.140476E-2,3.2741345E-2,3.5724638E-3,3.4113266E-2,4.47744E1,1.0052608E-2,1.79E2,3E0,1E1,3.0920481E-2,5.7923324E-2,1.0714015E-2,3E0,5E0,4E0,1.1E1,2E0,2.5E1,2E0,2.9788462E-2,3E0,2.0777998E-2,-6.1459065E-4,3E0,3.8846474E-2,1.3919868E-2,3.5322517E-2,6.0952093E-2,1E0,1E0,3E0,3E0,2E0,5E0,6E0,4.9E2,1E0,3E0,8.2172E0,8.890289E-3,1.1E1,1.7077362E-2,4.626408E-2,6.446071E-2,1.0895E4,2.3596142E-3,2E0,1E0,4.85979E-3,5.1140588E-2,7.595E1,1E0,6E0,2E0,1.11E2,2.34E2,-1.9104897E-4,2.6E1,2E0,-9.048187E-4,2.9649911E-2,6.1598238E-2,3E0,2.6700182E-3,5.2597977E-2,2.5280824E-2,3.3393722E-2,6.1823584E-2,5E0,-3.4477494E-3,1.67E2,6.623916E-3,1.5E2,2.2271475E-2,1.04E2,1.81E2,-2.2418567E-4,2E0,1E0,2.75E2,9.020314E-3,6.0835697E-2,2.03E2,2.37E2,1.27E2,3.35E2,8E0,4.997558E-2,3.6E1,2E0,3.3092435E-2,2E0,3.227911E-2,4.9773866E-4,3E0,2.7188186E-2,3.8829055E-2,1.5707223E-2,1.4962593E-2,4.7E1,4.289053E-2,2E0,2E0,2.84948E-3,1E0,2E0,6E2,2.137E3,1.68E2,1.2328242E-2,2E0,-2.0658614E-3,2.429E2,-3.9191176E-3,4.7787596E-2,9.2E1,5E0,4.45E2,1E0,3.0679962E-2,5.656138E-2,2.6771074E-2,-1.9492276E-3,1.9232195E-2,-3.4411307E-4,2.26E2,2E0,-1.7884003E-3,1.2995E2,1E0,1E0,2.70682E1,8.334557E-3,2.6818529E-2,5.17741E-3,3.7E2,1.128011E-3,9.575424E-3,4.45E2,2.45E1,-1.5029543E-3,1.3754618E-2,-1.9210048E-3,1.3394723E-2,1E1,2.1751283E-4,1E1,4.0673472E-2,1.2995E2,1E0,5E0,1E0,3.15E2,2.2E1,2.0974196E-2,1E0,1.2421024E-2,3.847394E-2,1.3672734E-2,9.903207E-4,2.0310485E-3,3.583333E0,1.5E2,-1.9764989E-3,2.6477454E-2,1.63E2,3.992064E-2,1.6604494E-2,1.1931586E-2,3.2246895E-2,1.3E1,1E0,4.634929E-2,2.9627368E-4,1.5534426E-3,3.1695973E-2,3.134907E-3,1.6E1,1.1326349E-3,3.96E2,1.1395E2,3.133858E-2,1E0,5.42E2,3E0,-2.1642556E-3,1.732915E-3,3.6E2,1E0,2.7E1,1.4137613E-2,-8.5478456E-4,2.5012145E-2,4.318607E-3,-1.4739727E-4,1E0,-3.6947024E-3,3.4083332E1,8.5E1,1.2E1,6E0,2.3845207E-2,5.883182E-2,1.2935514E-2,3.3110974E-3,2.09E2,3.5196546E-2,2E0,3E0,4E0,4E0,2.9258305E-2,5.79E2,2.410671E-2,2.3979608E-2,2.1159148E-3,6.4524407E-3,3.338892E-2,2E0,1.7316213E-3,1.783173E-3,5E2,2.2142861E-2,9.4184335E-3,4E0,-1.8133495E-3,2.3942625E-2,9.152504E-4,1E0,-5.2934873E-5,4.0697833E-3,3.049503E-2,2.514785E-2,3.534705E-4,4.98E2,2.990642E-2,5.02E2,-4.4183314E-4,1.4028216E-2,-3.044982E-3,4.82E2,2E0,2.654937E-2,4.3942886E-3,1.4210843E-2,5.349988E-4,2E0,3E0,5E2,-3.0759838E-3,2.2552938E-3,1.9207876E-2,1.5925862E-3,3.4E1,2E0,-2.1810278E-3,3.7244633E-2,-5.022194E-3,2E0,1.0915454E-2,2.3129594E-2,-1.0518305E-4,2.0267885E-2,6.1091874E-3,1.3413361E-2,-6.5177E-4,4.2495E2,1.4E1,-4.9566955E-4,9.904384E-3,5E1,1.5217747E-2,2.4096597E-2,3.83387E-3,1.8988488E-3,2E0,3E0,-2.6276882E-3,2.4737356E-2,7.050155E-3],"split_indices":[303,90,9,232,255,22,30,339,252,37,83,368,234,250,21,22,107,9,197,0,0,0,0,312,0,3,132,0,0,0,0,9,16,12,328,243,21,307,0,232,0,0,221,0,0,0,0,391,16,24,21,57,9,21,2,22,184,257,0,21,0,0,0,1,0,293,389,0,0,0,115,9,132,4,365,0,21,101,0,0,0,266,0,0,0,0,0,9,0,4,0,3,0,2,2,0,21,389,316,0,0,34,24,2,0,328,0,23,103,0,112,0,0,212,0,0,0,0,36,0,132,302,0,24,334,2,365,3,0,32,0,355,0,0,360,328,357,127,0,0,0,0,0,0,5,21,0,0,13,103,260,0,0,0,352,0,0,0,0,0,0,0,0,9,0,9,0,0,119,16,104,23,33,0,389,0,0,0,0,0,30,0,0,0,3,0,0,0,0,9,387,0,0,0,0,0,21,0,2,360,0,22,34,122,0,0,2,33,32,0,0,0,0,0,393,0,30,37,14,37,0,0,0,0,26,0,21,9,24,21,0,2,0,0,0,0,0,10,0,0,210,0,0,9,0,0,0,41,0,0,0,0,0,5,0,352,0,0,0,359,128,0,0,0,0,58,22,0,0,0,0,0,37,106,0,0,0,50,0,0,0,0,0,0,0,359,37,0,0,366,0,0,0,0,121,21,0,0,0],"split_type":[0,0,0,0,0,0,0,0,0,0,0,0,0,0,0,0,0,0,0,0,0,0,0,0,0,0,0,0,0,0,0,0,0,0,0,0,0,0,0,0,0,0,0,0,0,0,0,0,0,0,0,0,0,0,0,0,0,0,0,0,0,0,0,0,0,0,0,0,0,0,0,0,0,0,0,0,0,0,0,0,0,0,0,0,0,0,0,0,0,0,0,0,0,0,0,0,0,0,0,0,0,0,0,0,0,0,0,0,0,0,0,0,0,0,0,0,0,0,0,0,0,0,0,0,0,0,0,0,0,0,0,0,0,0,0,0,0,0,0,0,0,0,0,0,0,0,0,0,0,0,0,0,0,0,0,0,0,0,0,0,0,0,0,0,0,0,0,0,0,0,0,0,0,0,0,0,0,0,0,0,0,0,0,0,0,0,0,0,0,0,0,0,0,0,0,0,0,0,0,0,0,0,0,0,0,0,0,0,0,0,0,0,0,0,0,0,0,0,0,0,0,0,0,0,0,0,0,0,0,0,0,0,0,0,0,0,0,0,0,0,0,0,0,0,0,0,0,0,0,0,0,0,0,0,0,0,0,0,0,0,0,0,0,0,0,0,0,0,0,0,0,0,0,0,0,0,0,0,0,0,0,0,0,0,0,0,0,0,0,0,0,0,0,0,0,0,0,0,0],"sum_hessian":[4.72432E5,4.67564E5,4.868E3,4.6672E5,8.44E2,2.367E3,2.501E3,4.61778E5,4.942E3,5.27E2,3.17E2,9.55E2,1.412E3,2.214E3,2.87E2,4.09197E5,5.2581E4,2.512E3,2.43E3,4.18E2,1.09E2,1.73E2,1.44E2,7.62E2,1.93E2,1.206E3,2.06E2,2.028E3,1.86E2,1.18E2,1.69E2,2.1681E4,3.87516E5,5.1287E4,1.294E3,1.801E3,7.11E2,2.309E3,1.21E2,6.6E2,1.02E2,6.88E2,5.18E2,1.03E2,1.03E2,1.28E2,1.9E3,2.122E4,4.61E2,3.82401E5,5.115E3,5.0392E4,8.95E2,1.029E3,2.65E2,1.459E3,3.42E2,5.93E2,1.18E2,2.132E3,1.77E2,4.54E2,2.06E2,3.14E2,2.04E2,1.7181E4,4.039E3,1.49E2,3.12E2,1.3092E4,3.69309E5,2.8E2,4.835E3,4.9144E4,1.248E3,2.29E2,6.66E2,5.64E2,4.65E2,1.09E2,1.56E2,3.96E2,1.063E3,2.04E2,1.38E2,1.29E2,4.64E2,1.522E3,6.1E2,2.02E2,1.12E2,1.7032E4,1.49E2,1.932E3,2.107E3,7.438E3,5.654E3,1.79395E5,1.89914E5,1.19E2,1.61E2,3.332E3,1.503E3,3.012E3,4.6132E4,1.104E3,1.44E2,3.56E2,3.1E2,1.62E2,4.02E2,2.51E2,1.45E2,1.41E3,1.12E2,1E2,1.02E2,2.38E2,1.6794E4,1.4E2,1.792E3,3.79E2,1.728E3,1.961E3,3.693E3,3.7394E4,1.42001E5,1.89749E5,1.65E2,1.392E3,1.94E3,1.034E3,4.69E2,1.06E2,2.906E3,4.2026E4,4.106E3,9.31E2,1.73E2,2.31E2,1.25E2,1.85E2,1.25E2,1.89E2,2.13E2,6.36E2,7.74E2,6.73E2,1.6121E4,1.533E3,2.59E2,2.68E2,1.11E2,1.356E3,6.05E2,3.171E3,5.22E2,3.6046E4,1.348E3,1.41803E5,1.98E2,1.89648E5,1.01E2,4.82E2,9.1E2,8.94E2,1.4E2,2.044E3,8.62E2,3.5484E4,6.542E3,2.832E3,1.274E3,1.84E2,7.47E2,1.07E2,1.06E2,2.48E2,3.88E2,3.79E2,2.94E2,1.3518E4,2.603E3,1.97E2,1.336E3,1.5E2,1.09E2,4.81E2,1.24E2,3.389E4,2.156E3,1.44E2,1.204E3,3.67E2,1.15E2,5.65E2,3.29E2,1.436E3,6.08E2,6.88E2,1.74E2,3.4954E4,5.3E2,5.301E3,1.241E3,2.618E3,2.14E2,3.95E2,8.79E2,1.44E2,6.03E2,1.85E2,1.09E2,7.677E3,5.841E3,1.8E2,1.156E3,3.3493E4,3.97E2,2.018E3,1.38E2,1.07E2,2.22E2,3.89E2,2.19E2,1E2,5.88E2,3.44E3,3.1514E4,4.16E2,1.14E2,5.156E3,1.45E2,1.03E2,1.11E2,1.15E2,2.8E2,2.96E2,5.83E2,5.244E3,5.97E2,1.9E2,9.66E2,2.2979E4,1.0514E4,1.02E2,2.95E2,7.86E2,1.232E3,1.18E2,1.01E2,1.16E2,4.72E2,3.339E3,1.01E2,4.243E3,2.7271E4,1.56E2,2.6E2,4.931E3,2.25E2,1.21E2,1.75E2,4.12E2,1.85E2,2.229E4,6.89E2,6.12E2,1.74E2,3.235E3,1.04E2,3.728E3,5.15E2,3.982E3,9.49E2,1.25E2,1E2,2.2118E4,1.72E2,1.76E2,5.13E2,1.53E2,4.59E2,3.64E2,1.51E2,3.677E3,3.05E2,2.1939E4,1.79E2,3.504E3,1.73E2,1.9E2,1.15E2,2.994E3,5.1E2,3.36E2,1.74E2,1.45E2,1.91E2],"tree_param":{"num_deleted":"0","num_feature":"397","num_nodes":"299","size_leaf_vector":"1"}},{"base_weights":[2.6679423E-4,-3.3842109E-3,3.5022834E-1,-4.088979E-3,3.81827E-1,1.6664708E-1,4.6469405E-1,-5.261536E-3,1.6706847E-1,1.3259052E-1,4.911025E-1,3.309952E-1,6.097492E-2,5.017506E-1,2.5196543E-1,-9.410198E-3,2.6858645E-2,1.2627266E-1,4.4464666E-1,7.050585E-4,3.0816844E-2,5.3342253E-2,2.9099813E-2,3.9224416E-1,-4.1941013E-3,1.1300005E-1,-1.6376432E-3,5.198653E-1,2.1093572E-2,1.2248558E-1,4.6944607E-2,3.5229165E-2,-1.1892439E-2,2.292874E-2,2.0409988E-1,7.324581E-2,3.081919E-1,2.4002172E-2,5.4329306E-2,4.5253453E-1,2.2269888E-2,1.6163401E-1,-8.873571E-4,2.813953E-2,5.3873056E-1,5.667011E-4,2.8142665E-2,2.7980179E-2,3.3913034E-1,-1.2780521E-2,4.855923E-2,2.173136E-2,4.0628772E-2,2.999586E-1,3.926448E-3,2.6906848E-1,2.76932E-2,4.8613556E-2,1.2226051E-1,3.6241755E-2,5.5066455E-2,8.767863E-3,3.0041827E-2,4.392471E-1,5.6412794E-2,9.8535106E-2,1.1554791E-2,4.8645446E-3,4.6118777E-2,1.7010747E-2,-1.3838254E-2,3.649525E-1,3.0890994E-2,1.9089416E-2,1.4063711E-1,8.397258E-4,4.560625E-1,3.683358E-1,1.0994735E-2,1.8214165E-4,1.1597315E-1,3.170806E-2,-1.9612275E-3,3.5422304E-1,5.4609623E-2,8.191679E-2,3.1919196E-1,9.8321345E-3,2.3298038E-2,-1.6945615E-4,4.1565884E-2,-1.129864E-2,-1.7931355E-3,4.5632105E-3,5.247277E-2,2.3175491E-2,2.8113348E-2,4.471373E-2,1.0168859E-2,4.840204E-2,4.3598086E-1,2.6397547E-2,5.1054496E-2,2.5055325E-2,4.817425E-2,1.3108441E-3,1.9033974E-2,1.78534E-2,4.4649463E-2,7.146128E-2,4.1580074E-2,4.1420306E-3,6.190777E-2,7.820732E-2,6.7752907E-3,7.966092E-2,2.113456E-2,-1.220055E-2,1.110367E-2,6.317022E-2,-3.0152702E-3,3.3023708E-2,1.5250519E-1,6.6668834E-3,7.03092E-2,-7.486107E-5,3.2460332E-2,2.2732766E-2,5.579393E-2,5.353283E-2,1.9797106E-1,1.5325081E-3,1.5358272E-1,1.4238563E-2,5.4119754E-4,4.7784215E-3,1.4968653E-1,1.0286324E-3,8.540313E-3,-1.2304111E-2,1.8314416E-2,7.725111E-4,1.2842497E-1,1.417782E-2,3.9393473E-1,-9.721295E-4,1.8319864E-2,1.903142E-2,7.257723E-2,2.4457493E-1,5.39124E-2,1.7757985E-3,3.627317E-2,3.603645E-2,4.9950447E-2,9.530944E-2,1.77978E-3,3.2023408E-2,1.2843459E-2,1.297744E-3,2.443273E-2,1.067911E-2,2.9855458E-2,1.9589337E-2,-1.2743341E-2,2.4446147E-2,-2.3690509E-3,2.5511254E-4,1.8938856E-2,2.181634E-2,5.181483E-2,1.4608458E-2,1.1378279E-1,1.4461014E-2,1.18358485E-1,2.9449958E-1,-1.633079E-3,1.0790544E-3,2.1860396E-2,-2.6435195E-3,3.1187598E-2,4.386582E-2,-4.583265E-3,1.5474954E-1,-2.321142E-3,-1.4348255E-3,1.1293341E-1,-1.3476352E-3,5.475616E-2,-1.2892555E-2,8.0058046E-2,1.0869578E-5,4.1610725E-2,2.4104916E-2,4.4875517E-3,1.7912896E-2,-2.5030999E-3,8.8351555E-2,3.044725E-1,1.621708E-1,4.548912E-2,1.241827E-2,-1.014782E-3,2.0189917E-2,2.426484E-2,1.8222226E-2,8.391281E-2,4.613153E-3,3.8565602E-2,4.474233E-2,-3.3002452E-3,9.6923165E-2,2.4996867E-2,3.5498948E-3,2.2418877E-2,-1.3806044E-2,-6.2860013E-4,-3.7060434E-3,1.5388842E-1,6.373365E-2,-7.9302554E-4,5.340418E-2,-3.2435101E-3,1.7862746E-1,1.5032114E-3,8.8925585E-3,5.0362792E-2,2.731753E-2,6.0710595E-3,3.8029472E-4,5.860651E-3,1.3025365E-3,1.7228156E-2,-8.9109E-4,4.822997E-2,2.0901115E-1,6.197946E-2,-2.4627993E-4,2.1236543E-2,1.4006194E-4,1.1991185E-2,-1.396983E-3,4.9675643E-2,1.6625403E-1,-3.639351E-4,2.584785E-3,2.6203996E-2,5.092293E-2,1.7644579E-2,-1.219654E-3,2.3554947E-2,2.4841046E-1,6.190015E-2,1.5918441E-3,1.2792674E-1,8.7670767E-4,3.4069642E-2,1.145347E-1,1.828834E-2,1.3552603E-1,-1.2852874E-3,6.4581456E-3,2.558792E-2,2.8863868E-3,1.1418E-2,1.367883E-1,4.202282E-2,-5.3720525E-3,1.590265E-2,1.8527812E-1,-2.7026446E-3,-1.7013329E-3,1.5389985E-1,6.2131092E-2,-4.431266E-3,2.4483746E-2,1.0351719E-3,4.2373086E-3,2.6769245E-2,2.8208524E-2,6.7778374E-3,1.0522175E-2,3.2810032E-2,1.2565939E-1,-1.5545002E-3,9.829983E-4,1.8946296E-2],"categories":[],"categories_nodes":[],"categories_segments":[],"categories_sizes":[],"default_left":[1,1,0,1,0,0,0,0,0,0,1,1,0,1,0,0,0,0,0,0,0,0,0,0,0,0,0,0,0,0,0,0,0,1,0,0,0,0,0,0,0,0,0,0,0,0,0,1,0,0,0,1,0,0,0,0,0,0,0,0,0,0,0,0,0,0,1,0,0,0,1,0,1,0,1,0,0,0,0,0,0,0,0,0,0,0,0,0,0,0,0,0,0,0,0,0,0,1,1,1,0,0,0,0,0,0,0,0,0,1,0,0,0,0,0,0,0,0,0,0,1,1,0,1,1,0,0,0,0,0,0,0,0,0,0,0,0,0,0,0,0,0,0,1,0,0,0,0,1,0,0,0,1,0,0,0,0,0,0,0,0,0,0,0,1,0,0,0,0,0,0,0,0,1,1,0,0,0,0,1,0,0,0,0,0,0,0,0,0,0,0,0,1,0,0,0,1,0,0,0,0,0,0,0,0,1,0,0,0,0,0,0,0,0,0,0,0,0,1,0,0,0,0,0,0,0,0,0,0,0,0,0,0,0,0,0,0,0,0,0,0,0,0,0,0,0,0,1,0,0,0,0,1,0,0,0,0,0,0,1,0,0,0,0,0,0,0,0,0,0,0,0,1,0,0,0,0,0,0,0,0,0,0,0,0,0,0],"id":5,"left_children":[1,3,5,7,9,11,13,15,17,19,21,23,25,27,29,31,33,35,37,-1,-1,-1,-1,39,-1,41,-1,43,-1,45,-1,47,49,51,53,55,57,-1,-1,59,-1,61,-1,-1,63,-1,-1,65,67,69,71,73,-1,75,-1,77,79,-1,81,-1,-1,-1,-1,83,-1,85,87,-1,-1,89,91,93,95,97,99,-1,101,103,-1,-1,105,-1,-1,107,-1,109,111,113,-1,-1,115,117,-1,-1,-1,119,-1,121,123,125,127,-1,-1,-1,-1,-1,-1,-1,-1,129,-1,-1,-1,131,133,135,137,139,141,143,145,147,149,151,153,-1,-1,-1,-1,155,157,